<?xml version="1.0"?>
<opencv_storage>
<opencv_ml_ann_mlp>
  <format>3</format>
  <layer_sizes>
    900 64 64 64 13</layer_sizes>
  <activation_function>SIGMOID_SYM</activation_function>
  <f_param1>1.</f_param1>
  <f_param2>1.</f_param2>
  <min_val>-9.4999999999999996e-01</min_val>
  <max_val>9.4999999999999996e-01</max_val>
  <min_val1>-9.7999999999999998e-01</min_val1>
  <max_val1>9.7999999999999998e-01</max_val1>
  <training_params>
    <train_method>BACKPROP</train_method>
    <dw_scale>1.0000000000000001e-01</dw_scale>
    <moment_scale>1.0000000000000001e-01</moment_scale>
    <term_criteria>
      <epsilon>1.0000000000000000e-03</epsilon>
      <iterations>5000</iterations></term_criteria></training_params>
  <input_scale>
    9.9963282732270942e-03 -2.0647416048350564e+00
    8.0105667385514286e-03 -1.2290735786447742e+00
    7.9557962348148076e-03 -1.1844650632824860e+00
    8.0137204293753445e-03 -1.2314437607807880e+00
    8.0882286775664208e-03 -1.2831912579815452e+00
    8.1909425407353017e-03 -1.3454379210161493e+00
    8.2413190798594788e-03 -1.3734348430872279e+00
    8.2658388960743408e-03 -1.3866008331540831e+00
    8.3147552798673290e-03 -1.4120948891798686e+00
    8.3459300530971704e-03 -1.4278666531072268e+00
    8.4608313274848121e-03 -1.4833724733300084e+00
    8.5791002626720986e-03 -1.5370909968313824e+00
    8.4562971959582806e-03 -1.4812505507520308e+00
    8.3856588573303879e-03 -1.4474937289114915e+00
    8.4273611894235267e-03 -1.4675860556249252e+00
    8.3529188307720232e-03 -1.4313561708410940e+00
    8.3340915559475329e-03 -1.4219178253981590e+00
    8.3660618554738993e-03 -1.4378750511002991e+00
    8.4791911777335402e-03 -1.4919136877222163e+00
    8.6355859571880036e-03 -1.5617789341495933e+00
    8.8315835168679604e-03 -1.6436528018500782e+00
    9.0902877303667730e-03 -1.7449366700760891e+00
    9.2500574076800294e-03 -1.8046363922369479e+00
    9.2648141278107009e-03 -1.8100596093702783e+00
    9.2968790291611311e-03 -1.8217949602181940e+00
    9.3494712205180637e-03 -1.8409036914190680e+00
    9.5844901173091270e-03 -1.9244034164921491e+00
    9.8181107131070696e-03 -2.0048204456521823e+00
    9.5920990604939655e-03 -1.9270600797909767e+00
    1.1848341033417899e-02 -2.6429638637820942e+00
    1.2225195934036715e-02 -2.7543648559290892e+00
    1.2564250919279266e-02 -2.8534283670439162e+00
    1.0696955403725112e-02 -2.2912878474779186e+00
    8.5855189387162977e-03 -1.5399250938295050e+00
    7.8864119235717758e-03 -1.1107101223744280e+00
    7.8431431952730220e-03 -1.0012315275602608e+00
    7.8754269003519090e-03 -9.1328296753034799e-01
    7.9304726885938252e-03 -8.6148724816194722e-01
    7.8763171284494931e-03 -9.1215022794025236e-01
    7.8895481569101096e-03 -8.9696879884230796e-01
    7.8914296517028273e-03 -8.9501559944362807e-01
    7.8666329698103953e-03 -9.2553357392271551e-01
    7.8435664814559165e-03 -1.0105168373693560e+00
    7.8572931343221675e-03 -1.0619131671036410e+00
    7.8859001481346412e-03 -1.1100193048514320e+00
    7.9110709307746666e-03 -1.1405634378464939e+00
    7.9078724383284602e-03 -1.1369999821616648e+00
    7.8866689811250071e-03 -1.1110557260555500e+00
    7.8560134469142871e-03 -1.0589664402949783e+00
    7.8432100253775366e-03 -1.0043170105111126e+00
    7.8507404533917340e-03 -9.5692675386391846e-01
    7.8435174658632745e-03 -9.9020184574042225e-01
    7.8859001481346412e-03 -1.1100193048514320e+00
    8.1753067415824450e-03 -1.3364551252314434e+00
    8.6670213648404222e-03 -1.5752844685758380e+00
    9.0343456346917810e-03 -1.7235655106898558e+00
    9.7842202656432745e-03 -1.9932940367798169e+00
    9.6778400300581574e-03 -1.9568145871237745e+00
    9.3405936846811134e-03 -1.8376899567403577e+00
    1.0755908505928832e-02 -2.3098230778724429e+00
    1.2480035153796558e-02 -2.8289167685003553e+00
    1.1159796229793290e-02 -2.4350847062581726e+00
    1.1823496024483843e-02 -2.6355664038207514e+00
    9.4221561901204516e-03 -1.8670437359470913e+00
    8.2857402281091806e-03 -1.3970905280931354e+00
    7.8432445549342124e-03 -9.9478283996247518e-01
    7.8906185952959552e-03 -8.9585227765700859e-01
    7.9297358683094142e-03 -8.6202938665027284e-01
    7.9146818900561085e-03 -8.7374435136116335e-01
    7.8898145918409740e-03 -8.9668956653902188e-01
    7.8439575251130281e-03 -9.8564153353829875e-01
    7.9463035505997186e-03 -1.1758817743353609e+00
    8.1989213925976450e-03 -1.3499650210164216e+00
    8.4540384415650281e-03 -1.4801915783076467e+00
    8.5765436167011683e-03 -1.5359600016325250e+00
    8.7682242456729349e-03 -1.6177576076903002e+00
    8.9267475987490439e-03 -1.6816756464837219e+00
    9.0270414398333099e-03 -1.7207554708951174e+00
    8.9404069134814326e-03 -1.6870547845739463e+00
    8.6795608719502180e-03 -1.5806281538055682e+00
    8.5475818367051187e-03 -1.5230607321677285e+00
    8.5376955017955232e-03 -1.5186196012786046e+00
    8.3804566981051098e-03 -1.4449518973821307e+00
    8.1563570405383482e-03 -1.3253578261210783e+00
    8.3081027158760194e-03 -1.4086835514144800e+00
    8.3559328692914062e-03 -1.4328560855040844e+00
    8.6781608816313190e-03 -1.5800327517186141e+00
    8.9149041631485966e-03 -1.6769963373670564e+00
    9.0808198260364272e-03 -1.7413380098407452e+00
    1.0512333683834318e-02 -2.2327711559832530e+00
    1.2771827109766095e-02 -2.9135976206213710e+00
    1.1219776368205219e-02 -2.4534543902270540e+00
    1.0760171212816460e-02 -2.3111606206912891e+00
    9.0676625159931447e-03 -1.7363248444374535e+00
    8.1020220065011247e-03 -1.2920543786752159e+00
    7.8672005796962697e-03 -9.2467444598097781e-01
    8.1409417618935540e-03 -7.5979409463752534e-01
    8.0453060879199997e-03 -7.9726507852490913e-01
    7.8911585155105358e-03 -8.9529442443821539e-01
    7.8431405963590214e-03 -9.9907734871943454e-01
    8.0174405357660902e-03 -1.2342171305997331e+00
    8.6505117804676918e-03 -1.5682113552420012e+00
    8.9786633916995335e-03 -1.7020230591871535e+00
    9.1268045049999191e-03 -1.7587492693511844e+00
    9.2229950923556955e-03 -1.7946529527402282e+00
    9.2354303800392008e-03 -1.7992465466392371e+00
    9.2086052314096691e-03 -1.7893240825152128e+00
    9.2416833156284128e-03 -1.8015524185871052e+00
    9.1132508896677837e-03 -1.7536348279268035e+00
    9.2086052314096691e-03 -1.7893240825152128e+00
    9.3494712205180637e-03 -1.8409036914190680e+00
    9.1017266964865170e-03 -1.7492748564542000e+00
    8.7443352032441218e-03 -1.6078612722906656e+00
    8.4711145785760916e-03 -1.4881663117123467e+00
    8.1737665719853053e-03 -1.3355620202986604e+00
    8.2658388960743408e-03 -1.3866008331540831e+00
    8.6328933352845354e-03 -1.5606146130296523e+00
    8.6181992415228451e-03 -1.5542391981363897e+00
    8.8427176122448849e-03 -1.6481533232034984e+00
    1.0470137343903995e-02 -2.2192905811729058e+00
    1.2983589764974832e-02 -2.9746402889231569e+00
    1.1386175410986396e-02 -2.5041352823488281e+00
    1.0477755682706428e-02 -2.2217274943972618e+00
    8.9786633916995335e-03 -1.7020230591871535e+00
    7.9879321271958889e-03 -1.2114989429159266e+00
    7.9715507131668684e-03 -8.3467654732735452e-01
    8.4428273299924899e-03 -6.7800449597632761e-01
    8.0564989370673166e-03 -7.9236906507431992e-01
    7.8749864092499487e-03 -9.1384976902048365e-01
    7.8728301221717197e-03 -1.0908835658207972e+00
    8.2676247898647443e-03 -1.3875491087716232e+00
    8.7194519960658926e-03 -1.5974706783869335e+00
    9.0398473692202032e-03 -1.7256790478691546e+00
    9.0398473692202032e-03 -1.7256790478691546e+00
    9.1229200312587626e-03 -1.7572849269442359e+00
    9.1132508896677837e-03 -1.7536348279268035e+00
    9.1385159553159633e-03 -1.7631571499080303e+00
    9.1229200312587626e-03 -1.7572849269442359e+00
    9.0695351861537904e-03 -1.7370392382453408e+00
    9.1902885834145107e-03 -1.7825200958280527e+00
    9.4267993138603991e-03 -1.8687034335228974e+00
    9.2354303800392008e-03 -1.7992465466392371e+00
    8.6050088461615999e-03 -1.5484845803419278e+00
    8.4551671273341376e-03 -1.4807208991364609e+00
    8.3509157643100098e-03 -1.4303576996737328e+00
    8.2931181334540190e-03 -1.4009373083194641e+00
    8.2605089707469010e-03 -1.3837623373535020e+00
    8.5550596408903549e-03 -1.5264069027578739e+00
    8.7547300767920836e-03 -1.6121768092335109e+00
    1.0276550601146482e-02 -2.1568898704021673e+00
    1.3886680297175963e-02 -3.2316655105117218e+00
    1.1418468604999232e-02 -2.5139251818261847e+00
    1.0231391838273436e-02 -2.1421937309877936e+00
    8.8111538760077806e-03 -1.6353569371977179e+00
    7.8790618925810955e-03 -1.1004019055515568e+00
    8.0576967596254160e-03 -7.9185465348149620e-01
    8.4417137625472805e-03 -6.7824624543887557e-01
    7.9884157750534750e-03 -8.2516033501654285e-01
    7.8431431952730203e-03 -9.9876998723435950e-01
    7.9549531632146214e-03 -1.1837153882705584e+00
    8.4229909899622007e-03 -1.4655032438958464e+00
    8.8491223525550677e-03 -1.6507357046972053e+00
    9.2004390030855174e-03 -1.7862935414921397e+00
    9.2563657532832889e-03 -1.8069565195424768e+00
    9.3273621362137057e-03 -1.8328912338115515e+00
    9.3628730095567294e-03 -1.8457463696339622e+00
    9.3361719040562299e-03 -1.8360874750051752e+00
    9.2542603178071073e-03 -1.8061824608735448e+00
    9.1741793551707584e-03 -1.7765163185794355e+00
    9.2500574076800294e-03 -1.8046363922369479e+00
    9.1346024383541103e-03 -1.7616853730264532e+00
    8.6795608719502180e-03 -1.5806281538055682e+00
    8.5651147986431104e-03 -1.5308890878103989e+00
    8.4838374373233608e-03 -1.4940625069718252e+00
    8.3499161152898130e-03 -1.4298589046194168e+00
    8.3589582629578149e-03 -1.4343586581161933e+00
    8.3099974028978483e-03 -1.4096568209820346e+00
    8.4631067274777236e-03 -1.4844354300816909e+00
    8.9081815496778755e-03 -1.6743338369460321e+00
    9.9901415410593893e-03 -2.0626798934310568e+00
    1.7637934387537045e-02 -4.2631023091095406e+00
    1.2239246563763516e-02 -2.7584908053460704e+00
    1.0358641380188188e-02 -2.1834661437871601e+00
    8.5791002626720986e-03 -1.5370909968313824e+00
    7.8517292388673773e-03 -1.0479159433861289e+00
    8.0786384051393448e-03 -7.8313699265697345e-01
    8.1330476132823147e-03 -7.6256705660229340e-01
    7.8550603387911588e-03 -9.4635954255523858e-01
    7.9257418112425853e-03 -1.1560487005878437e+00
    8.0378408814646713e-03 -1.2490248263888921e+00
    8.6142254256781781e-03 -1.5525087168337253e+00
    9.1761842150059805e-03 -1.7772645345720852e+00
    9.5222436419179421e-03 -1.9025662540636092e+00
    9.4954976455833336e-03 -1.8931246698289075e+00
    9.4882699184907875e-03 -1.8905669759359616e+00
    9.5369960460996942e-03 -1.9077586806093687e+00
    9.4930852516132390e-03 -1.8922712879506078e+00
    9.5643470403411410e-03 -1.9173572939871575e+00
    9.5769114195223687e-03 -1.9217546134259254e+00
    9.5173519805408051e-03 -1.9008421427535347e+00
    9.0959966067368624e-03 -1.7471030528582827e+00
    8.8981586134248957e-03 -1.6703554901747264e+00
    8.9233534766490832e-03 -1.6803361008336122e+00
    9.0125401209811551e-03 -1.7151626449775836e+00
    8.5086050871793616e-03 -1.5054340431554809e+00
    8.5550596408903549e-03 -1.5264069027578739e+00
    8.4861690765444149e-03 -1.4951389626621610e+00
    8.4757213278066987e-03 -1.4903056404251622e+00
    8.9421236923404677e-03 -1.6877295471356535e+00
    1.0586956142591707e-02 -2.2565119760444139e+00
    1.9088928490392312e-02 -4.6527501140393683e+00
    1.2434958074309827e-02 -2.8157719063467170e+00
    1.0344158626130816e-02 -2.1787901314219340e+00
    8.5919764478113100e-03 -1.5427686817563466e+00
    7.8797654744811943e-03 -1.1014275566649241e+00
    7.9467070737690836e-03 -8.5015706130660218e-01
    8.1000251257389785e-03 -7.7472378775702544e-01
    7.8448044297874994e-03 -9.7959279807745703e-01
    7.9166925345017843e-03 -1.1466537466972384e+00
    8.1431161559414860e-03 -1.3174559710632594e+00
    8.7864454572151359e-03 -1.6252558514378750e+00
    9.6022916416065029e-03 -1.9306145983268461e+00
    1.0078389650117904e-02 -2.0919713396749731e+00
    1.0137034692296539e-02 -2.1113025971165529e+00
    1.0127153435665191e-02 -2.1080526789320113e+00
    1.0117315363299365e-02 -2.1048140707310794e+00
    1.0160260403309610e-02 -2.1189301226951449e+00
    1.0273045590100784e-02 -2.1557512030260795e+00
    1.0294154813060218e-02 -2.1626039617083159e+00
    1.0002532674563150e-02 -2.0668079380331768e+00
    9.9963282732270942e-03 -2.0647416048350564e+00
    1.0052812485233226e-02 -2.0835072510260337e+00
    9.7536410040753065e-03 -1.9828551937223309e+00
    9.3077035915910614e-03 -1.8257418583505545e+00
    8.7399069902938994e-03 -1.6060184165148983e+00
    8.5971705624572695e-03 -1.5450504274441956e+00
    8.6328933352845354e-03 -1.5606146130296523e+00
    8.8523363517841406e-03 -1.6520298194594578e+00
    9.1229200312587626e-03 -1.7572849269442359e+00
    1.0959496429376755e-02 -2.3733211036908801e+00
    1.9057292896124105e-02 -4.6442915976975927e+00
    1.1879676725151047e-02 -2.6522840402958194e+00
    9.5997384081595860e-03 -1.9297246459799198e+00
    8.5254715202691764e-03 -1.5131006854173734e+00
    7.9183902559495471e-03 -1.1484528673757839e+00
    7.8560134469142871e-03 -9.4431698866816471e-01
    7.8668214101618172e-03 -9.2524712305455503e-01
    7.8510633038428937e-03 -1.0459790461325953e+00
    7.9088235844081336e-03 -1.1380675463754313e+00
    8.0333242455567846e-03 -1.2458017445207574e+00
    8.6063207460953840e-03 -1.5490582913364359e+00
    9.7153804332150168e-03 -1.9697410692473964e+00
    9.9142702199109169e-03 -2.0372910138512017e+00
    9.9322356504768592e-03 -2.0433206394662560e+00
    1.0104264651201450e-02 -2.1005133982481081e+00
    9.9901415410593893e-03 -2.0626798934310568e+00
    9.9053441782218019e-03 -2.0342910118634983e+00
    1.0033822190054425e-02 -2.0772095881098287e+00
    1.0127153435665191e-02 -2.1080526789320113e+00
    1.0922953868176139e-02 -2.3619795444544085e+00
    1.1348946454520885e-02 -2.4928310085707572e+00
    1.0824960420077603e-02 -2.3314466677057908e+00
    1.1029370019700273e-02 -2.3949428584700705e+00
    9.9564272512547500e-03 -2.0514222708485286e+00
    9.1306986311619712e-03 -1.7602160821154049e+00
    8.9559334208639436e-03 -1.6931467699325466e+00
    8.8347550881110112e-03 -1.6449362538899368e+00
    9.1229200312587626e-03 -1.7572849269442359e+00
    9.5027538013493298e-03 -1.8956897362099450e+00
    1.1229897907591484e-02 -2.4565488056686431e+00
    1.6673883333435686e-02 -4.0019628691784117e+00
    1.1130279248637692e-02 -2.4260241590592169e+00
    9.4596404321542777e-03 -1.8804091550430861e+00
    8.4540384415650281e-03 -1.4801915783076467e+00
    7.9357223318021405e-03 -1.1659102205865768e+00
    7.8440288328251676e-03 -9.8503503922118574e-01
    7.8431431952730203e-03 -9.9876998723435950e-01
    7.9044463630863239e-03 -1.1330963058050683e+00
    8.0547092364511210e-03 -1.2608098327118760e+00
    8.1822900278557733e-03 -1.3404856930558546e+00
    8.4990951030958165e-03 -1.5010840260469276e+00
    9.1171113566725914e-03 -1.7550930282975483e+00
    9.3012006051874391e-03 -1.8233715927924641e+00
    9.5794343012875361e-03 -1.9226366770421066e+00
    9.5643470403411410e-03 -1.9173572939871575e+00
    9.5222436419179421e-03 -1.9025662540636092e+00
    9.6074083206260114e-03 -1.9323971580402521e+00
    9.8010954619332773e-03 -1.9990389697201130e+00
    1.0543481471309363e-02 -2.2426958333918523e+00
    1.1495228168124464e-02 -2.5371383364363691e+00
    1.1768308093016950e-02 -2.6191093864584176e+00
    1.1105917840758900e-02 -2.4185357281820656e+00
    1.0773001352033637e-02 -2.3151842859449641e+00
    1.0081607638195891e-02 -2.0930348066830504e+00
    8.9250495065794858e-03 -1.6810056128734567e+00
    9.0161521298611335e-03 -1.7165574619977078e+00
    9.1229200312587626e-03 -1.7572849269442359e+00
    9.2086052314096691e-03 -1.7893240825152128e+00
    1.0255599073153947e-02 -2.1500784567643612e+00
    1.2155827355819219e-02 -2.7339671305973003e+00
    1.5156261528167169e-02 -3.5859831362270662e+00
    9.9994282608709007e-03 -2.0657741925454265e+00
    9.3033655133196967e-03 -1.8241609712416647e+00
    8.4757213278066987e-03 -1.4903056404251622e+00
    7.9592022435430471e-03 -1.1874701174937727e+00
    7.8481378796704474e-03 -1.0363526440396207e+00
    7.8500133479127883e-03 -1.0427595423058982e+00
    7.9391823230328951e-03 -1.1692217019030307e+00
    8.0748628866882024e-03 -1.2744183408080605e+00
    8.3569400705730164e-03 -1.4333566472429280e+00
    8.8620251097075407e-03 -1.6559239272879909e+00
    9.7344195446283175e-03 -1.9762743679354067e+00
    9.4979131982859330e-03 -1.8939788708701979e+00
    9.0490621137630945e-03 -1.7292131225870320e+00
    8.8189735274839549e-03 -1.6385381461033572e+00
    8.9892764054239401e-03 -1.7061508320934555e+00
    9.3968323817802506e-03 -1.8579706118559967e+00
    9.8758602655804658e-03 -2.0243614340542728e+00
    1.0829337060523143e-02 -2.3328141382815089e+00
    1.1591182403408043e-02 -2.5660470441723162e+00
    1.1885981504180685e-02 -2.6541579560089379e+00
    1.0954901461944425e-02 -2.3718962766092577e+00
    9.8700127720609734e-03 -2.0223883939478444e+00
    9.4834671562930243e-03 -1.8888659233672953e+00
    8.7727548911395708e-03 -1.6196260080021876e+00
    8.9594069301607657e-03 -1.6945064164042751e+00
    9.1483424177524770e-03 -1.7668475198864366e+00
    9.2818395816825130e-03 -1.8162989288500393e+00
    1.0643398011896114e-02 -2.2743877211620807e+00
    1.2966182682879758e-02 -2.9696348458732715e+00
    1.2923027575511345e-02 -2.9572161632660321e+00
    9.8554651424782678e-03 -2.0174743636815631e+00
    9.3428088149940108e-03 -1.8384922921665448e+00
    8.4722641577136878e-03 -1.4887006379095229e+00
    7.9644127702800088e-03 -1.1919969004996385e+00
    7.8597191278419239e-03 -1.0671745253650047e+00
    7.8547947986392069e-03 -1.0560288234782804e+00
    7.9644127702800088e-03 -1.1919969004996385e+00
    8.1176267951004483e-03 -1.3018675194283862e+00
    8.4121592979840565e-03 -1.4603184996711938e+00
    8.9559334208639436e-03 -1.6931467699325466e+00
    9.7072760591949241e-03 -1.9669554793329469e+00
    9.8700127720609734e-03 -2.0223883939478444e+00
    9.4244762500113686e-03 -1.8678731959753301e+00
    9.1268045049999191e-03 -1.7587492693511844e+00
    8.8865569808900188e-03 -1.6657372553763985e+00
    8.9928314030145538e-03 -1.7075311565539326e+00
    9.4175250623724470e-03 -1.8653871431044946e+00
    1.0709475404223817e-02 -2.2952300544592390e+00
    1.1649089402062810e-02 -2.5834364783714725e+00
    1.1265609532293403e-02 -2.4674544607373057e+00
    1.0166940254104150e-02 -2.1211209244904765e+00
    9.6280120811811018e-03 -1.9395630337539329e+00
    9.0053425949549494e-03 -1.7123797488039065e+00
    8.7757844270265548e-03 -1.6208738824649940e+00
    8.8395268308050015e-03 -1.6468650453031850e+00
    9.1365579813124792e-03 -1.7624209502306050e+00
    9.5345292151790880e-03 -1.9068911745293327e+00
    1.0347771061093740e-02 -2.1799569696167249e+00
    1.2650571903551074e-02 -2.8784916685156983e+00
    1.1456598831825211e-02 -2.5254662081825532e+00
    9.7647074723941230e-03 -1.9866372465720246e+00
    9.3945479857287274e-03 -1.8571503786957231e+00
    8.4608313274848121e-03 -1.4833724733300084e+00
    7.9715507131668684e-03 -1.1980688845301968e+00
    7.8890176349727913e-03 -1.1141720290623112e+00
    7.8516163755371089e-03 -1.0475928553486822e+00
    7.9579186604980534e-03 -1.1863420280034789e+00
    8.0980370766283970e-03 -1.2895127363044367e+00
    8.4057241814929143e-03 -1.4572228100452895e+00
    8.7971967785748714e-03 -1.6296604020076599e+00
    9.5493790891303942e-03 -1.9121089033976908e+00
    9.8352676035872808e-03 -2.0106388873822763e+00
    9.5794343012875361e-03 -1.9226366770421066e+00
    9.4478428916418659e-03 -1.8762107819938827e+00
    9.5222436419179421e-03 -1.9025662540636092e+00
    9.8410183201060476e-03 -2.0125866566448876e+00
    9.5920990604939655e-03 -1.9270600797909767e+00
    9.7786260533859401e-03 -1.9913871076918825e+00
    1.0055993507198165e-02 -2.0845610417644540e+00
    9.9262303054291692e-03 -2.0413063556261881e+00
    9.1385159553159633e-03 -1.7631571499080303e+00
    8.7987400991404313e-03 -1.6302914799232715e+00
    8.5266872627715543e-03 -1.5136509638970042e+00
    8.5727202021065509e-03 -1.5342663289711649e+00
    8.7652128943286316e-03 -1.6165142743293721e+00
    9.2250611316104601e-03 -1.7954168784383802e+00
    9.8729344795104191e-03 -2.0233743813608340e+00
    1.0373212622577397e-02 -2.1881653675781014e+00
    1.2267527872181832e-02 -2.7667899266121854e+00
    1.0387873132195800e-02 -2.1928880088781737e+00
    9.7898298661587453e-03 -1.9952049799149454e+00
    9.4082986368109918e-03 -1.8620832290448341e+00
    8.4551671273341376e-03 -1.4807208991364609e+00
    7.9706465096754872e-03 -1.1973075998176304e+00
    7.9041396825023282e-03 -1.1327422578994086e+00
    7.8461462950884815e-03 -1.0280865845425939e+00
    7.9069284826266996e-03 -1.1359336748248674e+00
    7.9419197316573740e-03 -1.1718058197299481e+00
    8.1309160198008330e-03 -1.3100594436610948e+00
    8.4284571063286077e-03 -1.4681075593515769e+00
    9.0657921521113665e-03 -1.7356110390903667e+00
    9.1802014531519593e-03 -1.7787628952561492e+00
    9.0751670676568839e-03 -1.7391859595389982e+00
    8.9999675331176969e-03 -1.7102984455780987e+00
    9.0125401209811551e-03 -1.7151626449775836e+00
    9.2775670460848777e-03 -1.8147349337544147e+00
    9.1701771351074251e-03 -1.7750218101658630e+00
    9.1842287411915483e-03 -1.7802638344012303e+00
    8.7803424350715812e-03 -1.6227491183021023e+00
    8.3529188307720232e-03 -1.4313561708410940e+00
    8.0837262050483180e-03 -1.2802570285990640e+00
    8.1280880708767961e-03 -1.3083283177655249e+00
    8.1013553971671266e-03 -1.2916302500295749e+00
    8.2694153229916322e-03 -1.3884984436173951e+00
    8.7413812856951875e-03 -1.6066322596135230e+00
    9.2711784894913187e-03 -1.8123941562076133e+00
    9.6202598692511389e-03 -1.9368691200760302e+00
    1.0014994765952428e-02 -2.0709545445985369e+00
    1.0987231052730121e-02 -2.3819133682051685e+00
    9.9901415410593893e-03 -2.0626798934310568e+00
    9.8152650449599126e-03 -2.0038543107634927e+00
    9.4667558742209321e-03 -1.8829377433825434e+00
    8.4350609954194009e-03 -1.4712433388210517e+00
    7.9583456767587189e-03 -1.1867178982964266e+00
    7.8936269989317437e-03 -1.1200874550861091e+00
    7.8452826063318461e-03 -1.0236645441397274e+00
    7.8484890555413200e-03 -1.0376306261352974e+00
    7.8431376261747562e-03 -1.0003077396595390e+00
    7.8445191259961852e-03 -9.8140365087145665e-01
    7.8471560278576095e-03 -1.0325287901455045e+00
    7.8719891246452397e-03 -1.0895317378608989e+00
    7.8848859496675663e-03 -1.1086392257107971e+00
    7.9078724383284602e-03 -1.1369999821616648e+00
    7.9282720475076073e-03 -1.1585949863271214e+00
    7.9384076554423373e-03 -1.1684847551416939e+00
    7.9609255252248035e-03 -1.1889764747700555e+00
    8.0233755951685803e-03 -1.2385931779356973e+00
    8.1423903335232032e-03 -1.3170191096930188e+00
    8.1337601734449653e-03 -1.3117940705574191e+00
    8.0824484782644739e-03 -1.2794205077689653e+00
    7.9779762927407252e-03 -1.2034163547115326e+00
    7.9368682341384288e-03 -1.1670126840146864e+00
    7.8824049267505469e-03 -1.1051980581680996e+00
    8.0074452150294337e-03 -1.2267098090762976e+00
    8.4711145785760916e-03 -1.4881663117123467e+00
    8.6505117804676918e-03 -1.5682113552420012e+00
    9.0472146310870156e-03 -1.7285051522485249e+00
    9.5946421235487342e-03 -1.9279473883058826e+00
    1.0248656909773774e-02 -2.1478189121635278e+00
    1.0143646319943285e-02 -2.1134755275893524e+00
    9.8381409685291757e-03 -2.0116122516359054e+00
    9.4525527092568385e-03 -1.8778877483873140e+00
    8.4339569609346784e-03 -1.4707199025069899e+00
    7.9549531632146214e-03 -1.1837153882705584e+00
    7.8788289126170818e-03 -1.1000602746924721e+00
    7.8452264987285223e-03 -1.0233494488629915e+00
    7.8908881634542263e-03 -1.1166031645265764e+00
    7.9101029773964923e-03 -1.1394929267561507e+00
    7.9715507131668684e-03 -1.1980688845301968e+00
    8.0294202562237633e-03 -1.2429913145261595e+00
    8.1706989166278800e-03 -1.3337786059973225e+00
    8.2143806757634229e-03 -1.3586332887538064e+00
    8.2949744754361975e-03 -1.4019017323454892e+00
    8.2959044320786209e-03 -1.4023843554532043e+00
    8.2482333735393789e-03 -1.3771758024053564e+00
    8.2127347702929121e-03 -1.3577166772482547e+00
    8.1608452692036332e-03 -1.3280080730842234e+00
    8.1877811701996806e-03 -1.3436337849093911e+00
    8.1830712703812817e-03 -1.3409347103965488e+00
    8.0535207846923682e-03 -1.2599919118130858e+00
    8.0038439508626734e-03 -1.2239601305719983e+00
    7.9411334723449647e-03 -1.1710667360382929e+00
    7.8908881634542263e-03 -1.1166031645265764e+00
    7.9232515067938648e-03 -1.1535096180210105e+00
    8.1295000226666286e-03 -1.3091934440349016e+00
    8.3176245592940633e-03 -1.4135610993338124e+00
    9.0179614566703072e-03 -1.7172557157265855e+00
    9.5271481771600011e-03 -1.9042937062262619e+00
    1.0231391838273436e-02 -2.1421937309877936e+00
    1.0516205801553220e-02 -2.2340061347584195e+00
    9.8670951354493247e-03 -2.0214034697408731e+00
    9.4384598670489671e-03 -1.8728663310647826e+00
    8.4273611894235267e-03 -1.4675860556249252e+00
    7.9315840638590936e-03 -1.1618794458591866e+00
    7.8649713099683723e-03 -1.0774526696422211e+00
    7.8432445549342124e-03 -1.0052445215457488e+00
    7.9330773819945334e-03 -1.1633430814989798e+00
    8.0476345355858184e-03 -1.2559138456235228e+00
    8.2987014573578290e-03 -1.4038338729926729e+00
    8.6102659435906281e-03 -1.5507817525371179e+00
    9.1562477172462409e-03 -1.7698111212665257e+00
    9.5693628092762308e-03 -1.9191136282554035e+00
    9.6725348451152486e-03 -1.9549829812490169e+00
    9.7814212395585295e-03 -1.9923400714347554e+00
    9.7398926808353308e-03 -1.9781497268022383e+00
    9.6858246892416230e-03 -1.9595689954179780e+00
    9.6804979924276866e-03 -1.9577317882301546e+00
    9.4082986368109918e-03 -1.8620832290448341e+00
    9.0601948649400542e-03 -1.7334731447476499e+00
    8.4208139522384592e-03 -1.4644637544337904e+00
    8.0729880431572847e-03 -1.2731723143139280e+00
    7.9301038690181500e-03 -1.1604181992333251e+00
    7.8802383994711223e-03 -1.1021119573844940e+00
    7.8841334771764960e-03 -1.1076055239001696e+00
    7.9639738931247036e-03 -1.1916187829594296e+00
    8.1949184658692588e-03 -1.3476984681962465e+00
    8.7209016714197719e-03 -1.5980783977440689e+00
    9.4906760110273561e-03 -1.8914187237976674e+00
    1.0287097251671188e-02 -2.1603141623061455e+00
    1.1105917840758900e-02 -2.4185357281820656e+00
    9.7536410040753065e-03 -1.9828551937223309e+00
    9.2839799115658293e-03 -1.8170819728606906e+00
    8.3579485347298459e-03 -1.4338575046623496e+00
    7.8964444660720411e-03 -1.1235850830773906e+00
    7.8452264987285223e-03 -1.0233494488629915e+00
    7.8438238283942054e-03 -9.8685561069282390e-01
    7.9342059957548863e-03 -1.1644423816431313e+00
    8.0947432383487051e-03 -1.2874004180781140e+00
    8.4757213278066987e-03 -1.4903056404251622e+00
    8.9981802261082187e-03 -1.7096057912208824e+00
    9.7730471722838573e-03 -1.9894841774046368e+00
    1.0170287552446557e-02 -2.1222182569727885e+00
    1.0002532674563150e-02 -2.0668079380331768e+00
    9.8994143256048404e-03 -2.0322964565079973e+00
    9.7954549123463359e-03 -1.9971199524251226e+00
    9.4244762500113686e-03 -1.8678731959753301e+00
    9.3251667082986760e-03 -1.8320939835639602e+00
    9.5124731490928410e-03 -1.8991213604941590e+00
    9.6306030688465254e-03 -1.9404628041856797e+00
    9.1761842150059805e-03 -1.7772645345720852e+00
    8.4585614874621764e-03 -1.4823108479916698e+00
    8.1100982107663241e-03 -1.2971603005153920e+00
    7.9467070737690836e-03 -1.1762532425045140e+00
    7.9133575645368107e-03 -1.1430662386029626e+00
    7.9657345046889472e-03 -1.1931322240646327e+00
    8.1917355707589960e-03 -1.3458895516055942e+00
    8.8189735274839549e-03 -1.6385381461033572e+00
    9.5870230632736780e-03 -1.9252880954659970e+00
    1.0336950191478534e-02 -2.1764607658160999e+00
    1.1982091901812299e-02 -2.6826705558967552e+00
    1.0027528381713932e-02 -2.0751198637619925e+00
    9.3583942994269233e-03 -1.8441291868208409e+00
    8.3409755886494959e-03 -1.4253829022092444e+00
    7.8814342703814062e-03 -1.1038251827756482e+00
    7.8431431952730203e-03 -9.9876998723435950e-01
    7.8433169570982057e-03 -1.0067922978960706e+00
    7.9609255252248035e-03 -1.1889764747700555e+00
    8.1608452692036332e-03 -1.3280080730842234e+00
    8.4967320261437902e-03 -1.5000000000000000e+00
    9.2065598343910437e-03 -1.7885654609962514e+00
    9.7647074723941230e-03 -1.9866372465720246e+00
    1.0101013822185619e-02 -2.0994413328668537e+00
    9.6646038208651509e-03 -1.9522425375041290e+00
    9.3251667082986760e-03 -1.8320939835639602e+00
    9.2395963787912858e-03 -1.8007831194627619e+00
    9.1822138390362171e-03 -1.7795130420052190e+00
    9.0998143037859785e-03 -1.7485503180439459e+00
    9.4620091593876545e-03 -1.8812512180066219e+00
    9.7126753100774624e-03 -1.9688115843736020e+00
    9.4501962707638654e-03 -1.8770488689713460e+00
    8.8347550881110112e-03 -1.6449362538899368e+00
    8.4339569609346784e-03 -1.4707199025069899e+00
    8.2078234080349942e-03 -1.3549727430396723e+00
    8.1094197568614343e-03 -1.2967336472133291e+00
    8.1776249417120223e-03 -1.3377965356568429e+00
    8.2447671517755974e-03 -1.3753032664591092e+00
    8.7517511724939587e-03 -1.6109415704372494e+00
    9.4549122122336796e-03 -1.8787274216178023e+00
    1.0738927259753412e-02 -2.3044911828103150e+00
    1.4090725307247389e-02 -3.2891004572955542e+00
    1.0493063720818600e-02 -2.2266200499702293e+00
    9.4979131982859330e-03 -1.8939788708701979e+00
    8.4273611894235267e-03 -1.4675860556249252e+00
    7.8990476219207312e-03 -1.1267444575526868e+00
    7.8431376261747562e-03 -1.0003077396595390e+00
    7.8432712878074313e-03 -9.9417083544322804e-01
    7.9066154272794485e-03 -1.1355785177252100e+00
    8.1053698163593164e-03 -1.2941781636782335e+00
    8.4240815223058582e-03 -1.4660234671387602e+00
    8.9594069301607657e-03 -1.6945064164042751e+00
    9.4954976455833336e-03 -1.8931246698289075e+00
    9.7453807570112780e-03 -1.9800289799758708e+00
    9.5870230632736780e-03 -1.9252880954659970e+00
    9.4175250623724470e-03 -1.8653871431044946e+00
    9.2839799115658293e-03 -1.8170819728606906e+00
    9.2395963787912858e-03 -1.8007831194627619e+00
    9.2500574076800294e-03 -1.8046363922369479e+00
    9.3472475783501225e-03 -1.8400991582740052e+00
    9.8039215686274508e-03 -2. 9.9292308626035188e-03
    -2.0423129446493404e+00 9.6202598692511389e-03
    -1.9368691200760302e+00 9.0657921521113665e-03
    -1.7356110390903667e+00 8.4838374373233608e-03
    -1.4940625069718252e+00 8.2839075754582957e-03
    -1.3961315493481623e+00 8.2378890968168236e-03
    -1.3715705135934004e+00 8.2848233121649902e-03
    -1.3966109033777085e+00 8.7369637152911184e-03
    -1.6047920537420337e+00 9.2168125235554694e-03
    -1.7923651720326828e+00 1.0820591031634116e-02
    -2.3300811021574019e+00 1.6337523145944742e-02
    -3.9103358956798866e+00 1.1105917840758900e-02
    -2.4185357281820656e+00 9.5794343012875361e-03
    -1.9226366770421066e+00 8.4394907242706912e-03
    -1.4733403229794102e+00 7.8848859496675663e-03
    -1.1086392257107971e+00 7.8640748181341858e-03
    -9.2955179136842569e-01 7.8610047392571724e-03
    -9.3473997969162537e-01 7.8500133479127883e-03
    -1.0427595423058982e+00 7.9893856889670951e-03
    -1.2126596882779217e+00 8.2260257362437635e-03
    -1.3650773323691285e+00 8.8284195949038091e-03
    -1.6423712705159437e+00 9.5444160717709503e-03
    -1.9103662697745729e+00 9.9322356504768592e-03
    -2.0433206394662560e+00 9.8994143256048404e-03
    -2.0322964565079973e+00 9.8583665731363044e-03
    -2.0184550556962439e+00 9.5920990604939655e-03
    -1.9270600797909767e+00 9.5618441299266371e-03
    -1.9164804189611959e+00 9.8817241048220449e-03
    -2.0263387436085738e+00 1.0187098183927459e-02
    -2.1277243440713223e+00 1.0221094304842150e-02
    -2.1388347447103304e+00 1.0373212622577397e-02
    -2.1881653675781014e+00 9.7536410040753065e-03
    -1.9828551937223309e+00 9.3968323817802506e-03
    -1.8579706118559967e+00 8.5778211682456373e-03
    -1.5365253108959143e+00 8.4757213278066987e-03
    -1.4903056404251622e+00 8.2811674303890845e-03
    -1.3946951082397518e+00 8.3157104913677178e-03
    -1.4125833444682563e+00 8.6922368342169515e-03
    -1.5860055917793039e+00 9.1741793551707584e-03
    -1.7765163185794355e+00 1.0760171212816460e-02
    -2.3111606206912891e+00 1.7687324428497041e-02
    -4.2764276946878388e+00 1.1904971822311358e-02
    -2.6597996468701712e+00 9.6099717781821335e-03
    -1.9332897686187822e+00 8.3579485347298459e-03
    -1.4338575046623496e+00 7.8509549378320258e-03
    -1.0456566097776354e+00 7.9319561622432470e-03
    -8.6040369093748570e-01 7.9765851866645827e-03
    -8.3176148825682883e-01 7.8468526209345517e-03
    -1.0312575156051293e+00 7.9427093093067912e-03
    -1.1725455166746108e+00 8.1822900278557733e-03
    -1.3404856930558546e+00 8.8347550881110112e-03
    -1.6449362538899368e+00 9.6778400300581574e-03
    -1.9568145871237745e+00 1.0358641380188188e-02
    -2.1834661437871601e+00 1.0439899373823574e-02
    -2.2096047024697594e+00 1.0663864333266508e-02
    -2.2808529273795535e+00 1.0918420717894946e-02
    -2.3605709579940548e+00 1.0610991211947064e-02
    -2.2641324933006031e+00 1.0413746201377796e-02
    -2.2012096086032322e+00 1.0635257374545083e-02
    -2.2718136897109975e+00 1.0276550601146482e-02
    -2.1568898704021673e+00 9.9564272512547500e-03
    -2.0514222708485286e+00 9.8152650449599126e-03
    -2.0038543107634927e+00 9.3539270487283735e-03
    -1.8425149640730178e+00 8.6879962610932806e-03
    -1.5842093366920309e+00 8.4197274441739980e-03
    -1.4639444874319518e+00 8.2793465442114970e-03
    -1.3937388285244525e+00 8.3549269296913104e-03
    -1.4323558190925401e+00 8.7399069902938994e-03
    -1.6060184165148983e+00 9.1622025882915018e-03
    -1.7720404590570249e+00 1.0559203038209486e-02
    -2.2476969384242755e+00 1.5969034642029784e-02
    -3.8096097558210298e+00 1.2197272750672037e-02
    -2.7461596647088062e+00 9.4549122122336796e-03
    -1.8787274216178023e+00 8.3090494559259400e-03
    -1.4091700466895076e+00 7.8445191259961852e-03
    -1.0189487262575707e+00 7.9532771149749912e-03
    -8.4586772861042869e-01 8.0482189692818937e-03
    -7.9597504699964794e-01 7.8432712878074313e-03
    -9.9417083544322804e-01 7.9338289690451154e-03
    -1.1640757981197425e+00 8.2127347702929121e-03
    -1.3577166772482547e+00 9.0143450190059374e-03
    -1.7158597720331210e+00 1.0075176315585523e-02
    -2.0909090909090908e+00 1.1545644000348155e-02
    -2.5523422315692725e+00 1.1892298920605896e-02
    -2.6560351888503675e+00 1.1956176834282427e-02
    -2.6749922313704206e+00 1.1625793611022383e-02
    -2.5764457796476439e+00 1.1159796229793290e-02
    -2.4350847062581726e+00 1.0764440911499735e-02
    -2.3125000000000000e+00 1.0726263917971919e-02
    -2.3005113283209049e+00 1.0496905675661590e-02
    -2.2278471115167608e+00 9.9716866635526907e-03
    -2.0565223048500934e+00 9.4715149707873623e-03
    -1.8846274773257758e+00 9.1721769964595717e-03
    -1.7757687441184056e+00 8.5701789418813797e-03
    -1.5331390882491798e+00 8.3763182154689541e-03
    -1.4429239057617946e+00 8.2421793996325307e-03
    -1.3739015644007460e+00 8.3919442707345946e-03
    -1.4505540225382214e+00 8.7971967785748714e-03
    -1.6296604020076599e+00 9.1113242404097898e-03
    -1.7529066444795769e+00 1.0183726137955897e-02
    -2.1266205275763856e+00 1.3640253473332606e-02
    -3.1620101126692624e+00 1.2346562938477537e-02
    -2.7899433298516625e+00 1.0245193593160553e-02
    -2.1466911754112279e+00 8.4229909899622007e-03
    -1.4655032438958464e+00 7.8477157126114992e-03
    -1.0347575369341921e+00 7.9982725852539432e-03
    -8.1990292271438181e-01 8.1691714178953583e-03
    -7.5025041904149592e-01 7.8630241232407454e-03
    -9.3127843171634950e-01 7.9566426755282565e-03
    -1.1852153724523233e+00 8.3459300530971704e-03
    -1.4278666531072268e+00 9.3120527150179749e-03
    -1.8273255936203965e+00 1.0688642486985804e-02
    -2.2886685733787648e+00 1.1804991081385285e-02
    -2.6300521245465682e+00 1.2169584413924170e-02
    -2.7380160748512390e+00 1.2548784756192661e-02
    -2.8489312973757177e+00 1.2169584413924170e-02
    -2.7380160748512390e+00 1.1540000001478387e-02
    -2.5506418157113777e+00 1.1219776368205219e-02
    -2.4534543902270540e+00 1.0913895207610429e-02
    -2.3591643786850822e+00 1.0428656293134058e-02
    -2.2059977318165545e+00 1.0040134094901506e-02
    -2.0793040478740288e+00 9.3273621362137057e-03
    -1.8328912338115515e+00 8.8158400058447415e-03
    -1.6372642430547071e+00 8.4025244821917134e-03
    -1.4556791952163761e+00 8.1973169748601263e-03
    -1.3490576770664997e+00 8.2319299710495973e-03
    -1.3683177320416879e+00 8.3660618554738993e-03
    -1.4378750511002991e+00 8.7849169435072379e-03
    -1.6246284785048839e+00 8.9524683655598600e-03
    -1.6917892661246110e+00 9.5296052862713122e-03
    -1.9051586888313605e+00 1.3777647065474097e-02
    -3.2008865553912442e+00 1.2094627663764689e-02
    -2.7159323739360333e+00 1.0760171212816460e-02
    -2.3111606206912891e+00 8.5315649963523827e-03
    -1.5158556548403670e+00 7.8730422913512177e-03
    -1.0912218301404129e+00 7.9587735376424086e-03
    -8.4239332402501543e-01 8.1737665719853053e-03
    -7.4874845555759229e-01 7.9221964301974864e-03
    -8.6773645699129276e-01 7.9020151803930513e-03
    -1.1302677805641281e+00 8.2525917675913898e-03
    -1.3795222843131174e+00 9.0215867706792460e-03
    -1.7186539179071842e+00 1.0137034692296539e-02
    -2.1113025971165529e+00 1.1338396696928496e-02
    -2.4896240938062681e+00 1.1649089402062810e-02
    -2.5834364783714725e+00 1.1898629013551053e-02
    -2.6579157490470342e+00 1.2142127867717170e-02
    -2.7299332886955709e+00 1.1835893867998012e-02
    -2.6392586600236427e+00 1.1317411915234164e-02
    -2.4832404053362604e+00 1.0785894876467299e-02
    -2.3192246005490622e+00 1.0470137343903995e-02
    -2.2192905811729058e+00 9.9994282608709007e-03
    -2.0657741925454265e+00 8.8832602648029318e-03
    -1.6644223094304915e+00 8.5242572509294408e-03
    -1.5125507637258822e+00 8.1722306324998484e-03
    -1.3346698479061079e+00 8.0441474284135926e-03
    -1.2534761791296909e+00 8.2361808696916755e-03
    -1.3706398782391049e+00 8.3609815164220683e-03
    -1.4353618545453934e+00 8.5816630870959257e-03
    -1.5382235006861580e+00 8.4328542827939723e-03
    -1.4701967892842744e+00 1.0454971492979600e-02
    -2.2144353427849537e+00 1.3255125709194744e-02
    -3.0524515258166391e+00 1.0747404000108807e-02
    -2.3071534839372037e+00 9.9808944199192198e-03
    -2.0595959516057922e+00 8.6851776994043440e-03
    -1.5830139347408168e+00 7.8626799700581926e-03
    -1.0731288033903499e+00 7.9666199174902343e-03
    -8.3759816178658864e-01 8.4262666206867086e-03
    -6.8163311566511975e-01 8.2569787377728670e-03
    -7.2365431962262605e-01 7.8981727926810703e-03
    -8.8834394709803699e-01 7.8990476219207312e-03
    -1.1267444575526868e+00 8.3128484962725190e-03
    -1.4111188212399468e+00 9.2209316472469608e-03
    -1.7938896938258320e+00 1.0120589938913408e-02
    -2.1058923544891019e+00 1.0651564811052162e-02
    -2.2769686226358345e+00 1.0781589963676709e-02
    -2.3178759715756665e+00 1.0820591031634116e-02
    -2.3300811021574019e+00 1.0722056542872340e-02
    -2.2991883186387310e+00 1.0373212622577397e-02
    -2.1881653675781014e+00 9.9322356504768592e-03
    -2.0433206394662560e+00 9.6202598692511389e-03
    -1.9368691200760302e+00 9.0808198260364272e-03
    -1.7413380098407452e+00 8.3109465578834335e-03
    -1.4101438746193373e+00 8.0736120359429751e-03
    -1.2735874567868168e+00 7.9020151803930513e-03
    -1.1302677805641281e+00 7.9078724383284602e-03
    -1.1369999821616648e+00 8.0028230098266716e-03
    -1.2231760928927080e+00 8.0384095940723883e-03
    -1.2494285533826577e+00 8.1438430037657512e-03
    -1.3178930553209383e+00 8.7194519960658926e-03
    -1.5974706783869335e+00 1.1224832627054798e-02
    -2.4550004128364269e+00 1.2332053305355195e-02
    -2.7856970073415352e+00 1.0252125399436558e-02
    -2.1489480049758969e+00 1.0002532674563150e-02
    -2.0668079380331768e+00 9.0527639024941715e-03
    -1.7306308025688915e+00 8.1337601734449653e-03
    -1.3117940705574191e+00 7.9005214960979550e-03
    -8.8612856832657438e-01 8.2353284439319850e-03
    -7.2983381130535385e-01 8.2820796356058296e-03
    -7.1675665498728425e-01 8.1053698163593164e-03
    -7.7269113949339241e-01 7.8600359874243814e-03
    -9.3647491844938480e-01 8.0294202562237633e-03
    -1.2429913145261595e+00 8.6979147812327202e-03
    -1.5884065066450415e+00 9.5124731490928410e-03
    -1.8991213604941590e+00 1.0133736125375178e-02
    -2.1102180300215876e+00 1.0615019436870104e-02
    -2.2654084558194167e+00 1.0824960420077603e-02
    -2.3314466677057908e+00 1.1105917840758900e-02
    -2.4185357281820656e+00 1.0598944992138369e-02
    -2.2603147029542101e+00 9.8964556277728807e-03
    -2.0313008062076103e+00 9.6672439370607405e-03
    -1.9531550923607719e+00 8.8734178941314978e-03
    -1.6604895162348996e+00 8.1917355707589960e-03
    -1.3458895516055942e+00 7.9130284934492891e-03
    -1.1427082708490219e+00 7.8715732308410162e-03
    -1.0888565598532436e+00 7.9066154272794485e-03
    -1.1355785177252100e+00 7.9194185862898059e-03
    -1.1495340671022203e+00 7.9225473102337175e-03
    -1.1527854820434613e+00 8.3856588573303879e-03
    -1.4474937289114915e+00 9.9442972739298401e-03
    -2.0473625205944415e+00 1.1666679101006069e-02
    -2.5887104513536974e+00 1.3009857758069759e-02
    -2.9821896483849861e+00 1.1184633140811837e-02
    -2.4426980672614418e+00 1.0297691566214896e-02
    -2.1637509518930740e+00 9.3383813825468256e-03
    -1.8368883514281378e+00 8.3429536341680759e-03
    -1.4263755298637910e+00 7.8466328959824680e-03
    -1.0303051503427072e+00 7.9097819284879006e-03
    -8.7785802066177376e-01 8.1323360681095670e-03
    -7.6281937883180673e-01 8.1489597134616343e-03
    -7.5702582051948819e-01 8.0090019625934754e-03
    -8.1440460572242823e-01 7.8570034798588085e-03
    -9.4227833964180552e-01 7.9304726885938270e-03
    -1.1607832874294786e+00 8.3489177208355431e-03
    -1.4293604027846476e+00 8.8717844389441351e-03
    -1.6598357995811950e+00 9.2797019612726444e-03
    -1.8155165828647695e+00 9.6074083206260114e-03
    -1.9323971580402521e+00 9.8583665731363044e-03
    -2.0184550556962439e+00 9.5173519805408051e-03
    -1.9008421427535347e+00 9.0789332479886235e-03
    -1.7406200660991851e+00 8.5327881286536809e-03
    -1.5164077241252767e+00 8.2176857066027648e-03
    -1.3604694752115747e+00 7.9391823230328951e-03
    -1.1692217019030307e+00 7.9078724383284602e-03
    -1.1369999821616648e+00 7.8743314469614141e-03
    -1.0932540065620142e+00 7.8647904896483080e-03
    -1.0771193565903650e+00 7.8802383994711223e-03
    -1.1021119573844940e+00 8.3205047901178976e-03
    -1.4150298473255503e+00 9.5394661287711326e-03
    -1.9086270308410549e+00 1.1702165458842105e-02
    -2.5993390017124338e+00 1.1867104923629083e-02
    -2.6485461195667837e+00 1.3853655918367533e-02
    -3.2223497099538894e+00 1.2541077615582392e-02
    -2.8466895609782661e+00 1.0496905675661590e-02
    -2.2278471115167608e+00 9.1444044997678608e-03
    -1.7653694936240305e+00 8.0698823803633350e-03
    -1.2710995889346910e+00 7.9387945758669729e-03
    -1.1688531524651280e+00 7.8658868340444211e-03
    -1.0791210147625541e+00 7.8438891903803848e-03
    -9.8624839047201984e-01 7.8981727926810703e-03
    -8.8834394709803699e-01 7.9928079267310454e-03
    -8.2279194460527338e-01 8.0169063957834467e-03
    -8.1049073606048549e-01 7.9942877415072056e-03
    -8.2200341284231504e-01 7.9243138976079867e-03
    -8.6610312650425259e-01 7.8836357190512855e-03
    -9.0341007438676080e-01 7.8614993444331236e-03
    -9.3387355443239872e-01 7.8457582688109123e-03
    -9.7447938817832513e-01 7.8470028327084201e-03
    -9.6909277752743961e-01 7.8603558751173200e-03
    -9.3589629548464182e-01 7.8819180465100041e-03
    -9.0537773696095836e-01 7.9123727615645501e-03
    -8.7566229352234881e-01 7.9312127856798129e-03
    -8.6094534975136772e-01 7.8800015497999289e-03
    -9.0763070158526327e-01 7.8436455767363824e-03
    -9.8867945780057986e-01 7.8978827639266860e-03
    -1.1253389385597445e+00 8.0824484782644739e-03
    -1.2794205077689653e+00 8.3301850397606205e-03
    -1.4199441183736574e+00 8.7697326427590289e-03
    -1.6183799537911248e+00 1.0183726137955897e-02
    -2.1266205275763856e+00 1.3189961046162768e-02
    -3.0338229402278980e+00 1.2595392484027079e-02
    -2.8624773397372403e+00 1.1270747869302732e-02
    -2.4690220470857764e+00 9.0398473692202032e-03
    -1.7256790478691546e+00 8.8604054309536946e-03
    -1.6552736798248278e+00 8.7956553170999690e-03
    -1.6290297895026744e+00 8.7502644069101833e-03
    -1.6103246207489226e+00 8.6491467093287987e-03
    -1.5676245751169626e+00 8.5315649963523827e-03
    -1.5158556548403670e+00 8.4955526421152030e-03
    -1.4994585062928394e+00 8.4164759471170008e-03
    -1.4623885926606468e+00 8.4631067274777236e-03
    -1.4844354300816909e+00 8.3579485347298459e-03
    -1.4338575046623496e+00 8.2404598906388269e-03
    -1.3729683776405370e+00 8.0947432383487051e-03
    -1.2874004180781140e+00 8.0163731553867107e-03
    -1.2334238394513544e+00 7.9962731235437862e-03
    -1.2180968888267283e+00 8.0105667385514286e-03
    -1.2290735786447742e+00 8.0588983387216619e-03
    -1.2636786535795344e+00 8.0754897458898637e-03
    -1.2748340827773086e+00 8.1302075152018104e-03
    -1.3096263345602694e+00 8.2378890968168236e-03
    -1.3715705135934004e+00 8.4219018003875556e-03
    -1.4649833397914152e+00 8.8033812390760843e-03
    -1.6321875127150403e+00 8.9559334208639436e-03
    -1.6931467699325466e+00 9.1483424177524770e-03
    -1.7668475198864366e+00 9.2754348318778972e-03
    -1.8139539803711362e+00 9.3516977091141432e-03
    -1.8417089596056944e+00 9.4979131982859330e-03
    -1.8939788708701979e+00 1.0391552299818517e-02
    -2.1940723525836816e+00 1.0046464168928952e-02
    -2.0814032623706180e+00 1.1774391900067509e-02
    -2.6209252936077960e+00</input_scale>
  <output_scale>
    5.2631578947368418e-01 4.9999999999999994e-01 5.2631578947368418e-01
    4.9999999999999994e-01 5.2631578947368418e-01 4.9999999999999994e-01
    5.2631578947368418e-01 4.9999999999999994e-01 5.2631578947368418e-01
    4.9999999999999994e-01 5.2631578947368418e-01 4.9999999999999994e-01
    5.2631578947368418e-01 4.9999999999999994e-01 5.2631578947368418e-01
    4.9999999999999994e-01 5.2631578947368418e-01 4.9999999999999994e-01
    5.2631578947368418e-01 4.9999999999999994e-01 5.2631578947368418e-01
    4.9999999999999994e-01 5.2631578947368418e-01 4.9999999999999994e-01
    5.2631578947368418e-01 4.9999999999999994e-01</output_scale>
  <inv_output_scale>
    1.8999999999999999e+00 -9.4999999999999996e-01
    1.8999999999999999e+00 -9.4999999999999996e-01
    1.8999999999999999e+00 -9.4999999999999996e-01
    1.8999999999999999e+00 -9.4999999999999996e-01
    1.8999999999999999e+00 -9.4999999999999996e-01
    1.8999999999999999e+00 -9.4999999999999996e-01
    1.8999999999999999e+00 -9.4999999999999996e-01
    1.8999999999999999e+00 -9.4999999999999996e-01
    1.8999999999999999e+00 -9.4999999999999996e-01
    1.8999999999999999e+00 -9.4999999999999996e-01
    1.8999999999999999e+00 -9.4999999999999996e-01
    1.8999999999999999e+00 -9.4999999999999996e-01
    1.8999999999999999e+00 -9.4999999999999996e-01</inv_output_scale>
  <weights>
    <_>
      -9.1743623143588776e-02 -2.2107112881511465e-01
      -3.5800750749256005e-01 -1.0374744308684256e-01
      -9.8254482910001273e-03 -5.2392644646437248e-01
      2.5696261620434158e-01 -1.2999583840492726e-02
      -1.9202477302529278e-01 1.2372398503920742e-02
      -2.5301109820944334e-01 -2.0377739360179623e-01
      -5.8612057961771463e-02 -9.9038896595432788e-02
      2.6430190997362518e-01 -2.5202121982652137e-01
      3.0712418182938184e-01 1.0542284562860289e-03
      -5.2383374981692776e-01 1.1555333479042097e-01
      -4.7413272358722774e-01 -3.3435197565855213e-01
      8.4951303081880924e-02 -7.0696590252555605e-02
      -6.4147996303656113e-02 -2.1472932582389651e-02
      1.5240843514840868e-01 2.5988064664726862e-01
      5.6971064592744203e-01 2.8203800798667267e-01
      -3.1174144209071863e-01 6.5549637872640868e-03
      1.4699712417520538e-01 -9.5736652346015999e-02
      -2.0010927294667472e-01 1.5711456828063991e-01
      1.3920345085883454e-01 2.1600937948197940e-01
      -9.1734377300416947e-02 3.8395846819867699e-02
      7.9461606488178294e-02 -6.6355811323918587e-02
      1.7895297731101022e-03 -6.1760639563047823e-02
      8.7086867287638411e-02 1.0113120571211842e-01
      -1.1448746503798299e-02 -1.3003581849874543e-01
      8.0097577164021952e-02 -1.1539365569093359e-01
      2.6838780209877217e-01 1.2573541211298739e-01
      1.0650015212534690e-01 5.8873138662184722e-02
      -1.4465705079240848e-01 -1.2354735637443462e-01
      2.1119887729714229e-01 2.5603592027817557e-01
      -2.2560616795115651e-01 -8.4329778885276363e-01
      4.6332020921766287e-01 -1.1608827925791744e-01
      7.1227862966177807e-02 1.1603171331075449e-01
      1.3808154338386297e-01 -1.0546186514767036e-01
      -3.5183026658934863e-01 4.3477396051531630e-01
      1.5528690909974796e-02 2.7991134618115865e-01
      2.9000219689718137e-01 2.2255144660497859e-02
      -1.4336710233809935e-01 9.2390157830945906e-03
      -1.8488211502322233e-01 -1.4017381842453078e-01
      1.5816903322788806e-01 7.6382514697289391e-02
      -1.9460358452305793e-01 -2.4726910027598425e-01
      -2.0164255479177556e-01 1.5308866753130346e-01
      3.5763627709661278e-03 -8.1783341787614056e-03
      -1.0335129149802874e-01 -2.4148425576927057e-01
      1.2661608133297031e-02 -6.7068415747338309e-02
      -2.4217436391696512e-01 1.9919280896478639e-01
      1.0033917159346445e-01 4.0981207394788760e-01
      3.9354560403746597e-01 2.7981211971765091e-01
      3.6343249731439264e-01 3.9097952123057550e-01
      -2.7263064352901767e-01 1.1243399453323367e-01
      2.4459926059750975e-02 1.6362712042639055e-01
      -3.6938427256462059e-01 2.1691474304822425e-01
      8.2227081319614218e-02 3.5615958439936909e-02
      -8.6633327482606770e-02 -2.0573004073592768e-01
      2.2858304290904605e-01 -6.5774753843179615e-02
      2.7009953542469812e-02 -3.5953305231437610e-02
      1.4209719283146821e-01 -1.1198499028425848e+00
      2.5563870276778178e-01 -1.0365260359762549e-01
      2.3521062405125398e-01 4.0644713114290282e-01
      -2.5731395964291170e-01 -6.9379278089775259e-02
      1.7167847217709362e-01 -2.7056321867547684e-01
      6.4852604630355973e-03 6.7973978862830728e-02
      5.4680720576392250e-01 -5.9660984561565245e-01
      1.3097358287217134e-01 6.7566090136730184e-01
      -7.0420045327702824e-02 -1.5061382008248128e-01
      2.4121992950657969e-01 -3.6824988365480693e-01
      -1.1536334355766029e-01 3.3085529767317445e-01
      7.2281023113103138e-02 4.4857511490833046e-01
      3.6194633043807700e-01 4.5078055622700106e-02
      -2.3213159942344452e-01 -1.9989828165289014e-01
      -1.2158286732077438e-01 2.0515521187038305e-01
      2.6624025906581233e-01 2.1249335873582642e-01
      2.5346682024420109e-01 -1.5147966028653900e-01
      -8.3967454597740021e-02 3.5806038412022756e-01
      1.7842906967353116e-02 1.6332243028934393e-01
      -3.9849305372286015e-01 -4.6495899511400773e-03
      1.1637547598799390e-01 1.3290397319762620e-01
      -5.8510463181029271e-01 8.3224930905635486e-02
      -1.5763726631033748e-01 3.7343821273204608e-01
      7.6844779074110670e-01 1.3890882562090193e-01
      4.2746179341869894e-01 1.3890346576200724e-01
      -2.8005595087638763e-01 1.8686222825195126e-01
      1.6656123847043042e-02 -1.0468167279312403e-01
      -2.7069097359043576e-01 2.6930772395237229e-01
      -2.6225978911953030e-01 -1.0767172298851636e-01
      2.6205329021506041e-01 -1.7248739563525126e-01
      -1.3063173816542329e-02 -5.9324743039062891e-02
      1.4996420571740735e-01 -5.4978481804832752e-02
      3.4312516749981187e-01 -1.3116578587064476e+00
      1.7437487268464982e-01 1.9560796992194937e-01
      7.2143036556517576e-02 -2.0112977853518971e-01
      1.8154463195250359e-01 5.4133358141747551e-02
      5.6581769859532305e-01 -3.5170086085134628e-01
      -4.8040094424806351e-01 -2.4101971489035704e-02
      4.0903620323198875e-01 -4.9284101296723482e-01
      3.1658770774403333e-01 5.8223704125417941e-01
      -1.9238304379247764e-01 -2.2234497958566896e-01
      3.0647188004790099e-01 -2.4303152510451989e-01
      -1.2045763919418744e-01 5.3301592122087516e-01
      3.4173289964142256e-01 3.4321370496576370e-01
      1.8056938210952803e-01 -9.7174417523487933e-02
      -1.7702431390883130e-01 -2.5716308918580327e-01
      2.6623728786178014e-01 3.7344609787359423e-01
      -4.9725075718716191e-02 2.4766181375311960e-01
      2.5592125657891046e-01 -1.9117646605813066e-01
      -6.7223677048730210e-02 1.3281841718543771e-01
      9.4037444448115140e-02 1.6117286388649313e-01
      -1.7893219370479088e-01 1.0673571209295431e-01
      2.3760960719475074e-01 -2.3885192421516974e-01
      -1.1839744861009578e-01 2.2546152270970815e-01
      -1.8735442629776547e-01 -3.3338413493876157e-01
      9.2847594023898250e-01 1.6117349924653182e-01
      9.9376113354682077e-02 -3.7152404687395613e-02
      -3.0828230443636528e-01 2.2839879365045013e-01
      1.4233528089114666e-01 2.1551294969612397e-01
      -1.1400999061439887e-01 2.3839967406240906e-01
      -2.8047842284355151e-01 -1.9134541781445405e-01
      4.0798681891450229e-02 -2.3743005181233565e-01
      2.6972617838749385e-01 -1.1636527981196065e-01
      2.1283513528868422e-01 7.3379890470239531e-02
      9.0524842868148270e-02 -1.2625098937152019e+00
      1.8683089847660816e-01 -1.3612505915323167e-01
      2.0815719322497217e-01 -4.9147133742455068e-01
      -1.6519664458706240e-01 1.5378423326921054e-01
      4.2051588568331627e-01 -2.5171405709258524e-02
      -6.0511188459846121e-01 -1.1218150724192345e-01
      5.4806135618394392e-01 -3.7077926680315526e-01
      -2.2650437004106880e-01 3.5870243639615740e-01
      -2.3534579093347940e-01 -2.8281301879430809e-01
      3.1517591438587739e-01 -5.8579831020118112e-01
      6.3393610430695538e-02 2.4138392181424637e-01
      2.6541760053510999e-01 4.1333778170728397e-01
      1.5103460006129971e-01 -1.5184855924610285e-02
      -1.9075190275028861e-01 -1.1680163523939363e-01
      8.2715934225252433e-02 3.4202463904181452e-01
      -9.6879972592580410e-02 2.9004775717649661e-01
      1.0920302139734937e-01 -9.6490936061224747e-02
      -3.6287308164225429e-01 4.2807356910846292e-02
      1.8617652352575464e-01 4.1949341943179747e-01
      -2.1378649207952055e-01 1.8906099419267578e-02
      1.2215823616388058e-01 -1.7477451200624702e-01
      4.0914073727876543e-01 2.7418596339183521e-01
      -2.3092466508527054e-01 -3.9102438993081273e-01
      5.2353207290748394e-01 -3.6151492665252159e-02
      4.9362217712342053e-02 -4.9833806031468628e-02
      -6.5057286363830324e-01 6.3019240213375932e-02
      2.4863079319101530e-01 -1.3628861135336368e-01
      -2.7373825332011875e-01 8.1490616954010303e-02
      -9.6696001426857928e-02 7.7185630213192608e-02
      4.7036524449332727e-02 -6.3716311053200331e-02
      2.3366368327709200e-01 -1.5420455167910838e-01
      2.6464775652428585e-01 9.0898801645498545e-02
      2.3064148092736619e-01 -1.1458202308750050e+00
      1.9096207935316376e-01 -5.1233001451964488e-01
      9.3831225696705753e-02 -5.1459629433363008e-01
      2.6606955160888117e-02 1.3216033482681880e-01
      3.4646987879580282e-01 -2.4756187421534653e-02
      -4.3710481537058699e-01 -1.8795303768056004e-01
      4.1098739934155770e-01 -2.4507541533740171e-01
      -4.1408559328499811e-01 5.0377633864030369e-01
      -4.0084397793093751e-01 -2.3182814784799663e-01
      4.0902328723959130e-01 -4.3861739861633331e-01
      2.7051483631960743e-01 2.1839730639095412e-01
      1.5179860413819010e-01 3.2382602516137349e-01
      -1.8211915782497715e-02 5.5403512950393363e-02
      -4.9064423166127968e-01 1.0457849761719558e-01
      8.1648143636813109e-02 3.4354576973844458e-01
      -1.8932774122615542e-01 2.5689316466520890e-01
      1.7513954692461281e-01 -1.2374875280113609e-01
      -3.3080381644183887e-01 -1.7130230131661900e-01
      -1.3539549327193307e-01 3.6061958113761972e-01
      -3.7404110815225788e-01 2.8097556259957429e-01
      5.5090381433732002e-02 4.5395347935406040e-02
      5.5013304726706092e-01 2.2865847952753643e-01
      -6.9562844518283901e-02 1.5730715694491269e-02
      3.7906986062846509e-01 -2.4436266487815494e-01
      -6.8768786905324900e-03 -1.5875463664770570e-01
      -5.5437821160237344e-01 9.0939230142612182e-02
      1.6051785850362452e-01 -1.1370490383594700e-01
      -2.0669052754590070e-01 -1.3200562733144414e-01
      -1.4325601141306984e-01 2.9977054072108985e-02
      -1.0450902250731130e-01 -6.8383946410568259e-03
      1.4784828729527788e-01 1.5012552134807173e-02
      3.0174000112977806e-01 1.5740805472046759e-01
      6.1368039590428075e-03 -7.7146610708380270e-01
      2.8436565553846976e-01 -3.4139408372753954e-01
      1.8197125158903940e-02 -4.8865232828815042e-01
      2.5660413214186334e-01 2.3411105679180008e-01
      3.6174533172338247e-01 -2.7196588907257480e-01
      -3.0504685997287978e-01 -1.9884831107164505e-01
      3.6442678858201721e-01 -3.0915880578597593e-01
      -4.2650134004080792e-01 4.8155327913279206e-01
      -3.5505024929165413e-01 -1.6580857216079317e-01
      1.0257201716766011e-01 -1.0113653466736600e-01
      2.5461670212371007e-01 1.8448514628267351e-01
      1.7237653499204561e-01 3.3690885479461596e-01
      1.1633954179729852e-01 1.0077194802320019e-01
      -5.2132488031006408e-01 9.6523530631664203e-02
      -1.0351654603094894e-01 3.1347060793200077e-01
      -4.7227818157394935e-01 2.9343130010368074e-01
      -3.0892209134207045e-02 -1.9868632280899232e-01
      -3.5104307642325544e-01 1.2045227674255836e-01
      -2.9894445259638219e-01 2.1167928532201555e-01
      -2.3556523627572112e-01 1.3180873628921774e-01
      -1.0011141507379211e-02 1.1703217569552152e-01
      3.6272117973258078e-01 7.7147377727847202e-02
      -1.5108182556753652e-01 -2.5513337010634851e-02
      3.1858398435821988e-01 -2.2841791329366218e-01
      -9.2119713889498425e-02 -2.4279238502821979e-01
      -5.6439121530857717e-01 2.6170840920321981e-01
      2.8287741043250880e-01 7.1981313328332727e-02
      -1.2968196991707756e-01 -1.3465667823639596e-02
      -1.8887759584682273e-01 7.8398061111181458e-02
      -1.1412323613458522e-02 -2.0778586758309095e-01
      4.0503776523610002e-01 -1.0049135133312634e-01
      2.3782469457656635e-01 4.5463737806667508e-02
      8.1053152563230011e-03 -5.1801014178980676e-01
      4.5584077381669408e-01 -2.5503579865440273e-01
      6.0144129616530706e-02 -1.8890763145881759e-01
      2.5429624527841743e-01 1.9705999905990312e-01
      1.8314829700928106e-01 -3.2630663276175603e-01
      -3.9573732468643202e-01 -7.1864208891843348e-02
      1.6111398109219768e-01 -2.8132109490851531e-01
      -3.1452769022992388e-01 1.6058710732521217e-01
      -3.4827160980057270e-01 -2.4772664032157685e-01
      1.3472544077834867e-01 8.0353140111483243e-02
      3.0828367268690804e-01 1.1640251690693490e-01
      2.7425830351019731e-01 2.1208265074626284e-01
      1.0248653283592347e-01 -2.6765391688764299e-02
      -5.9654246092343732e-01 1.2811437489763866e-01
      2.1854169288216652e-01 1.4001898959759976e-01
      -5.0559806548110309e-01 3.7422118903718987e-01
      6.6752634007853640e-02 -1.0858026793809215e-01
      -1.1829580515417229e-01 3.6590294037075177e-01
      -5.5342827637447944e-01 1.6337010767958199e-01
      -5.1074072365204271e-01 1.9917987913983995e-01
      -3.8387668994335203e-03 8.6847305232909580e-02
      -1.8856735954433645e-01 -2.3592910517235194e-01
      -6.0252510352740263e-02 3.7058339875327601e-01
      7.0505769565369680e-01 -9.9313676080196603e-02
      2.5614456160610788e-01 -1.9296787105857821e-01
      -6.4228009534572406e-01 -4.0010677561419614e-02
      1.8717789887998590e-01 -1.0990203954948369e-01
      -1.0656373167164820e-01 2.4915078756141525e-02
      -9.5003424478490556e-02 9.8738874260198159e-02
      2.2225578280324071e-01 -1.3326333272602217e-01
      2.7935492320241923e-01 -1.4853911546985851e-01
      2.7079997139292067e-01 -3.9623967400623808e-02
      -2.3767301154199322e-01 -7.0867786310638048e-01
      4.9757475565625653e-01 -5.6101834332466231e-02
      1.3562394343832571e-01 5.7017602704833147e-03
      7.3619450657137736e-02 1.9238559977353814e-01
      7.7451712560536998e-02 -4.8362887894135925e-02
      -2.7127797507751483e-01 1.7708613214404579e-02
      1.0599532119354876e-01 -3.2707262450001523e-01
      -1.8882428198575885e-02 -1.1193814789995606e-01
      -5.4921683126781784e-01 -1.2042339226955195e-01
      2.7663461654549326e-01 -1.7531837718232518e-01
      3.0984113657857737e-01 -2.3335330868891845e-02
      1.8980519166416157e-01 2.3158206299182310e-01
      6.5817077204490648e-02 7.2190464198246526e-02
      -6.1279677633782581e-01 7.0663212831872602e-02
      1.7887785177131441e-01 4.0617293557832571e-02
      -5.4745469696814608e-01 5.1926594190317588e-01
      -7.3254882336949156e-02 3.7914743950765425e-02
      -2.4382896687268055e-01 -6.2106691017721927e-02
      -5.6298811086257505e-01 3.8242331753736891e-01
      -2.4049878387944378e-02 2.5184785833339368e-01
      -4.5155237426554820e-02 2.5298565565350589e-01
      2.4736194245694682e-01 -4.4852018680924338e-01
      -1.5410849394979725e-01 4.4315976808149936e-02
      6.4156685092655030e-01 -8.2798059747524133e-02
      2.1385058349476394e-01 -5.1166838406819093e-01
      -6.1937486586575341e-01 5.5000183669464769e-02
      1.6089938237514040e-01 -1.0598846363606293e-02
      -4.0860358561527053e-02 3.9655112114088724e-02
      -1.9582849695898721e-01 1.9918317752762396e-01
      6.4498992073759212e-02 -4.6975142627507328e-02
      3.4500559782062989e-01 -5.0101587495708928e-02
      2.6304225803420478e-01 1.3316037562401775e-01
      -1.2416006635468972e-01 -7.9799189366132328e-01
      5.4808835725964222e-01 -1.0650571534848599e-01
      3.8109787958185135e-02 -3.9494192301474440e-02
      1.5796724371387583e-01 1.8618420848467057e-01
      -6.3136668856325032e-02 -1.9372767328322107e-01
      -1.5288949329409238e-01 -3.4767965465172211e-02
      1.0823282020702890e-01 -9.1173763451432754e-01
      -1.5344125182441597e-02 2.2032065352553692e-01
      -5.5959030391495046e-01 -4.9866222119240702e-02
      2.2638111479824113e-01 1.1975362760263331e-01
      2.9614029705180173e-01 2.3467471259899275e-01
      1.7134638787337983e-01 2.0370202416851182e-01
      3.7113645351454012e-02 5.0413900252423191e-02
      -4.0507340694129051e-01 1.3505512959385182e-01
      2.4032697146975360e-01 1.8654643532079662e-01
      -4.1492681095866485e-01 3.8572616399540421e-01
      3.3381503872392596e-02 -2.3322340284529020e-01
      -3.6245078283396276e-01 9.8283638078347189e-03
      -2.3524133741165576e-01 3.2566264026644587e-01
      -3.2674818920249184e-02 2.1940870564996803e-01
      -1.5481412750256950e-02 2.9208761899827862e-01
      2.7997465042740410e-01 -5.2751956221342977e-01
      -1.4402058102156901e-01 -1.0003067024082633e-01
      4.7588158341153752e-01 -2.6620843285009188e-01
      2.4115675214028293e-01 -4.4671894639723803e-01
      -5.4690529131000654e-01 3.5106374896753244e-02
      2.2304356777604203e-01 9.9655067007131393e-02
      -1.1970735788982159e-01 4.5972001569257126e-02
      -2.8102446131337122e-01 1.0176082053736951e-01
      1.8417125711557825e-01 -3.3969516244460145e-02
      2.3526028024191711e-01 -5.5010031981449506e-02
      2.9060479824975560e-01 -6.2969053495152846e-02
      -1.6316521122647490e-01 -1.0098466248114657e+00
      5.7550278632990881e-01 -2.5414227666176646e-02
      1.5766211871261657e-01 4.2066617333930516e-02
      -9.3826914814596762e-03 1.4685863597861348e-01
      -6.0323474114633728e-02 -1.6447782594720892e-01
      -2.2464937368277774e-01 5.5143613657278524e-02
      -7.6214013297432145e-02 -6.9503032598571757e-01
      -2.7996278101331656e-01 1.6781257108763814e-01
      -3.8871832979441812e-01 -4.7369325538131828e-02
      2.4553342219452115e-01 -8.4853309850127331e-02
      3.2944505553871456e-01 2.0120850201301177e-01
      2.2773037721573891e-01 4.2016733043763969e-03
      6.5842906281977018e-02 8.8864158960451106e-02
      -5.1845228496682294e-01 1.5772445717562389e-01
      2.3760642627635668e-02 1.3496184394693805e-01
      -4.6174944644438992e-01 4.1992052037466299e-01
      8.5261555688619109e-02 -1.5764260945273409e-01
      2.3195705220005886e-02 -1.3486212482525495e-01
      -4.7994924004979833e-01 2.9868039873687391e-01
      8.4430454503029106e-02 2.1151898505310421e-01
      -7.6222651946328893e-02 1.6089003193440118e-01
      1.1265781277405608e-01 -4.7617452499420770e-01
      -1.4013860916264567e-01 -1.3495457556525634e-01
      2.1684120152104136e-01 -1.3246700796250263e-01
      2.8662397109085996e-01 -3.6677905188288196e-01
      -5.5839713666749047e-01 2.0055501927095241e-02
      2.0052416502272068e-02 1.3160350614637911e-01
      -8.5661220300575880e-02 -8.9396346901555804e-03
      -1.3119034795093151e-01 2.8049503763261785e-01
      7.5709602389798106e-03 -3.6591082874754835e-02
      3.0242355809078858e-01 2.3523142743236986e-03
      2.1872086746827804e-01 9.6289824999525805e-02
      -1.2732990530812513e-01 -6.4521146695295006e-01
      4.6261898135097235e-01 -6.9669165848234502e-02
      2.2170338692194033e-01 1.7634400518074070e-01
      1.0721204583828604e-01 9.6436453431170965e-02
      -1.7510003037865046e-01 -3.4153795359066813e-01
      -2.9310519686545727e-02 8.6559116422491492e-02
      -1.1003541962456817e-01 -9.3128199483991270e-01
      -1.3194216579017176e-01 -6.3129351789803292e-02
      -2.5660384715570039e-01 9.3670934452926749e-02
      2.7390907390964830e-01 -1.4891531066107438e-01
      1.2820456966561122e-01 1.4336019490800916e-01
      3.5855885467077553e-01 -8.8712111152401713e-02
      1.8631432706750162e-01 -4.0807707358522564e-02
      -5.2738887044307059e-01 2.3787864326766237e-01
      -6.4727793797675640e-02 6.2222277938138920e-02
      -3.7423136967137044e-01 2.5034630032540456e-01
      -4.8042972990831683e-04 -1.9674529518689010e-01
      -8.6235799905088631e-02 -1.5301910454281720e-01
      -3.7152298191584343e-01 7.9772535699829589e-02
      1.7487411288259783e-01 -1.9408924528366980e-01
      3.1021136323973915e-02 1.4585183798164553e-02
      1.5188816634449009e-01 -2.0475088528008215e-01
      1.2218807851425842e-01 -3.1605554854063889e-01
      7.0842355019893263e-02 1.2105097364037876e-01
      6.6614513899252437e-02 -4.9406541075659594e-01
      -5.4601864101223174e-01 2.4213909084333474e-01
      6.4258840787072377e-02 2.1960427565190804e-01
      7.3601666757039247e-02 -1.0930087839582271e-01
      -8.3805060899058550e-02 6.7011080494868436e-01
      -1.7571181979984857e-01 -1.2607889190088102e-02
      4.1621769998092512e-01 -2.4026532285500862e-02
      1.7442449255244899e-01 3.3276954568096168e-01
      -2.3633339616904656e-01 -6.3457960944212244e-01
      5.7571226718666790e-01 -2.6297468691441706e-01
      3.3169057879700942e-01 3.5780097204950168e-01
      4.0578026775079726e-02 1.6180220182507424e-01
      -3.8889776477587917e-01 -2.9378675711828800e-01
      1.1750504301655329e-01 2.3619293361701644e-02
      -3.9831291478923236e-01 -9.6064026703265493e-01
      -1.2906189232816417e-01 -9.0218549044694799e-02
      4.5020417121871333e-02 1.7399363133414264e-01
      7.8794213948211150e-02 -2.7582294509448863e-01
      8.1994753324145256e-02 2.1720210000157575e-01
      2.7760563971685809e-01 -3.7312145272449269e-02
      2.2487616224481810e-01 -7.1798405952625433e-02
      -2.2625737277744631e-01 1.7743354895229735e-01
      8.4933847810684540e-02 2.1565147152597117e-01
      -3.0125086952955371e-01 2.2193067064089025e-01
      1.2460061628031616e-01 -2.7100264539709479e-01
      -1.6440629390389297e-01 -6.2337662892855535e-02
      -4.6314724182935446e-01 1.7589948125608004e-01
      1.1134694066440433e-01 -2.1880698181701916e-01
      2.2779558213308657e-01 3.7935907523258462e-02
      1.4246318232119834e-03 2.3625659069892621e-01
      9.4948981471110805e-02 -1.3330146216127867e-01
      1.5983353366953282e-01 5.7680778682702168e-02
      1.3174288860100120e-01 -3.5029039900622705e-01
      -5.6911145424898613e-01 2.3011776456936162e-01
      -4.1819182147332266e-03 3.7923573848195385e-01
      1.4234422526999987e-01 -2.2068052888567716e-01
      9.1976050530072656e-02 6.1813509825169566e-01
      -6.1101701035186105e-02 -7.3147337670160309e-02
      -1.1129707168938789e-02 -5.4869761302976994e-02
      6.0504850625358775e-01 8.7633516611887896e-02
      -7.9305686416788634e-01 -5.2911638804028305e-01
      5.6587911512513633e-01 3.0413116731534462e-01
      1.5553382447959335e-01 4.7077617011292747e-02
      -2.2396305793786928e-01 -1.8235065294327550e-02
      -1.7768256938107871e-01 -6.4302298271060743e-01
      1.1035945169111325e-01 1.2574996476260422e-01
      -2.2895975660485457e-01 -8.5095281000626188e-01
      3.1187503215854673e-02 -1.7452884862727550e-01
      7.4107111662838742e-03 1.0831003976884104e-01
      2.0023487137293877e-01 -1.9917378350998613e-01
      -9.5756959221745874e-02 1.2012543732945948e-01
      1.5819668905463610e-01 -9.3969046313778989e-02
      1.9553418839020320e-01 1.2161858761776081e-02
      -2.2836458622681782e-01 1.7599804921709181e-01
      2.4206466784593159e-01 2.3080984165067217e-01
      -3.0957922283460804e-01 2.2968461155367628e-01
      3.6602789386290184e-02 -1.6574928743989220e-01
      2.3675347260504347e-03 8.1368128989706162e-02
      -4.7958310266476151e-01 1.5205355498030826e-01
      6.4431025129193215e-02 -1.5337986130856324e-01
      -3.6244518490612658e-02 -4.1979633140800166e-02
      2.5023391161672327e-02 -5.7417954568199474e-02
      1.9276266831701944e-01 -2.0918735579176001e-01
      5.0640110411268757e-02 -3.5379352790245546e-03
      -7.1794554390950560e-02 -1.5110367050242868e-01
      -5.1627334172806272e-01 3.2659228423964437e-01
      -1.6456455667373766e-02 2.3845206990056783e-01
      5.1869919356795337e-02 -2.1879820221559293e-01
      -6.9686740538887598e-02 6.5661390906300365e-01
      -1.7508226154214682e-01 3.9118843282766470e-02
      1.2202673058724088e-01 1.2390960262127913e-03
      4.2299298029580640e-01 1.0340186097158911e-01
      -5.4646420140538543e-01 -4.4107428635641011e-01
      6.0453802460459893e-01 2.8518955480443775e-01
      1.7690052705337500e-01 1.8563371333970208e-01
      -2.3558883502091013e-01 1.5852620025126597e-02
      -3.1055171041253371e-01 -7.4322209809656836e-01
      2.1027358227628960e-02 1.3703361297048550e-01
      -3.4183417832251162e-01 -1.0481471884617046e+00
      -6.9250844621013122e-02 -1.4223810741112805e-01
      2.1587364293473724e-01 2.3494258762065645e-01
      -4.0642542869348220e-03 -8.7852726778413964e-02
      1.9282689819972146e-01 1.7941444803745754e-01
      1.3472103832697679e-01 -2.3343914687793585e-01
      2.2785075595200288e-01 -4.2911150131853135e-02
      -2.8270302172675549e-01 2.9393788457987030e-01
      3.3827033027711129e-01 3.1584482217677634e-01
      -4.6371925722444068e-01 6.6113106456574602e-02
      1.6581305009302855e-01 -9.5632138866338909e-02
      -1.3835360336859875e-01 -1.1757346532539456e-01
      -4.4000392411255473e-01 -2.9110750954655058e-02
      9.1437727804169269e-02 -1.2243699669970963e-01
      1.7029116147417106e-01 -1.5213227016391812e-01
      1.3260344051751599e-01 -6.1375834556004816e-02
      2.4623123517181218e-02 -2.3487908255357207e-01
      2.1782051126236188e-01 -1.3531544682843921e-01
      -6.4130313411481649e-02 -1.5387383504370345e-02
      -5.4162594707423672e-01 2.5260564192999818e-01
      -7.7055953178045936e-02 2.3277081279115711e-01
      -3.3581880041369257e-02 -1.1032746968097067e-01
      -7.9271467498628373e-02 7.3804148365571309e-01
      -2.2866324936224491e-01 6.8039906013293336e-02
      9.1288377229375037e-02 8.8071940334974452e-02
      5.3257905700112385e-01 3.1958245119424203e-02
      -4.6560376448161178e-01 -3.2060340802019355e-01
      3.5853806918528086e-01 2.3495702984673253e-01
      2.1485340557667998e-01 4.2739315601941807e-01
      -1.1229685812456994e-01 -1.3086377956217538e-01
      1.1262875620831951e-01 -3.6048530902418563e-01
      1.1507374527999327e-01 1.2310213841864751e-01
      -3.2037412880314398e-01 -1.0378528513598408e+00
      -1.6513149455502202e-01 1.0514179199544325e-01
      3.4178359271229269e-01 5.2538306337453121e-02
      -4.7229745137327604e-02 -1.4379378899079909e-01
      -5.3918284352004658e-02 1.4548824876877570e-01
      2.1657186931937747e-01 -1.6603773277804923e-01
      2.8294433252385115e-01 -2.1023943875455964e-02
      -5.0228792156607549e-01 1.9217452950812461e-01
      4.4692482671550321e-01 3.6035923746168569e-01
      -3.6194963970107419e-01 4.5771712635276893e-02
      3.2375916457615384e-01 -9.2797286622065184e-02
      -3.3199977974472050e-01 1.1120556289920812e-01
      -3.8522478267498195e-01 -1.3155836013460898e-01
      1.3356235402851305e-01 -4.6305868152401501e-02
      8.9976683781226266e-02 -1.4050695473058905e-01
      2.3421193747466124e-02 -7.8874653680801488e-02
      9.6750426362230704e-02 -6.9122662158841788e-02
      2.4589556240911487e-01 -6.4226930730988008e-02
      -3.2218766055017112e-01 -2.1970653516639987e-02
      -2.6724018699970059e-01 3.5033942390369105e-01
      1.0096871803441350e-02 2.2812156129584812e-01
      -5.4047713511941549e-02 -2.8557098042744428e-01
      8.8452211832682023e-02 5.9759808503871070e-01
      -1.7054484451844321e-01 2.7903922470014803e-01
      -1.1183411087647444e-01 2.1111344060541017e-02
      4.9482615104594629e-01 1.2388204318822861e-01
      -3.6695828376658551e-01 -2.6854609128618240e-01
      3.0877281288362030e-01 9.9567416724931801e-02
      8.8343376291492123e-02 3.7231000173123024e-01
      -9.7441230569476373e-02 -1.5917880526123185e-01
      6.1432215767735381e-02 -1.8637632969042836e-01
      -2.8329621063614405e-02 1.5589523024704793e-01
      -9.2901269112674545e-02 -9.2901075380953813e-01
      -3.7144996534908392e-01 2.4263517254526396e-01
      3.5415312956662426e-01 6.7351702438249825e-02
      -4.4732147954485789e-02 7.7212489662169176e-02
      -1.1368377054613349e-01 2.3436011517915345e-01
      3.8448752776116474e-01 5.3675609910196743e-02
      -1.5749151619211527e-01 -6.7565453776860088e-02
      -3.2486850736833089e-01 1.1079783369591943e-01
      3.0411929020554113e-01 3.0932958320841314e-01
      -3.8853579649715442e-01 -1.8868679718750780e-01
      4.9754474777403657e-01 3.1779238064722576e-02
      -6.6627491289776530e-01 -1.9046549725386916e-01
      -1.1169999305118025e-01 -2.6028945144490057e-01
      3.3461190867846080e-01 -1.4008522859324898e-01
      -3.2336819491277514e-02 -2.0945301176968428e-01
      5.0706808119982305e-01 -4.1229957368504638e-01
      -3.1393612823115570e-02 4.6878925824822185e-02
      2.6702750957104460e-01 -1.0550081893056418e+00
      -4.2210992975204864e-01 -1.8811669128429973e-01
      -1.8112259677139375e-01 3.1284444290280061e-01
      -2.4234048110972556e-01 2.1352968181180465e-01
      -2.4719812637315847e-01 -1.3715027442616248e-01
      4.1183511378298038e-02 5.9463733012849196e-01
      1.7138339224868093e-01 3.1262656534604122e-01
      -4.8028100259024556e-02 1.2320043553792513e-01
      3.7158906388391061e-01 4.7313762882920524e-02
      -4.1969166045521633e-01 -5.4199336977011681e-01
      7.1559633674070935e-02 3.2402216174739228e-02
      -2.0371277551561436e-02 1.8718405551355805e-01
      1.4581663138853768e-01 4.7314552656866724e-02
      1.1014167295128940e-01 -1.6965938726107033e-01
      -1.9956664850142158e-01 1.3398571505326123e-01
      3.3121399073817703e-01 -3.5498212032261395e-01
      -4.8245512002296942e-01 4.3949333117184525e-01
      2.5567719233329733e-02 -1.1423581896712535e-01
      -8.7552869990075513e-02 1.3087171519229546e-01
      -2.2849983435410337e-01 9.2267933542090480e-03
      3.5512915362577063e-01 -1.0369928644148986e-01
      6.9856370301480203e-02 7.8993325863172784e-04
      -3.1397692285012219e-01 6.5752429556088690e-02
      4.5327085229938102e-01 2.5202087180132110e-01
      -3.9641482488050855e-01 -1.5026195164213080e-01
      5.4541047165540335e-01 -1.5146799554674673e-01
      -3.3318436585419864e-01 -1.8881384869160683e-01
      1.4805259073452165e-01 -3.0660783294285215e-01
      1.0725796231613911e-01 -1.0098292496215518e-01
      1.7597700046174206e-01 -1.3746970713994747e-01
      3.8066270120869616e-01 -2.7286949116174525e-01
      -8.1878257074191205e-02 2.0520440518676755e-01
      3.8857073877357384e-01 -8.9178072518856000e-01
      -2.9364827906556401e-01 -1.0557807255618949e-01
      -3.2182759763186866e-02 2.5697600776226409e-01
      -2.9501208446932758e-01 1.7316326906914217e-01
      -1.6631716283924497e-01 -2.9091578352518838e-01
      2.6091593203887781e-01 4.8730121177722796e-01
      1.9643174208742634e-01 2.4072712263318011e-01
      -2.9594083594672627e-01 9.2070326567434441e-02
      3.5493824033609989e-01 1.5578196303900602e-02
      -5.2564113980599958e-01 -6.3547586656509680e-01
      1.2080761298889654e-01 1.0432853219830285e-01
      -1.4660194239902768e-01 7.7503765309756237e-02
      1.6263950395863883e-01 -1.5493044617211807e-01
      2.1540842522787998e-02 4.0911881801258508e-02
      -2.8847114697790947e-02 1.2316505028935665e-01
      5.1947279879126451e-01 -3.4199675573980515e-01
      -2.3228473272513828e-01 1.7532975516698558e-02
      -1.1858021216917493e-01 -3.3383511904014888e-02
      -5.5633185212107576e-02 -1.2660972692546008e-01
      3.4872864106817662e-02 -1.5682696322660891e-01
      2.5230145534063680e-01 1.0271370009839213e-01
      -1.1236599332068767e-01 1.1806627727446659e-01
      -1.9524518138130620e-01 4.5634334042761474e-02
      1.2840132754403352e-01 2.7450809794559539e-01
      -2.9821485068989950e-01 9.9099969057286595e-03
      3.3137357230294551e-01 -2.1806908331265848e-01
      -4.0688954593720000e-01 -2.8252567299232073e-01
      2.2685856032553783e-02 -2.4415333334398215e-01
      9.7741387345243860e-02 1.7713687198065800e-01
      -4.9389409171461250e-02 -4.6452858277810635e-02
      4.5045355715459401e-01 -3.0382964673917018e-01
      -2.5765201531101534e-01 2.1857251444282846e-01
      4.5117504684851018e-01 -8.9293181664002741e-01
      -2.5726228951608543e-01 -9.1558623393167296e-02
      -3.9402999569206239e-02 2.4920006355325092e-01
      -2.0373859138099595e-01 -4.0593108481971951e-02
      -2.6720224464792163e-04 -1.2109367551264341e-01
      9.2504898857675086e-02 4.4777239761673199e-01
      -5.0841844490425690e-02 2.2294396826808208e-01
      -2.5035992427217107e-01 1.9356092504980063e-01
      8.6482662902500965e-02 -4.1000927066432338e-02
      4.8112097974615499e-02 -3.9363093566904933e-01
      2.7754153615429217e-01 -1.7789851642008495e-01
      4.3701901006043466e-02 -2.8542601765745851e-01
      2.5302468970214814e-01 -5.6568556319616950e-02
      -7.0486168906234881e-02 6.8588281097172923e-02
      4.8136836136952431e-02 1.5618544885036764e-01
      7.0030986081876867e-01 -9.2929591857117883e-02
      -2.5725666997459301e-01 -3.4776828661577075e-01
      -8.0160347779137872e-02 4.3454719672529292e-02
      -5.9682432281223913e-02 -7.9168917204196929e-02
      1.5191380458152201e-02 -1.7240958737599926e-01
      3.7514185732827382e-01 1.1260061607486770e-01
      -7.1352081007796997e-02 1.3464052116303077e-01
      -2.2075837279535018e-01 1.3761421830906015e-02
      -3.8567045716833892e-02 1.5542216339030768e-01
      -1.4406142209805603e-01 1.7339928773941987e-01
      1.2837857889386435e-02 -7.9017730231358302e-02
      -5.6891807271427375e-01 -1.7877264907903101e-01
      -1.1500368478307343e-01 -2.5333159789618964e-01
      1.6862943261545191e-01 -2.7565083646381227e-02
      -2.8203725605639984e-01 3.3912907545167424e-02
      6.1235779760961118e-01 -5.9114147905099813e-02
      -2.9398251139907666e-01 2.3128987141677165e-01
      4.1319251473519059e-02 -6.9840498985356969e-01
      -2.2071751436043441e-01 -1.8594826308464601e-01
      -1.8557918340194376e-02 2.0367035229151034e-01
      -1.9985717519860879e-01 -1.3231202938569089e-01
      3.6316710159567550e-01 -1.2625221709338350e-01
      8.9317883888967914e-02 2.9066359844680545e-01
      -2.0838288333389712e-02 2.1548183368450258e-01
      -1.9492587005702933e-01 2.4618772825548701e-01
      -2.6938935559714255e-01 9.1604602480820682e-02
      1.9111141577687823e-02 -3.5834846154373950e-01
      2.6735359109067008e-01 -3.4045100941748951e-01
      5.2201943249582210e-02 -5.0316533328833601e-01
      1.9663187764083004e-01 -8.3244437032959973e-02
      -2.0966761680612769e-01 -7.3499263266232753e-02
      1.1947424471215541e-01 -2.3187361371907040e-02
      7.8993287800825385e-01 -1.0006517934595725e-01
      -3.8813356161803764e-01 -5.9153544327905516e-01
      5.7251694876730951e-02 -1.3446378504774412e-02
      -6.8027102603183370e-02 1.8114665167146274e-01
      2.5382690675241848e-01 1.8766772704372776e-02
      2.7544205431742225e-01 2.2089498839799737e-01
      1.0050274134133957e-03 1.9019844564823932e-01
      -3.6915394914841210e-01 -1.4032961011427975e-01
      2.6683614266684929e-02 -3.1678828821982571e-02
      -1.4777986244173605e-01 2.1193554970235448e-01
      1.5275935290145648e-01 -2.6634618841678132e-01
      -8.0954686954159694e-02 -1.3517043712641744e-01
      -2.8034413836544581e-01 -1.1238035914169561e-01
      1.2255930939306131e-01 1.7659119632222178e-01
      -1.9946348405485503e-01 9.2905686506520882e-02
      5.4554012407101071e-01 1.4566399494014090e-01
      -1.8401151891673506e-01 4.3330917615576892e-01
      1.6149241800891764e-01 -7.6622376741131970e-01
      -3.9409914528766188e-02 -1.5805635202656415e-01
      -4.1678132336326301e-01 9.9419897973984775e-02
      -8.5976404188330330e-02 -2.0411817131211998e-01
      8.8237375579590424e-02 1.0581940271722240e-02
      6.5731964821005476e-02 -9.6430253719626394e-02
      2.5084516734111634e-01 1.3316008652918737e-01
      -1.1772419829824750e-01 1.5504064887052948e-01
      -2.1897938116707205e-01 2.8260593323446884e-02
      -7.4152429728011060e-02 1.3201435632865999e-01
      1.6462171822213800e-01 1.2016739884137800e-02
      -2.4098790780212497e-02 -3.9546822247903712e-01
      1.6059622507558594e-01 1.8835103650010279e-01
      -9.8283113456795718e-02 3.1548824569187039e-01
      -9.9907809916848819e-02 -1.5439853763959916e-02
      6.8369355273655907e-01 4.8179279297018557e-01
      -2.1056296107598885e-01 -6.2117330858879760e-01
      -4.4061330693497165e-02 -4.9477700216022012e-02
      -1.3574350451249882e-02 -9.2579088725927253e-02
      1.9720379723042666e-01 -1.4277150682218104e-01
      1.2926407432466980e-01 5.2865757952968451e-01
      -6.8777783945650803e-02 2.1585901302989655e-01
      -3.0847107836800730e-01 -2.0460301179126683e-01
      -5.6987688020013159e-02 -5.9811196017043405e-02
      -3.1217685817764645e-01 2.2539860530767908e-01
      -2.1206743687941346e-02 -1.8241874151830209e-01
      -1.6286632797028142e-01 -2.9046260620429176e-01
      -2.0889251157490543e-01 -7.7953131990603816e-02
      3.1734610113922129e-01 7.0280361591376031e-02
      -9.7573293144064283e-03 1.2478144565201675e-01
      8.0230190657408662e-01 1.6000870402180284e-01
      -1.4265585445820048e-01 3.5276005319803178e-01
      2.6685873679050093e-01 -6.7691131054811104e-01
      -8.4528244674095712e-02 -2.3362516246156584e-01
      -3.3773292260052096e-01 1.2072656601746524e-01
      -9.3252551124409264e-02 -1.9503763337097582e-01
      1.4479932084872915e-01 4.9423088261421826e-02
      5.9299627260182848e-02 -2.3902056072925660e-02
      -6.5634276900738045e-02 1.0611423307428366e-01
      -7.3900720873766382e-02 2.7217677973899379e-01
      -3.1674670597604210e-01 2.2911158102596148e-02
      9.8582723345122511e-02 -1.3970437417893958e-02
      1.8554996068348126e-01 -1.0593618766701919e-03
      9.2433232612638676e-03 -4.4155860209376768e-01
      3.4851463302087514e-02 3.1669800437527415e-02
      -2.5050895536184052e-02 3.1228307538606820e-01
      8.9146517909662146e-02 4.3906628262701509e-02
      8.1189699893352030e-01 5.4220823246855543e-01
      -2.9283697100646322e-01 -9.2783141660687718e-01
      -4.7285209369363188e-02 -1.4132078698719549e-02
      -1.2435152929611042e-01 1.3201825789120056e-01
      1.7122909276496545e-01 1.9458484990870845e-01
      1.0232399560821173e-01 5.6254803283501964e-01
      -2.0103810472904902e-02 2.6525707796833470e-01
      -2.2009555684435189e-01 -1.0958003497563513e-01
      -3.0013474377109034e-01 7.8333276628905046e-02
      -2.5147413572265748e-01 -1.6621026752976300e-03
      7.7632167863763646e-02 1.2174509175983539e-02
      -2.8889374902378365e-02 -4.6355003628500346e-01
      1.5490405208107430e-01 2.3457281792507723e-02
      4.1652019368776649e-01 4.5190953787919930e-01
      5.3728008058813859e-01 1.7207569054138386e-01
      9.7010249028961526e-01 -6.3168285846400940e-01
      -4.0102845079108279e-01 1.5467852196089532e-02
      1.7039932637757430e-01 -2.5004769523466047e-01
      -2.3889684740951867e-02 -1.9606344475060256e-01
      -2.7719798760416714e-01 2.9044622113649308e-02
      -8.6127669385693013e-03 2.8892262331199969e-02
      -1.6869474472439808e-01 1.2557942611008996e-01
      -1.6485075984992470e-01 1.8302390869518753e-01
      -4.2508423349768981e-02 1.6077242507522588e-01
      -1.9638976273208569e-01 8.0253688283913674e-02
      -2.5947753166924148e-01 5.2989360271061207e-02
      3.8397084095129508e-01 -1.4962165744667636e-02
      -1.0888157952584630e-01 -3.7848479961578485e-01
      -7.4872961736393131e-03 -4.1436175883709081e-01
      4.5366509933905806e-02 1.9231324251302767e-01
      -4.9531210263837999e-02 5.0209180591855673e-01
      1.1008021281024950e-01 -1.5983021750877344e-01
      7.5984997698189471e-01 5.6313157296777350e-01
      -3.7738535224038605e-01 -3.1119231394387975e-01
      -1.3584731343425116e-01 -2.7035015400079004e-02
      -2.6595160350699776e-01 2.6547621130882413e-02
      8.1165095505517718e-02 -1.6659551327174726e-01
      9.8988088949351155e-02 6.0054423993360573e-01
      1.1441389976867705e-01 1.6087359453932418e-01
      -3.4651511845436034e-01 -2.3140960326499521e-01
      -4.1843596078239076e-01 5.1694297596354535e-02
      -7.4639081523300799e-01 -6.0597195548058258e-02
      -1.8169965994993820e-01 7.4909640361352489e-02
      3.4194019852141273e-02 -3.1290935626014704e-01
      -1.4295673083255842e-01 1.2642685452508040e-01
      2.5290043940227880e-01 5.3479918241652791e-01
      -2.1378875548581647e-01 -1.5199811962434695e-01
      6.3901260959225126e-01 -3.5338206550674434e-01
      -1.3931089063602295e-01 1.9813356828293746e-01
      -7.7820363311462845e-02 4.0356766973299466e-03
      -2.3749647783980949e-03 -1.4851041807901141e-01
      -4.3335938131192209e-01 -2.4144439797083382e-02
      -2.1831250124460301e-03 -2.9228029434563246e-01
      -8.9062857407628940e-02 2.8049853208822081e-02
      1.2748606623518706e-02 3.0951248422669075e-01
      -3.3911430233569623e-01 1.6810669077595849e-01
      6.9729963895743860e-02 9.4442339982932361e-02
      1.1145214532816362e-01 -5.3580020628100855e-02
      4.9922754808228442e-03 -3.7544183269174407e-02
      1.0997574415257702e-01 -2.8050551374152138e-01
      -1.0918709038023054e-01 -6.3132888374146046e-01
      1.1506866123333449e-02 -4.2529818252145263e-03
      -1.0393208102688942e-01 9.0214987247111567e-03
      2.0170161045428436e-01 -6.9926249525272769e-03
      5.9608563531968284e-01 4.2876821550517746e-01
      -4.9464864439246281e-01 -1.2681184161928072e-02
      -4.9626484155071010e-02 -9.7493345134665801e-02
      -2.4801934405420822e-01 2.2296220426970367e-02
      1.8033248158635673e-01 -8.6351880341251921e-02
      5.2450694296521230e-02 4.5077450691233756e-01
      -2.7189683087580896e-01 3.5413049354538095e-01
      -3.5670761301043796e-01 -1.7784238140959180e-03
      -5.4636061501014921e-01 -1.3316040450817546e-01
      -7.5659096857813468e-01 1.6611950928985869e-01
      -3.7041296595172118e-01 -1.6413879754773295e-01
      9.9404886676523169e-02 -2.7160624595331573e-01
      -1.5965407906964138e-01 3.3010363209875659e-02
      1.6499642572423426e-01 4.6356021121378904e-01
      -1.2874728845196970e-01 1.1940483418839327e-01
      5.4395972859924557e-01 -3.6402667762638924e-02
      4.2083635714962174e-02 2.0656148140837560e-01
      -5.3056769626035902e-03 6.6707053118844270e-02
      -2.7517176392105019e-02 -2.3124818875991951e-01
      -3.5788963744309982e-01 2.2023600196119885e-02
      1.0890662530501928e-01 -2.5359367204600763e-01
      4.8796168511720459e-02 7.8239840457312970e-02
      1.0477983608391893e-01 2.9087121005238420e-01
      -3.4218236253310236e-01 2.5559241121160231e-01
      -2.9982420640212427e-02 8.4821902085515308e-02
      -7.5787271463626134e-03 -6.0848204373100012e-02
      3.4194913532083360e-01 3.2642999731260704e-02
      1.4797117374873442e-01 -3.7547522096184849e-01
      -8.7305153905348959e-02 -7.6148132176492334e-01
      1.0568804085741028e-01 -8.6498722595827499e-02
      -5.0016193675837956e-03 1.8510076121964376e-02
      3.0029629724535351e-01 -6.0572282905318416e-02
      4.3129463135497231e-01 -4.0127136205191521e-01
      -2.2277384108577267e-01 -4.4661314430603638e-01
      5.4096335554621261e-02 1.3261058223764771e-01
      -2.5249651298453996e-01 3.1829776101014717e-01
      -8.2474250201640962e-04 -4.3980462388560633e-02
      1.0904216097955446e-01 4.1257794240958834e-01
      -3.3695115249293284e-01 2.8721198423446753e-01
      -3.0583338104495877e-01 -9.2029561391700598e-02
      -2.9999327689699468e-01 -2.6758579356940062e-02
      -7.6779094575403761e-01 3.7125938499982226e-02
      -3.5801921300074327e-02 -3.3557282280197126e-01
      6.2341018874140279e-02 -2.6755701527834147e-01
      2.3361030641028131e-02 6.9498833142895025e-02
      1.5296378828923496e-01 4.5555141337614330e-01
      -7.5689255891320334e-02 1.5056567584056868e-01
      6.0122721188042627e-01 -2.3257308415974567e-01
      -6.1963313123698897e-02 7.1513473724744911e-02
      -4.4015014960913207e-01 1.4353227584753206e-01
      9.3544906109905374e-02 -1.6126924762138964e-01
      -3.6586388619821364e-01 -6.0823280450778922e-02
      1.1462751722157204e-01 -1.4045777302224458e-01
      -3.8133904277742929e-02 1.4485290346365207e-01
      8.7264439116452014e-02 3.5326427315395798e-01
      -2.9674373538062954e-01 2.1278169258064031e-01
      9.1141150786324607e-02 -1.4635569714260860e-01
      -4.5428485077725594e-02 2.9494821178202202e-01
      -1.1809837450629344e-01 -1.8568428933294379e-01
      2.4172996832484844e-01 1.3070185410899177e-01
      -3.2616368541841162e-01 -7.1832235206686190e-01
      -6.3697850697400332e-02 -8.8240298874408870e-03
      2.2121683541465015e-01 -3.6482561731237201e-03
      3.0330982758668967e-01 -2.5497494179071468e-02
      5.3131520487599881e-01 -2.6765526757442443e-01
      -1.3868684930468106e-01 -1.5605150961470679e-01
      3.8205092932249662e-01 4.3494965111642227e-02
      -8.5048009028790367e-02 2.7461478187738943e-02
      1.3667110113511019e-01 -2.6602532148400013e-02
      1.4817398327167255e-01 6.0695843725302767e-01
      -2.3489106399770079e-01 2.2985902569144528e-01
      -4.8698696742797148e-01 -1.4287642196265124e-01
      -3.5457176468773882e-01 -1.6220155139181638e-01
      -7.1119540134576220e-01 1.1304117017616674e-01
      -2.7086701437254729e-01 -1.6000835713181596e-01
      -5.3824537216698540e-02 -1.3349383218057242e-01
      6.0583643605382820e-02 1.5401490385842370e-01
      6.3297579892839823e-02 4.5909018138288271e-01
      -9.9142159228877022e-02 4.0234408973485923e-02
      4.2783242806209648e-01 -2.1751758474984534e-01
      -9.1595646266692241e-02 1.2830518883747979e-01
      2.1739179576549675e-01 2.2206566239862985e-01
      6.3642044035689557e-02 -2.6806197085531863e-01
      -5.9280639326740225e-01 -4.0969417600850072e-02
      1.1761542214034294e-01 -3.0832989086795815e-01
      -4.2479260433194319e-02 2.7048994066773063e-01
      -8.5078071273716874e-02 3.9274503230035845e-01
      -7.7949707866707518e-02 2.2315770677632982e-01
      7.8398457595654641e-02 -6.0888467290389978e-02
      2.9525591226901210e-02 8.9191688608465769e-02
      -4.4414900390508112e-02 -2.2460540961047346e-01
      9.4961989366676783e-02 -3.6686999950355925e-01
      -3.1182802094048950e-01 -5.0903994327441349e-01
      -1.0301930525024304e-01 8.8646432762540070e-02
      3.1195645334811456e-01 4.1563434392000609e-04
      1.6840510242854473e-01 -2.4724464276826359e-02
      4.9695000800377387e-01 -2.1885244078127758e-01
      -6.6046615463794006e-02 -3.4499066886332991e-01
      1.8773744188023203e-01 -2.5347440449190994e-01
      -1.2935582701507929e-02 2.6484549499565546e-01
      -2.4709180044596581e-02 -4.3292634132149968e-02
      7.6048414900762418e-02 5.6449571353611672e-01
      -4.4693080594184302e-02 3.1624890757387614e-02
      -4.5388323016097548e-01 4.6045533517961472e-02
      -4.7703926839752286e-01 -5.4275774507944005e-02
      -8.8464811007910404e-01 -1.0483235564424623e-01
      4.0641670667850953e-02 -7.2430234056925034e-03
      -3.4854936578394932e-02 -2.0357982667041638e-01
      6.1632028514932671e-02 3.5260046360359440e-02
      -2.5478636708524460e-01 3.7787731554494036e-01
      -5.9913037600992036e-01 8.3998368821062486e-02
      3.7584530118395076e-01 -4.6544754226644303e-01
      1.9891803850522491e-01 9.5246226531959105e-02
      -7.4747451630080328e-02 9.0050580764876841e-03
      -2.6646203631689305e-02 -1.7558883681559403e-01
      -5.5705784291914739e-01 3.6164245730968236e-01
      3.5761082613967064e-02 -1.7128253603136534e-01
      -3.2026118489736954e-01 2.9590025462366409e-01
      -4.0217395000683921e-02 2.3185215762383976e-01
      -8.1065568308444205e-02 2.6223120049250481e-01
      3.5142070431222680e-03 -1.5001440321587545e-01
      1.6921378198984660e-01 6.7124468119798303e-02
      -2.0264796366361762e-01 4.9031031138326624e-02
      7.5040497402764653e-02 4.9595107133280365e-02
      -1.7503675508776048e-01 -2.4141266441844778e-01
      -9.0261824568800719e-02 1.8487082025939017e-01
      2.7523098719817890e-01 -1.4324749286978014e-01
      -3.3198132287873154e-02 1.8477327999358265e-01
      4.3977948681030055e-01 -1.6515828928063700e-01
      5.6283104979654823e-02 -4.5556896051806439e-01
      1.2057304701154201e-01 -3.3139038340670240e-01
      -2.9449444224952052e-02 3.2172848911358692e-01
      -3.9145489424060820e-02 -5.3780824953130767e-02
      1.9535772453634134e-01 3.2149516662500033e-01
      3.2895076974256499e-01 -1.5480717768411026e-01
      -4.4249184127437452e-01 5.4722267664417533e-02
      -2.2077017369632762e-01 -2.8704268657491661e-01
      -8.0985736419829424e-01 -2.5540833969652160e-02
      -6.2384112133016855e-03 -4.5286478398800364e-03
      -2.1841757942141649e-01 3.3839149581104726e-02
      -1.3267926283058831e-01 3.9412658235982785e-02
      -2.8093986311890368e-01 5.6827878143367372e-01
      -7.2185507408008043e-01 -6.0318489678485548e-02
      -3.2849781575722903e-01 -1.9373989466566968e-01
      2.2454418524470537e-01 1.7956442950280765e-01
      -2.4047000145639455e-01 6.8611977505078733e-02
      -1.1811426468163845e-01 -1.4567374876882866e-02
      -5.0997809965573249e-01 3.0812332486161476e-01
      -2.8635969055766649e-02 -9.8113084249558599e-02
      4.9414887263159755e-02 3.5317548972543716e-01
      7.4760439715620852e-02 4.0044649442052288e-01
      4.7596359500453296e-03 4.5354124661056795e-02
      3.1447322490605983e-01 -2.6975499640863015e-01
      -4.3725118963495214e-02 3.1013963226123437e-01
      -3.1682395442682010e-01 1.0971271075517096e-01
      4.8103631793647482e-02 -5.1567919141342608e-02
      -1.1842212713176520e-01 -2.1979884259536528e-01
      -5.1314182595961738e-02 1.0392676163536216e-01
      6.2397769297608534e-02 -2.1682063692491982e-01
      6.1079817828315966e-02 1.5236666667995916e-01
      -3.7748322627461545e-01 -1.0297462809395361e-01
      1.5159460743231509e-01 -7.9700883758510963e-02
      2.3526467435380541e-01 8.8998345606826373e-02
      1.1844962655529373e-01 -3.1408164295173790e-01
      -8.5980882781897680e-02 -3.0018312757990451e-01
      1.1594668647021651e-01 4.0291079505925760e-02
      7.8572645482479747e-02 6.9766765968670777e-02
      -7.6127242165270537e-01 1.8723389092986577e-02
      -3.2070883590864734e-02 -9.4252384556171048e-02
      -4.3125132135019228e-01 -4.1718939344344119e-02
      -2.6306357327126012e-01 -2.0640315383368130e-01
      9.4559063271736993e-02 3.5961437421513108e-02
      -2.5242601467688186e-01 7.3661729045605501e-02
      -1.9666421665860970e-01 6.3588477645407537e-02
      -9.9091749956905478e-02 1.6303897724325708e-02
      -9.7394996020022009e-02 -1.8753401858768329e-01
      -1.1163128148180504e-01 1.7204868932659867e-01
      -3.0462237922261409e-01 2.6233178844158223e-01
      -4.4643355373680742e-02 3.6248380807648507e-02
      -8.3280909776933865e-02 -3.7054598364225443e-02
