<?xml version="1.0"?>
<opencv_storage>
<opencv_ml_ann_mlp>
  <format>3</format>
  <layer_sizes>
    900 128 128 128 13</layer_sizes>
  <activation_function>SIGMOID_SYM</activation_function>
  <f_param1>1.</f_param1>
  <f_param2>1.</f_param2>
  <min_val>-9.4999999999999996e-01</min_val>
  <max_val>9.4999999999999996e-01</max_val>
  <min_val1>-9.7999999999999998e-01</min_val1>
  <max_val1>9.7999999999999998e-01</max_val1>
  <training_params>
    <train_method>BACKPROP</train_method>
    <dw_scale>1.0000000000000000e-03</dw_scale>
    <moment_scale>1.0000000000000001e-01</moment_scale>
    <term_criteria>
      <epsilon>1.0000000000000000e-04</epsilon>
      <iterations>10000</iterations></term_criteria></training_params>
  <input_scale>
    1.2495194156093811e-02 -2.8333333333333335e+00
    8.2149302892873446e-03 -1.3589390451624950e+00
    8.2176857066027648e-03 -1.3604694752115747e+00
    8.4085783427958038e-03 -1.4585972763016675e+00
    8.7002886649712886e-03 -1.5894088884954087e+00
    9.0472146310870156e-03 -1.7285051522485249e+00
    9.2612887842252328e-03 -1.8087653199006659e+00
    9.5477232945197100e-03 -1.9115276475881884e+00
    9.6022916416065029e-03 -1.9306145983268461e+00
    9.4826679151188541e-03 -1.8885827306949405e+00
    9.5895593757046559e-03 -1.9261736493723074e+00
    9.7298699708008897e-03 -1.9747145331508513e+00
    9.3703630927508622e-03 -1.8484482794773038e+00
    9.0751670676568839e-03 -1.7391859595389982e+00
    8.8358139817925514e-03 -1.6453644990094929e+00
    8.6721136745779668e-03 -1.5774574774057322e+00
    8.6491467093287987e-03 -1.5676245751169626e+00
    8.8044148850731242e-03 -1.6326094247659442e+00
    8.8226388726559395e-03 -1.6400267667474393e+00
    8.8044148850731242e-03 -1.6326094247659442e+00
    8.9205313352774263e-03 -1.6792214043941656e+00
    9.1164672808877242e-03 -1.7548498248994955e+00
    9.2229950923556955e-03 -1.7946529527402282e+00
    9.0107374326700990e-03 -1.7144660799776530e+00
    8.9065059896785183e-03 -1.6736694986296656e+00
    8.7315860692162867e-03 -1.6025482909112769e+00
    8.7737639258081545e-03 -1.6200417636546072e+00
    8.9547774642432989e-03 -1.6926940309044824e+00
    8.5850898212587630e-03 -1.5397358594427590e+00
    1.0151384400048416e-02 -2.1160170344039382e+00
    1.9538853147823530e-02 -4.7728909274021847e+00
    1.3846354103909988e-02 -3.2202891781128193e+00
    1.1680430461569186e-02 -2.5928309388056365e+00
    9.3258982066429155e-03 -1.8323596534090512e+00
    7.9523056281539228e-03 -1.1813455868531428e+00
    7.8664452921850779e-03 -1.0801234497346435e+00
    7.8436364581704401e-03 -1.0113464177834839e+00
    7.8565746559795899e-03 -9.4315156985551907e-01
    7.8652135879818535e-03 -9.2773219352395186e-01
    7.8949320167026240e-03 -8.9148965030143201e-01
    7.9052680697086364e-03 -8.8180224829880716e-01
    7.9063031697441388e-03 -8.8088380854287773e-01
    7.8447878770242317e-03 -9.7969331679606464e-01
    7.8435095854959957e-03 -1.0097915244434903e+00
    7.8447063530980941e-03 -1.0202040612204073e+00
    7.8479104010644053e-03 -1.0355015931496749e+00
    7.8608957534071523e-03 -1.0695958041087876e+00
    7.8549714908985185e-03 -1.0564634540970397e+00
    7.8467297230529701e-03 -1.0307283085824157e+00
    7.8443297249166950e-03 -1.0175905883153473e+00
    7.8432620467833048e-03 -1.0056570263600577e+00
    7.8460358198466727e-03 -9.7318003520859742e-01
    7.8516915344411901e-03 -1.0478082352711768e+00
    8.0188693109189517e-03 -1.2352759755420226e+00
    8.5348299783493779e-03 -1.5173286388047820e+00
    8.8464499480860534e-03 -1.6496587664730931e+00
    9.5067973363685051e-03 -1.8971179730774752e+00
    9.8371827376279829e-03 -2.0112876813444842e+00
    9.1923135888287606e-03 -1.7832734811805149e+00
    1.1084975903594247e-02 -2.4120907566221081e+00
    1.7572772017607766e-02 -4.2455141318693528e+00
    1.2855036821096790e-02 -2.9376231258671761e+00
    1.1029370019700273e-02 -2.3949428584700705e+00
    9.6280120811811018e-03 -1.9395630337539329e+00
    8.3839212086167583e-03 -1.4466456045468217e+00
    7.8620007742171982e-03 -9.3300782264796789e-01
    7.9350889242508407e-03 -8.5814934758494288e-01
    7.9586308234765452e-03 -8.4248229290209597e-01
    7.9795310741342506e-03 -8.3008606523888107e-01
    7.9313364539597732e-03 -8.6085505665671069e-01
    7.8551942379291983e-03 -9.4606750910198045e-01
    7.8982696445475085e-03 -1.1258072039497333e+00
    8.1306797391046213e-03 -1.3099150496600553e+00
    8.4067933893386699e-03 -1.4577379737113254e+00
    8.5596561886403955e-03 -1.5284582995000293e+00
    8.8121937732332702e-03 -1.6357804156829128e+00
    8.8571719440534366e-03 -1.6539746624141634e+00
    8.9461376442214087e-03 -1.6893060530026702e+00
    8.8278930168675818e-03 -1.6421578683107716e+00
    8.4376423582648071e-03 -1.4724659489290350e+00
    8.3839212086167583e-03 -1.4466456045468217e+00
    8.5105979974351327e-03 -1.5063431124767976e+00
    8.5513139558831743e-03 -1.5247321680030312e+00
    8.2560990518015156e-03 -1.3814041425020049e+00
    8.4321199168817598e-03 -1.4698482264342887e+00
    8.5006736843986613e-03 -1.5018074808429542e+00
    8.8226388726559395e-03 -1.6400267667474393e+00
    9.0564748108176597e-03 -1.7320508075688774e+00
    9.3077035915910614e-03 -1.8257418583505545e+00
    1.1327885253980111e-02 -2.4864272444591959e+00
    1.9260539586075879e-02 -4.6986086320232108e+00
    1.5166206853729594e-02 -3.5887328625461761e+00
    1.3350227557966344e-02 -3.0795894154484214e+00
    1.0190475210469030e-02 -2.1288294656024052e+00
    8.6199699957817712e-03 -1.5550094335082785e+00
    7.8435498127505925e-03 -9.8979565137056513e-01
    7.9764310981554291e-03 -8.3184972779417099e-01
    8.1167078189209544e-03 -7.6846492180983927e-01
    7.8872718165470604e-03 -8.9939167237302797e-01
    7.8431372549019607e-03 -1. 8.0031629294592399e-03
    -1.2234373607472575e+00 8.8652703506892205e-03
    -1.6572259032867238e+00 9.2058786050360619e-03
    -1.7883127334790629e+00 9.6280120811811018e-03
    -1.9395630337539329e+00 9.7253307024742670e-03
    -1.9731573841777694e+00 9.7527215269408267e-03
    -1.9825407340900136e+00 9.4906760110273561e-03
    -1.8914187237976674e+00 9.2897007366763134e-03
    -1.8191735115687480e+00 9.1688452797723374e-03
    -1.7745242095313232e+00 8.8411212578929851e-03
    -1.6475089420958273e+00 8.5808081249373162e-03
    -1.5378458315296313e+00 8.7242910354952651e-03
    -1.5994980964614933e+00 8.8518001455340778e-03
    -1.6518139979270092e+00 8.8200197161186471e-03
    -1.6389632021713703e+00 8.5451012717522642e-03
    -1.5219482680473224e+00 8.5765436167011683e-03
    -1.5359600016325250e+00 8.7587131196643405e-03
    -1.6138265796563074e+00 8.9490117410722034e-03
    -1.6904338986126120e+00 9.2298920006456484e-03
    -1.7972019708641791e+00 1.1489678757093561e-02
    -2.5354627641855503e+00 2.0327231476843784e-02
    -4.9827517065910962e+00 1.5528735652761173e-02
    -3.6887317025007031e+00 1.3720698711085494e-02
    -3.1847852585154213e+00 1.0123869293096303e-02
    -2.1069718896874385e+00 8.4469221200078812e-03
    -1.4768468681973779e+00 7.8474981878243547e-03
    -9.6720415164935170e-01 8.1880439616302120e-03
    -7.4416722620508424e-01 8.1042511431008019e-03
    -7.7311438885511230e-01 7.8547508346176863e-03
    -9.4704126601382788e-01 7.9382788656269607e-03
    -1.1683619898113344e+00 8.5808081249373162e-03
    -1.5378458315296313e+00 9.4588515410864941e-03
    -1.8801286447821155e+00 9.9152643260426755e-03
    -2.0376249546337930e+00 1.0241735438625379e-02
    -2.1455647918117200e+00 1.0414985204544669e-02
    -2.2016076993345370e+00 1.0390325284461630e-02
    -2.1936774070767395e+00 1.0259077941964649e-02
    -2.1512102704537335e+00 1.0038028111418821e-02
    -2.0786053672718379e+00 9.5518655148052311e-03
    -1.9129814970054739e+00 9.0258275559305153e-03
    -1.7202880174389872e+00 9.0319069174702189e-03
    -1.7226278158862718e+00 8.9432693727757463e-03
    -1.6881796828710034e+00 8.4947671830068010e-03
    -1.4990977025303887e+00 8.5368759543505632e-03
    -1.5182505543429616e+00 8.8070026380731876e-03
    -1.6336651162755067e+00 8.6199699957817712e-03
    -1.5550094335082785e+00 8.5850898212587630e-03
    -1.5397358594427590e+00 9.0972681234870404e-03
    -1.7475852065218604e+00 9.4707209264176702e-03
    -1.8843456317096634e+00 1.1310450755221522e-02
    -2.4811213800925365e+00 2.1152678069356758e-02
    -5.2016876066171660e+00 1.5806229349992200e-02
    -3.7649830379783342e+00 1.3864633750179623e-02
    -3.2254470654360179e+00 9.7162829570492191e-03
    -1.9700511101798603e+00 8.1986536886170611e-03
    -1.3498137299805459e+00 7.8912488071033078e-03
    -8.9520147525196947e-01 8.2694153229916322e-03
    -7.2020246374547126e-01 8.0135443785990575e-03
    -8.1214190144648135e-01 7.8440656016241454e-03
    -1.0155048005794951e+00 8.0867225863290402e-03
    -1.2822120716208258e+00 8.8598659732126977e-03
    -1.6550570402037212e+00 9.6716520370408576e-03
    -1.9546780753476383e+00 1.0123869293096303e-02
    -2.1069718896874385e+00 1.0490505747118241e-02
    -2.2258028828452994e+00 1.0477755682706428e-02
    -2.2217274943972618e+00 1.0371994953673695e-02
    -2.1877728740360491e+00 1.0230245398325479e-02
    -2.1418199154324968e+00 1.0048578243822126e-02
    -2.0821040604978052e+00 9.6804979924276866e-03
    -1.9577317882301546e+00 9.5027538013493298e-03
    -1.8956897362099450e+00 9.3077035915910614e-03
    -1.8257418583505545e+00 8.9149041631485966e-03
    -1.6769963373670564e+00 8.5701789418813797e-03
    -1.5331390882491798e+00 8.4544145165918339e-03
    -1.4803679818552300e+00 8.5451012717522642e-03
    -1.5219482680473224e+00 8.7122297140027321e-03
    -1.5944385633899694e+00 8.6045718973705859e-03
    -1.5482934294099442e+00 9.0783049057786263e-03
    -1.7403808835524224e+00 9.4866676030875910e-03
    -1.8899995968166696e+00 1.1045143162219752e-02
    -2.3998122399113693e+00 2.1376183307821386e-02
    -5.2608431442341343e+00 1.5610273992125830e-02
    -3.7111625230818532e+00 1.2169584413924170e-02
    -2.7380160748512390e+00 9.4746946011439858e-03
    -1.8857557546923038e+00 8.0647590800271354e-03
    -1.2676560541636499e+00 7.9099958721169650e-03
    -8.7767488813347050e-01 8.1598446433148453e-03
    -7.5334196468511361e-01 7.9536948661280658e-03
    -8.4560012880581537e-01 7.8939981127027232e-03
    -1.1205530320981514e+00 8.0813866506398418e-03
    -1.2787240261820119e+00 8.8044148850731242e-03
    -1.6326094247659442e+00 9.5643470403411410e-03
    -1.9173572939871575e+00 1.0001497377673967e-02
    -2.0664632274178674e+00 1.0224521715448853e-02
    -2.1399530699599243e+00 1.0207435417555951e-02
    -2.1343747458109492e+00 1.0190475210469030e-02
    -2.1288294656024052e+00 9.9808944199192198e-03
    -2.0595959516057922e+00 9.9604858593434105e-03
    -2.0527795164886817e+00 9.7711909423481309e-03
    -1.9888507533077133e+00 9.6194004288601073e-03
    -1.9365702947993253e+00 9.2932860880295155e-03
    -1.8204832578289203e+00 9.2932860880295155e-03
    -1.8204832578289203e+00 9.0877572369712795e-03
    -1.7439755666872385e+00 8.8491223525550677e-03
    -1.6507357046972053e+00 8.4811243657208005e-03
    -1.4928083672032566e+00 8.7267178402004059e-03
    -1.6005136161921398e+00 8.8226388726559395e-03
    -1.6400267667474393e+00 9.3222438206711309e-03
    -1.8310321055155128e+00 1.0091289618327490e-02
    -2.0962325422932668e+00 1.2444923757262869e-02
    -2.8186795008372916e+00 2.1300854892981138e-02
    -5.2409114936880634e+00 1.3864633750179623e-02
    -3.2254470654360179e+00 1.0781589963676709e-02
    -2.3178759715756665e+00 8.5575643229800942e-03
    -1.5275252316519468e+00 8.0224693158085329e-03
    -1.2379287267316861e+00 7.8724080879366918e-03
    -9.1725665621520824e-01 7.9914991602537382e-03
    -8.2349325192891598e-01 7.8504243443118828e-03
    -9.5781215788562135e-01 7.9143496019098477e-03
    -1.1441409941807132e+00 8.1724863289324053e-03
    -1.3348184786324750e+00 8.8598659732126977e-03
    -1.6550570402037212e+00 9.6022916416065029e-03
    -1.9306145983268461e+00 9.6849359074260323e-03
    -1.9592625340722865e+00 1.0006678792976160e-02
    -2.0681880703775382e+00 9.9911714390289157e-03
    -2.0630231918296400e+00 9.9102984478163861e-03
    -2.0359564665064016e+00 9.7898298661587453e-03
    -1.9952049799149454e+00 9.9152643260426755e-03
    -2.0376249546337930e+00 9.7208017082950193e-03
    -1.9716029126354981e+00 9.3040877608257157e-03
    -1.8244242550391441e+00 9.4746946011439858e-03
    -1.8857557546923038e+00 1.0529156804961633e-02
    -2.2381342659223638e+00 9.6497100327392216e-03
    -1.9470887989906349e+00 8.9928314030145538e-03
    -1.7075311565539326e+00 8.5307503977886754e-03
    -1.5154878081671583e+00 8.5348299783493779e-03
    -1.5173286388047820e+00 8.9722158367770144e-03
    -1.6995102220978124e+00 1.0069831073668788e-02
    -2.0891413767106464e+00 1.0503322285415718e-02
    -2.2298957185871626e+00 1.3071895424836602e-02 -3.
    2.2894051777200639e-02 -5.6613467883205306e+00
    1.3846354103909988e-02 -3.2202891781128193e+00
    9.6323323206513219e-03 -1.9410631523392514e+00
    8.3718580760158041e-03 -1.4407323759740427e+00
    8.0048684404679018e-03 -1.2247448713915889e+00
    7.8536788962130667e-03 -9.4947957209486666e-01
    7.8890176349727913e-03 -8.9752746785575066e-01
    7.8431743824425356e-03 -1.0030816714037663e+00
    8.0279447817963104e-03 -1.2419230577438891e+00
    8.1724863289324053e-03 -1.3348184786324750e+00
    8.8544833387706173e-03 -1.6528936494124304e+00
    9.6497100327392216e-03 -1.9470887989906349e+00
    9.5353511311919194e-03 -1.9071802495206669e+00
    9.5560168616274609e-03 -1.9144377164940429e+00
    9.5271481771600011e-03 -1.9042937062262619e+00
    9.6108270237468731e-03 -1.9335875030199043e+00
    9.6497100327392216e-03 -1.9470887989906349e+00
    9.6497100327392216e-03 -1.9470887989906349e+00
    9.5643470403411410e-03 -1.9173572939871575e+00
    9.7208017082950193e-03 -1.9716029126354981e+00
    1.0173639779721976e-02 -2.1233168807955125e+00
    1.0353804001648599e-02 -2.1819049040551093e+00
    1.0075176315585523e-02 -2.0909090909090908e+00
    9.1196903226344415e-03 -1.7560665230872821e+00
    8.5327881286536809e-03 -1.5164077241252767e+00
    8.6221874405809779e-03 -1.5559732104309980e+00
    8.8706965666762155e-03 -1.6594002650516579e+00
    1.0300052362183223e-02 -2.1645163883267959e+00
    1.0951842482414407e-02 -2.3709475300294605e+00
    1.3774063647528340e-02 -3.1998739168244588e+00
    1.9712139139802524e-02 -4.8190873082433381e+00
    1.2457422058794864e-02 -2.8223247937435056e+00
    9.2024767241313307e-03 -1.7870501915438111e+00
    8.3205047901178976e-03 -1.4150298473255503e+00
    8.0040144525969810e-03 -1.2240908718408223e+00
    7.8441935330122309e-03 -9.8372220898998763e-01
    7.8483412798180004e-03 -9.6422909808163992e-01
    7.8469775902479215e-03 -1.0317870110684835e+00
    8.0429924724319899e-03 -1.2526651429948501e+00
    8.2330608009020534e-03 -1.3689363518607565e+00
    8.8518001455340778e-03 -1.6518139979270092e+00
    9.6804979924276866e-03 -1.9577317882301546e+00
    9.4746946011439858e-03 -1.8857557546923038e+00
    9.3077035915910614e-03 -1.8257418583505545e+00
    9.4353429957088984e-03 -1.8717543116641291e+00
    9.4470591109128629e-03 -1.8759315955281546e+00
    9.3703630927508622e-03 -1.8484482794773038e+00
    9.6716520370408576e-03 -1.9546780753476383e+00
    9.6497100327392216e-03 -1.9470887989906349e+00
    1.0184849600525049e-02 -2.1269883215742658e+00
    1.0477755682706428e-02 -2.2217274943972618e+00
    1.0317834188122228e-02 -2.1702770535162172e+00
    9.9554137960197811e-03 -2.0510832723515064e+00
    9.2024767241313307e-03 -1.7870501915438111e+00
    8.3701490464420415e-03 -1.4398909861546663e+00
    8.7992549528691892e-03 -1.6305019427666609e+00
    9.0380112048007617e-03 -1.7249739615993391e+00
    1.0151384400048416e-02 -2.1160170344039382e+00
    1.2239246563763516e-02 -2.7584908053460704e+00
    1.4208661449638007e-02 -3.3222036417168987e+00
    1.7107781713304113e-02 -4.1197512340449380e+00
    1.0555263339156113e-02 -2.2464442187392444e+00
    9.0972681234870404e-03 -1.7475852065218604e+00
    8.3109465578834335e-03 -1.4101438746193373e+00
    7.9898719559341799e-03 -1.2130469445713299e+00
    7.8442605963211058e-03 -1.0170687267791569e+00
    7.8431372549019607e-03 -1. 7.8522658511749003e-03
    -1.0494251299870210e+00 8.0335112671374997e-03
    -1.2459358012925097e+00 8.2814713681775426e-03
    -1.3948545929047345e+00 8.8464499480860534e-03
    -1.6496587664730931e+00 9.6983097619598880e-03
    -1.9638704256054851e+00 9.4987190853870369e-03
    -1.8942637868358381e+00 9.3295603652609176e-03
    -1.8336892068675517e+00 9.2577708539647793e-03
    -1.8074729388036928e+00 9.3854397573074188e-03
    -1.8538770369847581e+00 9.3930266888689936e-03
    -1.8566039791064095e+00 9.7804890845298344e-03
    -1.9920223056587592e+00 9.8133701149728091e-03
    -2.0032107903156420e+00 9.8564318376250064e-03
    -2.0178011439279468e+00 1.0259077941964649e-02
    -2.1512102704537335e+00 1.0080534457859929e-02
    -2.0926801821653447e+00 9.3516977091141432e-03
    -1.8417089596056944e+00 8.8147971776540053e-03
    -1.6368400297582129e+00 8.3285631438748467e-03
    -1.4191230938459365e+00 8.7146323175017245e-03
    -1.5954480704349310e+00 9.2229950923556955e-03
    -1.7946529527402282e+00 9.8276247301011636e-03
    -2.0080483222562471e+00 1.2310405987334742e-02
    -2.7793582379328332e+00 1.5834897619473230e-02
    -3.7728470681966448e+00 1.5528735652761173e-02
    -3.6887317025007031e+00 1.0134835111857601e-02
    -2.1105794120443453e+00 8.9780760571193993e-03
    -1.7017943166269822e+00 8.3961606258253704e-03
    -1.4526003741187570e+00 7.9441654963454209e-03
    -1.1739032244984273e+00 7.8580304793374311e-03
    -1.0635542021841700e+00 7.8431630378603071e-03
    -9.9743917633404244e-01 7.8522658511749003e-03
    -1.0494251299870210e+00 8.0179755758457514e-03
    -1.2346140468422486e+00 8.2358966028304934e-03
    -1.3704848712363897e+00 8.7788212687602337e-03
    -1.6221235822837661e+00 9.6938417619995849e-03
    -1.9623318446829314e+00 9.7389794554502366e-03
    -1.9778368969487823e+00 9.4121371888357640e-03
    -1.8634583612788838e+00 9.1261564231734406e-03
    -1.7585050409406391e+00 9.4667558742209321e-03
    -1.8829377433825434e+00 9.8039215686274508e-03 -2.
    9.8276247301011636e-03 -2.0080483222562471e+00
    9.9102984478163861e-03 -2.0359564665064016e+00
    9.7208017082950193e-03 -1.9716029126354981e+00
    9.8467850133835497e-03 -2.0145385969881198e+00
    9.6983097619598880e-03 -1.9638704256054851e+00
    8.9987757521797114e-03 -1.7098366142660850e+00
    8.5026505136502253e-03 -1.5027126682797749e+00
    8.3961606258253704e-03 -1.4526003741187570e+00
    8.6582782802240386e-03 -1.5715441100012801e+00
    9.2472613512875335e-03 -1.8036071937890081e+00
    9.7389794554502366e-03 -1.9778368969487823e+00
    1.1462086520063261e-02 -2.5271255679850246e+00
    1.5610273992125830e-02 -3.7111625230818532e+00
    1.3633335751068617e-02 -3.1600499193775007e+00
    9.9604858593434105e-03 -2.0527795164886817e+00
    8.9605666492783512e-03 -1.6949601091467639e+00
    8.4581837205396828e-03 -1.4821340396453382e+00
    7.9703458695598289e-03 -1.1970539840786221e+00
    7.8802383994711223e-03 -1.1021119573844940e+00
    7.8433394001133899e-03 -9.9284610129435347e-01
    7.8500810155859354e-03 -1.0429738407784637e+00
    7.9787524840817473e-03 -1.2040551248670441e+00
    8.1201631436468025e-03 -1.3034423415388434e+00
    8.7463084343982634e-03 -1.6086815986206131e+00
    9.5477232945197100e-03 -1.9115276475881884e+00
    9.8758602655804658e-03 -2.0243614340542728e+00
    9.6108270237468731e-03 -1.9335875030199043e+00
    9.4667558742209321e-03 -1.8829377433825434e+00
    9.6760700455864272e-03 -1.9562036379854038e+00
    9.9053441782218019e-03 -2.0342910118634983e+00
    9.6194004288601073e-03 -1.9365702947993253e+00
    9.3258982066429155e-03 -1.8323596534090512e+00
    9.3741201639542873e-03 -1.8498023428147641e+00
    9.5477232945197100e-03 -1.9115276475881884e+00
    8.8843582827845963e-03 -1.6648604009762735e+00
    8.3566041965520074e-03 -1.4331897604940407e+00
    8.2176857066027648e-03 -1.3604694752115747e+00
    8.4600740969358618e-03 -1.4830184504463300e+00
    8.6559885171986119e-03 -1.5705625319186327e+00
    9.0845999747764423e-03 -1.7427756828534591e+00
    9.7298699708008897e-03 -1.9747145331508513e+00
    1.0621747450502511e-02 -2.2675388163082379e+00
    1.4392113313894154e-02 -3.3735667150587663e+00
    1.1389745976224828e-02 -2.5052184341859438e+00
    1.0022297313010121e-02 -2.0733820302776476e+00
    8.9490117410722034e-03 -1.6904338986126120e+00
    8.4157550248374364e-03 -1.4620432258341620e+00
    7.9997814394894996e-03 -1.2208281844464013e+00
    7.8763918708852857e-03 -1.0964240422421196e+00
    7.8438345156274254e-03 -9.8675438206593014e-01
    7.8460358198466727e-03 -1.0275590988523040e+00
    7.8899035774626942e-03 -1.1153289080233226e+00
    7.9956097666082811e-03 -1.2175776057281604e+00
    8.3874001094363486e-03 -1.4483427027437068e+00
    8.8437829204205606e-03 -1.6485831800154744e+00
    9.0472146310870156e-03 -1.7285051522485249e+00
    9.0107374326700990e-03 -1.7144660799776530e+00
    9.0047443907990462e-03 -1.7121482450136218e+00
    8.8544833387706173e-03 -1.6528936494124304e+00
    8.8571719440534366e-03 -1.6539746624141634e+00
    8.6514227407119351e-03 -1.5686027669996205e+00
    8.3189033080770299e-03 -1.4142135623730951e+00
    8.2921917459967097e-03 -1.4004555067633135e+00
    8.2679228896595965e-03 -1.3877072576225196e+00
    8.1259777155131326e-03 -1.3070322617798431e+00
    8.1009115368956882e-03 -1.2913476136853028e+00
    8.0845801668634754e-03 -1.2808151602048978e+00
    8.2401737453018497e-03 -1.3728129459672882e+00
    8.6837709585837145e-03 -1.5824168624874531e+00
    8.9839601750972952e-03 -1.7040844767510512e+00
    9.6893838205747047e-03 -1.9607958835366850e+00
    1.0458754135498858e-02 -2.2156468376279888e+00
    1.3042222372288793e-02 -2.9914845130531322e+00
    1.0471405422200908e-02 -2.2196963016891571e+00
    9.8807456605057593e-03 -2.0260088948187809e+00
    8.9663794039411843e-03 -1.6972321629421747e+00
    8.3787298247217177e-03 -1.4441063111747292e+00
    7.9673603654828173e-03 -1.1945218246418683e+00
    7.8582804563328505e-03 -1.0641018462542720e+00
    7.8563393531105759e-03 -9.4363700637803916e-01
    7.8462588400864744e-03 -9.7218164820532993e-01
    7.8494193041709383e-03 -9.6076892283052284e-01
    7.8524614580737524e-03 -9.5241296953982990e-01
    7.8545322685602634e-03 -1.0553772492390492e+00
    7.8834704909009953e-03 -1.1066876517207516e+00
    7.9022158368360299e-03 -1.1305031548728961e+00
    7.9012160815075758e-03 -1.1293268923884021e+00
    7.9160190956785170e-03 -1.1459351027813385e+00
    7.8881403841891146e-03 -1.1130166082090840e+00
    7.9294909892654725e-03 -1.1598100493491410e+00
    7.9441654963454209e-03 -1.1739032244984273e+00
    7.9350889242508407e-03 -1.1652983280990215e+00
    7.9382788656269607e-03 -1.1683619898113344e+00
    8.0023138688113619e-03 -1.2227843372846408e+00
    7.9748954743752119e-03 -1.2008658950663995e+00
    7.8973050763662747e-03 -1.1246369913751451e+00
    7.9325781498087826e-03 -1.1628549369300458e+00
    8.0497820066308765e-03 -1.2574069101357683e+00
    8.3944012688198875e-03 -1.4517471271249469e+00
    8.5659571242886548e-03 -1.5312636739334158e+00
    9.0319069174702189e-03 -1.7226278158862718e+00
    9.9302319880776382e-03 -2.0426487199475702e+00
    1.1371936715991389e-02 -2.4998141194837378e+00
    1.0655658059827409e-02 -2.2782616597915601e+00
    9.5518655148052311e-03 -1.9129814970054739e+00
    8.9722158367770144e-03 -1.6995102220978124e+00
    8.3301850397606205e-03 -1.4199441183736574e+00
    7.9468417667962563e-03 -1.1763770996940550e+00
    7.8658252065971282e-03 -1.0790096993018969e+00
    7.8522658511749003e-03 -9.5290266206257868e-01
    7.8448714674862665e-03 -1.0212514021538757e+00
    7.8625659273299665e-03 -1.0729076020605379e+00
    7.8877050155071651e-03 -1.1124394431293547e+00
    8.0537186001272808e-03 -1.2601281783529918e+00
    8.3077874038758725e-03 -1.4085214482702013e+00
    8.2575658327630006e-03 -1.3821894809301760e+00
    8.4085783427958038e-03 -1.4585972763016675e+00
    8.3718580760158041e-03 -1.4407323759740427e+00
    8.2344771421231748e-03 -1.3697102593943964e+00
    8.1973169748601263e-03 -1.3490576770664997e+00
    8.0668004964648127e-03 -1.2690318227169375e+00
    8.0835129826880413e-03 -1.2801175521122978e+00
    8.1402190111801911e-03 -1.3157098604839859e+00
    8.0943059052162886e-03 -1.2871191667125470e+00
    8.0006231260505174e-03 -1.2214797499560588e+00
    7.9572088426032219e-03 -1.1857159314960639e+00
    7.9461692281351439e-03 -1.1757579860599503e+00
    7.9718528757933265e-03 -1.1983227920947328e+00
    8.2135571729449082e-03 -1.3581748597554633e+00
    8.4302866341178662e-03 -1.4689774459950382e+00
    8.9869112303341027e-03 -1.7052318409127023e+00
    1.0247501896661912e-02 -2.1474428493831703e+00
    1.1443833786345767e-02 -2.5216047600759577e+00
    1.1149922625367218e-02 -2.4320554304993296e+00
    9.5230601692500912e-03 -1.9028539304341565e+00
    8.8491223525550677e-03 -1.6507357046972053e+00
    8.3633483882647949e-03 -1.4365337525827595e+00
    7.9415261873883019e-03 -1.1714362013027544e+00
    7.8608957534071523e-03 -1.0695958041087876e+00
    7.8509549378320276e-03 -9.5633689936953137e-01
    7.8686823560011956e-03 -1.0840320511907955e+00
    7.9795310741342489e-03 -1.2046943586653525e+00
    8.1201631436468025e-03 -1.3034423415388434e+00
    8.4753365723575953e-03 -1.4901271566622412e+00
    8.9928314030145538e-03 -1.7075311565539326e+00
    9.2825527237141072e-03 -1.8165598659049902e+00
    9.4006462558038212e-03 -1.8593393604027366e+00
    9.5601773613230509e-03 -1.9158963131220677e+00
    9.5027538013493298e-03 -1.8956897362099450e+00
    9.4237025631866214e-03 -1.8675966229742964e+00
    9.3930266888689936e-03 -1.8566039791064095e+00
    9.3968323817802506e-03 -1.8579706118559967e+00
    8.9958005484952717e-03 -1.7086831157209190e+00
    8.5368759543505632e-03 -1.5182505543429616e+00
    8.1511680460347822e-03 -1.3222762102984962e+00
    8.0161956084075850e-03 -1.2332916943535068e+00
    7.9964392071725735e-03 -1.2182267576773294e+00
    7.9529990808770937e-03 -1.1819686057083529e+00
    8.0429924724319899e-03 -1.2526651429948501e+00
    8.3383459337242147e-03 -1.4240612032349618e+00
    8.9149041631485966e-03 -1.6769963373670564e+00
    1.0503322285415718e-02 -2.2298957185871626e+00
    1.1873384544562394e-02 -2.6504134315281238e+00
    1.1621928308556165e-02 -2.5752852140032552e+00
    9.6151089594627270e-03 -1.9350776592801795e+00
    8.8953873842173119e-03 -1.6692536556767794e+00
    8.3062128521855186e-03 -1.4077113966103949e+00
    7.9435022081698684e-03 -1.1732858280782594e+00
    7.8463734551075907e-03 -1.0291424137156888e+00
    7.8563393531105759e-03 -9.4363700637803916e-01
    7.8683564108345868e-03 -1.0834726777719226e+00
    8.0401212559287234e-03 -1.2506408613597131e+00
    8.2829930169507227e-03 -1.3956524656907470e+00
    8.8598659732126977e-03 -1.6550570402037212e+00
    9.4667558742209321e-03 -1.8829377433825434e+00
    9.9102984478163861e-03 -2.0359564665064016e+00
    9.7665577787895835e-03 -1.9872691258810928e+00
    9.7804890845298344e-03 -1.9920223056587592e+00
    9.9053441782218019e-03 -2.0342910118634983e+00
    9.5353511311919194e-03 -1.9071802495206669e+00
    1.0032771967252318e-02 -2.0768609723902087e+00
    1.0075176315585523e-02 -2.0909090909090908e+00
    9.8661234932006566e-03 -2.0210753975821545e+00
    9.5067973363685051e-03 -1.8971179730774752e+00
    8.5850898212587630e-03 -1.5397358594427590e+00
    8.2546354567998113e-03 -1.3806195287476792e+00
    8.0954000514167589e-03 -1.2878224674101868e+00
    8.0126656182993271e-03 -1.2306529851367192e+00
    8.0597014807501314e-03 -1.2642261749593562e+00
    8.1064912304497014e-03 -1.2948872588146405e+00
    8.6045718973705859e-03 -1.5482934294099442e+00
    1.0069831073668788e-02 -2.0891413767106464e+00
    1.2395385527336608e-02 -2.8042176027613048e+00
    1.2274636000901954e-02 -2.7688746209726909e+00
    9.7389794554502366e-03 -1.9778368969487823e+00
    8.9233534766490832e-03 -1.6803361008336122e+00
    8.2488128460417205e-03 -1.3774882928824592e+00
    7.9078724383284602e-03 -1.1369999821616648e+00
    7.8435095854959957e-03 -9.9030341985798864e-01
    7.8453204249393695e-03 -9.7668204428629812e-01
    7.8954022492195419e-03 -1.1223010627948302e+00
    8.1236435123861906e-03 -1.3055944915714206e+00
    8.4014605528329404e-03 -1.4551652810604838e+00
    9.4159840120561413e-03 -1.8648356335877190e+00
    9.8856424428869806e-03 -2.0276593301412298e+00
    1.0102096906907288e-02 -2.0997985505384253e+00
    9.8276247301011636e-03 -2.0080483222562471e+00
    9.7298699708008897e-03 -1.9747145331508513e+00
    9.8086404114812002e-03 -2.0016039781229154e+00
    9.4946931635540820e-03 -1.8928401182557644e+00
    9.8758602655804658e-03 -2.0243614340542728e+00
    1.0069831073668788e-02 -2.0891413767106464e+00
    1.0017078719548198e-02 -2.0716474608801008e+00
    9.6983097619598880e-03 -1.9638704256054851e+00
    9.1293995148534219e-03 -1.7597268695630541e+00
    8.5026505136502253e-03 -1.5027126682797749e+00
    8.2080952265505980e-03 -1.3551249523064786e+00
    8.0954000514167589e-03 -1.2878224674101868e+00
    8.1098719493324315e-03 -1.2970180592197738e+00
    7.9931360921313803e-03 -1.2156330282886885e+00
    8.5554766674596650e-03 -1.5265931885902164e+00
    9.8661234932006566e-03 -2.0210753975821545e+00
    1.2482556991543563e-02 -2.8296516404791769e+00
    1.5501870682330004e-02 -3.6813365515760914e+00
    1.0069831073668788e-02 -2.0891413767106464e+00
    9.0502950316649674e-03 -1.7296854246863995e+00
    8.2488128460417205e-03 -1.3774882928824592e+00
    7.9099958721169650e-03 -1.1393740592563557e+00
    7.8431877897395409e-03 -9.9641667647264143e-01
    7.8441285348312285e-03 -1.0160258333365819e+00
    7.8894595192156650e-03 -1.1147502859900997e+00
    8.1841145876302250e-03 -1.3415337677315868e+00
    8.4928063211451958e-03 -1.4981963643294061e+00
    9.5435901745461564e-03 -1.9100761612033013e+00
    1.0542175810624612e-02 -2.2422802480898141e+00
    1.0575024265244452e-02 -2.2527242075185741e+00
    1.0190475210469030e-02 -2.1288294656024052e+00
    1.0075176315585523e-02 -2.0909090909090908e+00
    9.6849359074260323e-03 -1.9592625340722865e+00
    9.7573231035111684e-03 -1.9841141249332133e+00
    9.9302319880776382e-03 -2.0426487199475702e+00
    1.0085905544150044e-02 -2.0944546620759583e+00
    9.9102984478163861e-03 -2.0359564665064016e+00
    9.6237014600289213e-03 -1.9380654171042859e+00
    9.6983097619598880e-03 -1.9638704256054851e+00
    9.0227971855428996e-03 -1.7191204883747084e+00
    8.3432837928671278e-03 -1.4265410808150314e+00
    8.2546354567998113e-03 -1.3806195287476792e+00
    8.1098719493324315e-03 -1.2970180592197738e+00
    7.9997814394894996e-03 -1.2208281844464013e+00
    8.4431988229366952e-03 -1.4750917820502940e+00
    9.6022916416065029e-03 -1.9306145983268461e+00
    1.3012788159938678e-02 -2.9830315381102501e+00
    1.7993390891808767e-02 -4.3588989435406740e+00
    1.0588285416297426e-02 -2.2569337606584745e+00
    9.1100411326853793e-03 -1.7524215277312560e+00
    8.3062128521855186e-03 -1.4077113966103949e+00
    7.9171432864674086e-03 -1.1471331611069240e+00
    7.8667585119539425e-03 -9.2534259835033628e-01
    7.8440047332419306e-03 -9.8523716374416048e-01
    7.9099958721169650e-03 -1.1393740592563557e+00
    8.1906784365030592e-03 -1.3452874305862563e+00
    8.5389260641561687e-03 -1.5191734728833535e+00
    9.7298699708008897e-03 -1.9747145331508513e+00
    1.0967172085637010e-02 -2.3757003809044694e+00
    1.0839577524087759e-02 -2.3360123378064821e+00
    1.0522672835293128e-02 -2.2360679774997898e+00
    1.0224521715448853e-02 -2.1399530699599243e+00
    9.7435497349014251e-03 -1.9794021286452246e+00
    9.7758346999973211e-03 -1.9904351436479160e+00
    1.0201768070424064e-02 -2.1325226648441440e+00
    1.0207435417555951e-02 -2.1343747458109492e+00
    9.4121371888357640e-03 -1.8634583612788838e+00
    9.6453510341719551e-03 -1.9455785961044161e+00
    9.9004014799652044e-03 -2.0326285807713180e+00
    9.3628730095567294e-03 -1.8457463696339622e+00
    8.4014605528329404e-03 -1.4551652810604838e+00
    8.3482528209318438e-03 -1.4290282309553564e+00
    8.0410757636440733e-03 -1.2513150976809200e+00
    8.0006231260505174e-03 -1.2214797499560588e+00
    8.4032345003903879e-03 -1.4560219778561039e+00
    9.2968790291611311e-03 -1.8217949602181940e+00
    1.3270809955222373e-02 -3.0569310731854737e+00
    2.0392156862745064e-02 -4.9999999999999911e+00
    1.1926206862652862e-02 -2.6661035441460474e+00
    9.5560168616274609e-03 -1.9144377164940429e+00
    8.3667416366208936e-03 -1.4382107075596062e+00
    7.9007195087018745e-03 -1.1287393313489658e+00
    7.8673913092076522e-03 -9.2438821963455597e-01
    7.8652135879818535e-03 -9.2773219352395186e-01
    7.9194185862898059e-03 -1.1495340671022203e+00
    8.1259777155131326e-03 -1.3070322617798431e+00
    8.5829468205642113e-03 -1.5387903195914621e+00
    9.6804979924276866e-03 -1.9577317882301546e+00
    1.0929009986193819e-02 -2.3638607907061373e+00
    1.1354235767521295e-02 -2.4944382578492936e+00
    1.0990330232307870e-02 -2.3828726763679202e+00
    1.0753070577333561e-02 -2.3089324007360692e+00
    9.8516028393266127e-03 -2.0161684118483425e+00
    9.9911714390289157e-03 -2.0630231918296400e+00
    1.0059179117336598e-02 -2.0856160333779385e+00
    1.0080534457859929e-02 -2.0926801821653447e+00
    9.4082986368109918e-03 -1.8620832290448341e+00
    9.6672439370607405e-03 -1.9531550923607719e+00
    9.8086404114812002e-03 -2.0016039781229154e+00
    9.2333513100227010e-03 -1.7984792707441526e+00
    8.4284571063286077e-03 -1.4681075593515769e+00
    8.3383459337242147e-03 -1.4240612032349618e+00
    8.0497820066308765e-03 -1.2574069101357683e+00
    8.0279447817963104e-03 -1.2419230577438891e+00
    8.4753365723575953e-03 -1.4901271566622412e+00
    9.1293995148534219e-03 -1.7597268695630541e+00
    1.3057028852492908e-02 -2.9957343928375364e+00
    2.1765853916532407e-02 -5.3638598384383886e+00
    1.3302376391678033e-02 -3.0659419433511772e+00
    1.0253282714125190e-02 -2.1493246710971197e+00
    8.5409803152893069e-03 -1.5200973965757592e+00
    7.9666199174902343e-03 -1.1938899171734212e+00
    7.8480519529231223e-03 -9.6521983576393333e-01
    7.8767668685473073e-03 -9.1158428874841724e-01
    7.9063031697441388e-03 -1.1352234997418775e+00
    8.1536326619717769e-03 -1.3237422626711179e+00
    8.5980386861328195e-03 -1.5454313150732502e+00
    9.7072760591949241e-03 -1.9669554793329469e+00
    1.0753070577333561e-02 -2.3089324007360692e+00
    1.1555074372334080e-02 -2.5551824844729834e+00
    1.1894407541148417e-02 -2.6566616720368108e+00
    1.1224832627054798e-02 -2.4550004128364269e+00
    1.0974869543128386e-02 -2.3780853858491042e+00
    1.0218812190769163e-02 -2.1380899352993943e+00
    1.0235983289324636e-02 -2.1436904849500609e+00
    9.9554137960197811e-03 -2.0510832723515064e+00
    9.3479884764191851e-03 -1.8403672543941110e+00
    9.5685259252440060e-03 -1.9188206662165279e+00
    9.5353511311919194e-03 -1.9071802495206669e+00
    9.0814492029417781e-03 -1.7415774565687692e+00
    8.3449366651464456e-03 -1.4273693206630491e+00
    8.2634649072552795e-03 -1.3853381091440120e+00
    8.0888757604744288e-03 -1.2836112500054402e+00
    8.0771660494019654e-03 -1.2759437076193749e+00
    8.4888965132278622e-03 -1.4963965576702285e+00
    9.4549122122336796e-03 -1.8787274216178023e+00
    1.2310405987334742e-02 -2.7793582379328332e+00
    2.1226358151287785e-02 -5.2211942661825343e+00
    1.6579283986822072e-02 -3.9762224318549118e+00
    1.1979924256780721e-02 -2.6820285813026623e+00
    8.6537033403531801e-03 -1.5695820850937510e+00
    7.9338289690451154e-03 -1.1640757981197425e+00
    7.8462588400864744e-03 -9.7218164820532993e-01
    7.9223133000004727e-03 -8.6764565852889797e-01
    7.8595618332503656e-03 -1.0668448316118151e+00
    8.1426321604418182e-03 -1.3171647053994693e+00
    8.5307503977886754e-03 -1.5154878081671583e+00
    9.5067973363685051e-03 -1.8971179730774752e+00
    1.0717856009778932e-02 -2.2978671059734888e+00
    1.1380827744373030e-02 -2.5025127037444248e+00
    1.2067793233267914e-02 -2.7080128015453200e+00
    1.1979924256780721e-02 -2.6820285813026623e+00
    1.1700183165022372e-02 -2.5987456830649114e+00
    1.0696955403725112e-02 -2.2912878474779186e+00
    1.0477755682706428e-02 -2.2217274943972618e+00
    1.0107520210133211e-02 -2.1015867021530825e+00
    9.4353429957088984e-03 -1.8717543116641291e+00
    9.4906760110273561e-03 -1.8914187237976674e+00
    9.3295603652609176e-03 -1.8336892068675517e+00
    8.8252633024573368e-03 -1.6410916544123357e+00
    8.3237179273482828e-03 -1.4166647769349570e+00
    8.1438430037657512e-03 -1.3178930553209383e+00
    8.1648663498937318e-03 -1.3303707617188385e+00
    8.1224806013228765e-03 -1.3048765086025202e+00
    8.5492388844119697e-03 -1.5238031860823826e+00
    9.1522901471333441e-03 -1.7683280597740136e+00
    1.1480452747159392e-02 -2.5326761871983399e+00
    2.2351032559133927e-02 -5.5182980078304809e+00
    1.5395944447551529e-02 -3.6521548836430311e+00
    1.2045600005814505e-02 -2.7014574474578610e+00
    8.7098319213364996e-03 -1.5934302506549689e+00
    8.0288661941848270e-03 -1.2425905645684741e+00
    7.8516915344411901e-03 -9.5437310601132663e-01
    7.9842531009348561e-03 -8.2744499924880655e-01
    7.8518808898169687e-03 -9.5388272994522605e-01
    7.9997814394894996e-03 -1.2208281844464013e+00
    8.4229909899622007e-03 -1.4655032438958464e+00
    9.2789900225061471e-03 -1.8152559557875103e+00
    1.0402623697800487e-02 -2.1976342763426437e+00
    1.1641304268719463e-02 -2.5811010276110418e+00
    1.2001667106157592e-02 -2.6884657522955018e+00
    1.2383113422812017e-02 -2.8006316100062119e+00
    1.2650571903551074e-02 -2.8784916685156983e+00
    1.1651038803236681e-02 -2.5840211598070768e+00
    1.0760171212816460e-02 -2.3111606206912891e+00
    1.0112956678896340e-02 -2.1033783012487590e+00
    9.6760700455864272e-03 -1.9562036379854038e+00
    9.5230601692500912e-03 -1.9028539304341565e+00
    8.8734178941314978e-03 -1.6604895162348996e+00
    8.6111445923015804e-03 -1.5511652191555558e+00
    8.0845801668634754e-03 -1.2808151602048978e+00
    8.0698823803633350e-03 -1.2710995889346910e+00
    8.0921257391845629e-03 -1.2857142857142858e+00
    8.1064912304497014e-03 -1.2948872588146405e+00
    8.5893887701938929e-03 -1.5416301036965308e+00
    8.6244093399932623e-03 -1.5569380815048606e+00
    1.3756195081109042e-02 -3.1948233991449553e+00
    2.1765853916532407e-02 -5.3638598384383886e+00
    1.4900462075007833e-02 -3.5151336224333862e+00
    1.1821434491286770e-02 -2.6349522810520853e+00
    9.2368178810363910e-03 -1.7997584378973213e+00
    8.1031352075271058e-03 -1.2927617246470169e+00
    7.8487908332948338e-03 -9.6274475867476472e-01
    8.1986536886170611e-03 -7.4084296061680477e-01
    7.9703458695598306e-03 -8.3538421265913443e-01
    7.8466088963115715e-03 -9.7068587900371306e-01
    8.0040144525969810e-03 -1.2240908718408223e+00
    8.3383459337242147e-03 -1.4240612032349618e+00
    9.5895593757046559e-03 -1.9261736493723074e+00
    1.0944210153365865e-02 -2.3685796358842199e+00
    1.2001667106157592e-02 -2.6884657522955018e+00
    1.2598000301509090e-02 -2.8632347454491351e+00
    1.3447780485980984e-02 -3.1073682924490980e+00
    1.2703947435020006e-02 -2.8939592256975577e+00
    1.0745989285505403e-02 -2.3067092615897771e+00
    1.0294154813060218e-02 -2.1626039617083159e+00
    9.7162829570492191e-03 -1.9700511101798603e+00
    9.1822138390362171e-03 -1.7795130420052190e+00
    8.5307503977886754e-03 -1.5154878081671583e+00
    8.1986536886170611e-03 -1.3498137299805459e+00
    7.9914991602537400e-03 -1.2143390339357873e+00
    8.0188693109189517e-03 -1.2352759755420226e+00
    8.1236435123861906e-03 -1.3055944915714206e+00
    8.1224806013228765e-03 -1.3048765086025202e+00
    8.3367068820172710e-03 -1.4232361860465408e+00
    9.4237025631866214e-03 -1.8675966229742964e+00
    1.6925522205656299e-02 -4.0703276978110221e+00
    1.8543965096047204e-02 -4.5068254248235649e+00
    1.3318259464693684e-02 -3.0704734955102646e+00
    1.2045600005814505e-02 -2.7014574474578610e+00
    9.8709862218449209e-03 -2.0227169381825143e+00
    8.5786737263252033e-03 -1.5369023929701076e+00
    7.8439459295404287e-03 -1.0144635608720247e+00
    7.9906843432146803e-03 -8.2393175598939372e-01
    7.9382788656269607e-03 -8.5589912092354070e-01
    7.8628516669211682e-03 -9.3156647210707555e-01
    7.8551942379291983e-03 -1.0570070215699652e+00
    8.0468567361070501e-03 -1.2553715497306699e+00
    8.5166009861326660e-03 -1.5090761824274304e+00
    9.1655204828198916e-03 -1.7732814494126499e+00
    9.8371827376279829e-03 -2.0112876813444842e+00
    1.0795967291649130e-02 -2.3223786562382149e+00
    1.1166397985614709e-02 -2.4371093080449704e+00
    1.1593094879576117e-02 -2.5666220286852326e+00
    1.0509755639544274e-02 -2.2319487207426025e+00
    9.8086404114812002e-03 -2.0016039781229154e+00
    9.1522901471333441e-03 -1.7683280597740136e+00
    8.7291495147878897e-03 -1.6015303467477380e+00
    8.2190680158949047e-03 -1.3612357224325018e+00
    7.9607814011582161e-03 -1.1888508470929662e+00
    7.9307190234015543e-03 -1.1610267622605130e+00
    8.0023138688113619e-03 -1.2227843372846408e+00
    7.9593453333596850e-03 -1.1875955494705985e+00
    7.9543929856801549e-03 -1.1832159566199230e+00
    8.8331683450913190e-03 -1.6442942874387492e+00
    1.3042222372288793e-02 -2.9914845130531322e+00
    1.8641122051580791e-02 -4.5328756133349710e+00
    2.2264397242844482e-02 -5.4954526656136329e+00
    1.2703947435020006e-02 -2.8939592256975577e+00
    1.1005879243523486e-02 -2.3876831715776374e+00
    9.7389794554502366e-03 -1.9778368969487823e+00
    8.5006736843986613e-03 -1.5018074808429542e+00
    7.8720587386624553e-03 -1.0896443151758581e+00
    7.8522658511749003e-03 -9.5290266206257868e-01
    7.9089297114868558e-03 -8.7859083406490335e-01
    7.8814342703814044e-03 -9.0594055617161018e-01
    7.8459274140990441e-03 -9.7367959208969135e-01
    7.8690104247836484e-03 -1.0845917599328723e+00
    8.0048684404679018e-03 -1.2247448713915889e+00
    8.3189033080770299e-03 -1.4142135623730951e+00
    8.7662158725502447e-03 -1.6169285176918926e+00
    9.2333513100227010e-03 -1.7984792707441526e+00
    9.3816584743454615e-03 -1.8525167156649844e+00
    9.5271481771600011e-03 -1.9042937062262619e+00
    9.0940912954903582e-03 -1.7463803242020697e+00
    8.8331683450913190e-03 -1.6442942874387492e+00
    8.2218418566424971e-03 -1.3627702877384940e+00
    7.9947827686898884e-03 -1.2169289340525808e+00
    7.8954022492195419e-03 -1.1223010627948302e+00
    7.8582804563328505e-03 -1.0641018462542720e+00
    7.8448714674862665e-03 -9.7919082205512231e-01
    7.8468526209345517e-03 -9.6968990273318134e-01
    7.8912488071033078e-03 -1.1170669705593741e+00
    8.1610957155778176e-03 -1.3281555500509392e+00
    9.9152643260426755e-03 -2.0376249546337930e+00
    1.5067730566692666e-02 -3.5614899306772991e+00
    1.8081500972589641e-02 -4.3826081145831797e+00
    2.2351032559133927e-02 -5.5182980078304809e+00
    1.4168972339536429e-02 -3.3110708515598244e+00
    1.0421189763890549e-02 -2.2036006570737485e+00
    9.0167549924259679e-03 -1.7167901505579044e+00
    8.0719501753911231e-03 -1.2724808532259846e+00
    7.9468417667962563e-03 -1.1763770996940550e+00
    7.9211486592821248e-03 -1.1513389576266568e+00
    7.8467297230529701e-03 -1.0307283085824157e+00
    7.8717115211443985e-03 -9.1820487312795129e-01
    7.9615029627499619e-03 -8.4070409170115457e-01
    7.9579186604980534e-03 -8.4292723042352458e-01
    7.9509257132315148e-03 -8.4738519812940494e-01
    7.8939981127027232e-03 -8.9241648664104278e-01
    7.8646104304602032e-03 -9.2868949783072763e-01
    7.8452264987285223e-03 -9.7718330831278155e-01
    7.8434714217496711e-03 -1.0092737687925271e+00
    7.8431537559660123e-03 -9.9795081751872161e-01
    7.8440047332419306e-03 -9.8523716374416048e-01
    7.8595618332503656e-03 -9.3734343586702829e-01
    7.9105322885288879e-03 -8.7721718054948039e-01
    7.9421825553612907e-03 -8.5320423443767768e-01
    7.9132477848753036e-03 -8.7493128489157834e-01
    7.9032244133362285e-03 -8.8364128344493909e-01
    7.8441285348312267e-03 -9.8422694304538116e-01
    7.9177087445294822e-03 -1.1477327879714294e+00
    8.0031629294592399e-03 -1.2234373607472575e+00
    8.6559885171986119e-03 -1.5705625319186327e+00
    1.0162484839191313e-02 -2.1196598185744033e+00
    1.4188769156600639e-02 -3.3166247903553994e+00
    1.9770999911574279e-02 -4.8347699014534333e+00
    1.3497507708370162e-02 -3.1215063115253443e+00
    8.7146323175017245e-03 -1.5954480704349310e+00
    8.3996902618738763e-03 -1.4543094493404400e+00
    8.4506606672087869e-03 -1.4786055964333158e+00
    8.5659571242886548e-03 -1.5312636739334158e+00
    8.6133443037856288e-03 -1.5521246435421703e+00
    8.4830614863750167e-03 -1.4937039919528254e+00
    8.4211764193237015e-03 -1.4646369141608377e+00
    8.4248092905156620e-03 -1.4663704601269070e+00
    8.4376423582648071e-03 -1.4724659489290350e+00
    8.3141191464365799e-03 -1.4117694084462638e+00
    8.1737665719853053e-03 -1.3355620202986604e+00
    8.0215655501093327e-03 -1.2372647817539790e+00
    7.9858463919151058e-03 -1.2098250135813235e+00
    7.9629531505610758e-03 -1.1907371366948618e+00
    7.9651461217825782e-03 -1.1926274558499836e+00
    8.0100442536955464e-03 -1.2286791727918684e+00
    8.0153093713117018e-03 -1.2326312688558734e+00
    8.0761175618076445e-03 -1.2752500250000494e+00
    8.1673946574328266e-03 -1.3318507641762960e+00
    8.4050121105510647e-03 -1.4568795414854032e+00
    9.0657921521113665e-03 -1.7356110390903667e+00
    9.0167549924259679e-03 -1.7167901505579044e+00
    9.0657921521113665e-03 -1.7356110390903667e+00
    9.0288641283479305e-03 -1.7214571252710140e+00
    9.4275743368825819e-03 -1.8689803523856761e+00
    9.4044683333225597e-03 -1.8607102307799197e+00
    9.8905506491590699e-03 -2.0293127497309222e+00
    9.6672439370607405e-03 -1.9531550923607719e+00
    1.5448603683897789e-02 -3.6666666666666634e+00</input_scale>
  <output_scale>
    5.2631578947368418e-01 4.9999999999999994e-01 5.2631578947368418e-01
    4.9999999999999994e-01 5.2631578947368418e-01 4.9999999999999994e-01
    5.2631578947368418e-01 4.9999999999999994e-01 5.2631578947368418e-01
    4.9999999999999994e-01 5.2631578947368418e-01 4.9999999999999994e-01
    5.2631578947368418e-01 4.9999999999999994e-01 5.2631578947368418e-01
    4.9999999999999994e-01 5.2631578947368418e-01 4.9999999999999994e-01
    5.2631578947368418e-01 4.9999999999999994e-01 5.2631578947368418e-01
    4.9999999999999994e-01 5.2631578947368418e-01 4.9999999999999994e-01
    5.2631578947368418e-01 4.9999999999999994e-01</output_scale>
  <inv_output_scale>
    1.8999999999999999e+00 -9.4999999999999996e-01
    1.8999999999999999e+00 -9.4999999999999996e-01
    1.8999999999999999e+00 -9.4999999999999996e-01
    1.8999999999999999e+00 -9.4999999999999996e-01
    1.8999999999999999e+00 -9.4999999999999996e-01
    1.8999999999999999e+00 -9.4999999999999996e-01
    1.8999999999999999e+00 -9.4999999999999996e-01
    1.8999999999999999e+00 -9.4999999999999996e-01
    1.8999999999999999e+00 -9.4999999999999996e-01
    1.8999999999999999e+00 -9.4999999999999996e-01
    1.8999999999999999e+00 -9.4999999999999996e-01
    1.8999999999999999e+00 -9.4999999999999996e-01
    1.8999999999999999e+00 -9.4999999999999996e-01</inv_output_scale>
  <weights>
    <_>
      1.6644501477069654e-03 -2.1125232598740318e-02
      -7.7337736514978715e-03 1.0284440944007386e-03
      2.4307548774790924e-02 -1.5157628329209537e-03
      1.3956236301551344e-03 7.7305469333451447e-03
      2.7842144215912213e-03 1.2915558066541925e-02
      -1.1200460046094932e-02 -2.7056134416668289e-04
      -7.0064830349114869e-03 1.4599739459984648e-02
      7.6666870064519494e-03 -7.7593841603159621e-03
      2.0725027425132506e-02 5.6020303348133002e-04
      2.3714754670970460e-03 -2.4458931437451460e-02
      1.1924496467946090e-02 -1.4996286491621078e-02
      1.2572616460736303e-02 8.4978667109131024e-03
      9.0844002932664366e-03 8.0537099954371503e-03
      4.9749079853412294e-03 2.4670548630972124e-03
      -6.1064649993617989e-03 -1.0449750109787269e-02
      -2.8950528526316185e-02 2.9353196463828965e-03
      1.3691014008809382e-02 -8.0940636588036474e-03
      1.8202059777905996e-02 -1.4035864160162510e-02
      8.8942688995046642e-04 -1.6535717254416868e-02
      -7.5243531538173791e-03 -1.2233507881396328e-03
      -8.0223481538231785e-03 -4.4387078447876991e-03
      1.8899375503662878e-02 2.8194266714672216e-02
      -4.3946377489661433e-03 2.3765329985536345e-02
      -1.4098112111528706e-02 -4.4795274006704461e-03
      -2.0405170183142142e-03 1.6213910453203969e-02
      -4.3513474843395652e-03 -1.0047084263344950e-02
      -1.9259024288487095e-03 7.7814600425372867e-03
      1.9979510747790755e-02 -4.8561051732093335e-03
      1.0381280911627124e-02 1.1938560475031621e-02
      -6.1148013026034150e-03 -1.0309898925724400e-02
      -9.6987434292136899e-03 -1.9525813438821742e-02
      6.7732395390006023e-03 2.2273762811055416e-02
      1.0028379173942890e-02 2.3885171064556340e-03
      1.2698326971163527e-02 -7.9350899175293210e-03
      -2.4166661407372080e-02 9.8787642360386460e-04
      -1.5624052961041785e-02 -2.6550214867752751e-02
      -2.5492671379703192e-03 -2.2068937935334709e-02
      6.4400514035477174e-03 -5.2558919251214789e-03
      1.9872495919127878e-02 -1.4129229058213623e-02
      1.3236089754452833e-02 6.1475478046276594e-03
      -1.2080740971308868e-02 -2.0669431654557303e-02
      1.8015512416335300e-02 -1.9907390935182505e-02
      1.1497246091930096e-02 9.5223621163419061e-03
      6.0361252309344710e-03 4.6961470532596314e-03
      9.1899346288815392e-03 -7.6021683131439598e-03
      9.8781216821495280e-03 -2.7053980553656226e-03
      -2.1214812170113870e-02 -1.0097515205476854e-02
      1.2154861609278547e-02 2.5862499584920342e-02
      -4.5695522207623513e-03 -4.8842713001055792e-03
      2.2674747232307332e-02 1.2730827712163688e-02
      7.9563670620050943e-05 -1.3342835194868079e-02
      3.5503589211284435e-03 -8.9704277117493257e-03
      1.7996373164155290e-02 -1.0873473453590287e-02
      -1.5373200739148864e-02 -4.1312428572274022e-03
      3.6663793166202313e-03 -1.1378740881905887e-02
      1.8259662782156100e-02 1.5138320715410873e-02
      1.0276736082636094e-02 2.1429308884134312e-02
      -1.4266243460168967e-02 1.8628569637916962e-03
      9.9465483164485231e-03 9.6548061051163342e-03
      -2.6626760005472667e-02 2.4715877960282902e-02
      -1.1929186663946555e-02 8.3826531527097774e-03
      -1.7271913416093338e-03 1.4919502723041322e-02
      -1.3314707629344875e-02 8.0979995660006871e-03
      -6.1548767226515021e-03 -8.3064026905941262e-03
      -3.1828869977409925e-03 1.4886358715738353e-03
      -1.8306289046087831e-02 -2.8836487833842284e-02
      9.7555486680174289e-03 1.4054996772963662e-02
      -4.6247131641852877e-03 2.1373647919740613e-02
      4.9742971043496894e-03 -2.3868683696423365e-02
      -9.8146137714367615e-03 -1.1939446969057658e-02
      1.5101701702440674e-02 2.7712401081699835e-02
      -4.2335523086961563e-02 9.3064009627201530e-03
      -1.3676151880093392e-03 -3.2402453415918985e-03
      -6.5258354130954804e-03 1.1941482910791277e-02
      -6.8724134896406414e-03 -1.0150686228614388e-05
      -2.3097125656140777e-02 -1.1962817622320545e-02
      -2.5230645145269547e-03 2.1199353636675598e-02
      -5.8543029882699750e-03 4.7358752081361893e-03
      4.1221359614336574e-03 1.0854104105447951e-04
      -2.1102748354210957e-03 9.5950851472743871e-04
      3.6733887987113077e-03 8.2371540876467915e-04
      -8.1945003876424533e-03 3.1675270144493561e-02
      -1.0281899844575098e-02 -5.6120811959840689e-03
      -1.4531076215690341e-02 -3.0558109000783087e-03
      1.0856281315907183e-02 1.4142996425900610e-03
      -1.2575281618416355e-02 7.6511808613623378e-03
      1.5666237869091628e-02 5.7828878775750374e-03
      3.5329824174422736e-02 -1.7707182961507383e-02
      2.1857804964989405e-03 -1.1665266130552842e-02
      1.6798757233470928e-02 1.9271261869907512e-03
      1.2343789593104004e-02 -1.0651426401333625e-02
      4.5108139141231277e-03 -4.4713519329199437e-03
      4.6146906363156151e-03 -2.8087369287862204e-02
      1.4773047660831939e-03 2.7645624768102898e-02
      -1.3251265018959518e-02 -1.0077558856688847e-02
      -1.2060574465767700e-02 -7.9406198319924154e-03
      -5.1528010313643532e-03 -1.2128679304495710e-03
      1.7127231449223856e-02 -3.6368697635034294e-03
      -1.5828905431731852e-03 1.7124775739649763e-02
      -1.4497485747877145e-02 -2.1766842730289757e-02
      8.3827953808482522e-04 1.2762745007907604e-02
      -1.2656800152109104e-02 7.5469935322474225e-03
      -1.2515977994029079e-02 5.8724036857263160e-03
      -1.6086275846789247e-02 1.4172258355370563e-02
      1.5796559745066465e-02 -6.0831419691854353e-03
      8.0665514186879800e-03 -1.6991268683988019e-02
      7.8671125822854671e-03 3.1726009720586899e-03
      -1.9094673997561595e-02 3.3123865119589206e-03
      -3.8808357245896673e-02 2.4408982642841845e-02
      -3.5790674270112414e-04 7.8536098277241576e-03
      3.2459014226825418e-04 -8.6091879639612970e-03
      -3.1913344647283785e-02 -7.9403806304648109e-03
      1.6553536066955678e-02 -9.5389787252980595e-03
      1.8499763773408011e-03 -5.0291993862200766e-03
      -1.5272357818982736e-02 1.1486789411559225e-03
      4.1765130166642286e-04 9.3508439618737380e-03
      5.8180391464688281e-03 -2.8442035203697811e-03
      -6.4186427715088486e-03 7.1414375406421392e-03
      -3.3803428973830743e-03 1.2083553314047542e-02
      -2.2199426782832331e-02 2.5582572691470896e-02
      -8.1273296131731693e-03 4.0145128270322968e-02
      -1.8604892330145765e-03 2.7165158352570346e-02
      4.5263543783272013e-02 1.2240907717034370e-02
      -1.2814456123721079e-02 1.8572489657136339e-02
      1.1788321547644663e-03 -7.5289009417168666e-03
      -7.5222406941263418e-03 -1.0255442784555223e-02
      1.8579855740877042e-03 1.7811456517494814e-02
      1.2556423559870324e-02 1.0778631027987415e-02
      -1.2500255600023616e-02 9.3316469262392319e-03
      -2.9351481147137297e-03 -2.4544711310998144e-02
      -3.4585888346802753e-03 1.1657002459525201e-02
      -3.0392509425438757e-03 2.2538785892595743e-03
      -1.0907425248201977e-04 -1.9705584460790786e-02
      1.3177651773751589e-03 -2.6346014426879425e-02
      9.0697654528875387e-03 1.2526256020241783e-02
      -2.3540082940111458e-02 1.4143222064732675e-02
      -1.2738613987305645e-02 -1.9075734575580854e-02
      -2.6458913232627453e-02 1.8789148628505541e-02
      -2.0736255924226198e-02 1.8671061223061121e-02
      -3.8373501308901409e-02 -5.1995081827006864e-03
      1.1300433619949822e-03 1.7282150971390287e-02
      -2.5699184771253540e-04 2.7360879518761555e-03
      1.9518467070098197e-03 1.8704729198351623e-02
      1.1938432775509057e-02 1.1863469016544882e-02
      -4.8232131320139811e-03 5.5657115898405027e-04
      -1.3290605770068567e-02 2.1522831469307259e-02
      -1.2509310865829102e-02 1.8265194915854068e-02
      6.6678592682431212e-03 -5.3673229566140812e-03
      2.5576470202580668e-02 -3.6954158071200627e-03
      -3.2699175910695363e-02 -1.3536559139430994e-03
      1.2912857467197650e-02 2.0099544820970155e-03
      2.9820514234491894e-02 -1.9153422324146355e-02
      -1.3061397814565822e-02 -2.6043823448953899e-02
      1.0675392943254654e-02 6.6151241287096939e-03
      1.4131848087779812e-02 -2.6622448711868665e-02
      -1.1263295153018544e-02 6.1713931205210253e-03
      1.6367429174439605e-03 -2.1161622227605967e-02
      9.6152364449626788e-03 1.9961093218969762e-02
      -9.3480750987510672e-03 4.6571743159411474e-03
      6.6671603351587533e-03 -1.2723791410715158e-02
      -1.9282485933049858e-02 8.2541392937871758e-03
      9.8158274508539246e-03 -1.4972562201510681e-04
      1.2897898286207663e-02 1.1241429203035115e-02
      -7.5176542326253421e-03 2.6826924092588130e-03
      -9.6018254601453207e-03 1.6024397412368184e-02
      -1.4331451325346372e-03 -6.3410277090214335e-03
      -2.4630123501725092e-02 1.6686129611818831e-03
      -2.9360857301606549e-02 -2.7132465693135671e-03
      -5.9956937422710067e-03 7.2004054715459386e-03
      -9.7138013355468618e-04 3.9110842600381807e-03
      -7.8237149242926293e-03 9.7880173001111282e-03
      -2.2793349884184869e-02 2.4876235666474191e-03
      -2.7418341447894269e-02 7.1687486080140210e-03
      2.3874043081352496e-03 2.5045055196305668e-04
      9.3867850744296273e-03 -3.5085350377793891e-03
      -2.9894776090657094e-02 -1.1821289621833021e-02
      1.5766513108535597e-02 7.7235248015414108e-04
      -1.9950709022873423e-03 -1.7416458776017250e-02
      -1.5341352361515164e-02 8.5055604669532388e-03
      1.1142986948057822e-02 -9.8620717551473527e-03
      -9.3455650193778363e-03 9.6823253336654549e-03
      -4.0319131404852864e-03 1.9903977735617705e-02
      -8.2487425847263211e-03 2.3190467323814534e-02
      -3.3128154994876098e-02 5.5198013726921926e-03
      9.2939040384591928e-03 3.2317201655599488e-02
      5.2460457768024769e-03 1.8105531228865684e-02
      2.0617460418634725e-02 -3.6520053289878524e-03
      -8.6174309669105730e-03 -3.8029327125326260e-03
      6.3183190359659804e-03 2.9868928516846270e-03
      -1.1521699631838087e-02 -5.2347532647151352e-03
      1.3662305151331435e-02 1.3778204267906692e-02
      2.6322526014622111e-02 2.3657923830277809e-02
      -1.4201810018215081e-02 9.2179457363359275e-04
      4.8095519087336660e-03 -4.3143909747588817e-03
      2.3460898265473614e-03 3.8620201945923525e-05
      5.6285626822707591e-03 -1.9331026895210726e-02
      4.9834145305779664e-03 -3.3746403014766799e-03
      -9.7197808450206861e-03 -3.5756598481538657e-02
      9.8793250989902479e-03 1.0085718568434170e-02
      -2.5768520647005619e-03 8.8602087713431626e-03
      1.4809274471183113e-03 -2.6004977718670358e-02
      -4.2193240784658886e-02 -2.0399431251780903e-03
      -6.4536402982237496e-03 1.1832678107161581e-02
      -2.7052480012458899e-02 -3.4357507752049645e-03
      7.5920880728803878e-03 3.9864334016469189e-04
      7.6889448187440713e-03 2.4469594069952650e-03
      2.9052262562100535e-03 2.9388854531689608e-02
      -3.9166131364270218e-03 1.0524974466994595e-02
      3.6564705926023402e-03 -8.7702161863068492e-03
      6.4920676117980270e-03 5.3951909509301075e-03
      2.0685486860755565e-03 5.0747467922867559e-03
      1.7524318734210030e-02 -6.3664510001274627e-04
      2.7870216727443640e-02 -2.6141929440685052e-03
      -2.3432054567394292e-02 -6.8954905987972086e-03
      6.5048264016822604e-03 8.7396690969863168e-03
      1.8644538096593749e-02 -9.2593851968642716e-03
      -1.5103271301028573e-02 -1.0030604300973113e-02
      -5.9704203942616361e-03 -5.1556275067392481e-03
      5.5923585627051953e-03 -8.9841426732840887e-03
      -1.2520685121123384e-02 -3.0786002409983046e-03
      1.0938866580325887e-02 -9.8206266556727789e-03
      1.1529419747943952e-02 3.6266644549152326e-03
      -1.2774659491805104e-02 -3.4440753869350235e-03
      2.4589374430532638e-02 2.4231983501020113e-03
      -1.0599049610504846e-02 6.5185596989868347e-03
      5.1362497358660756e-04 5.8275701510376223e-03
      1.0094595606880237e-02 4.2359944331528442e-03
      6.2622741317076435e-04 -1.9213026259179212e-03
      -1.0936739261692181e-02 -5.2059346754690797e-03
      -4.1485860405793848e-04 -1.6082940437438374e-02
      -1.7318970733932345e-02 -4.3747272602037424e-03
      -1.3879196641314437e-02 -8.2917046656966701e-03
      -3.2889542826278796e-02 -6.8923841173461082e-03
      -3.5966855587913089e-03 3.0426167741153609e-03
      -5.8565201052874945e-03 -3.4886156478370917e-03
      -1.1543455875534467e-02 2.0657740771635536e-03
      -1.3271716134920416e-02 -1.0024124325233363e-02
      -1.0309038157731050e-03 -3.9600590262768697e-03
      1.4160362844527991e-04 -3.9955591492862293e-03
      -1.0254551364323360e-02 1.0216526413824492e-03
      2.1988144846579103e-02 -1.0664043564793224e-02
      7.1179735390196697e-03 -7.8453155611617649e-03
      -1.1431125502314848e-02 1.8702169733820079e-03
      1.7902663496850713e-02 -2.1782128444110295e-02
      -1.0490372224780772e-02 1.6277205415992001e-02
      -5.9788879752165651e-03 3.4319728507882702e-02
      -2.5415097528535286e-03 3.3499656775999039e-02
      -1.5836144302918905e-02 5.9242264306543883e-03
      3.6736053764268181e-02 7.5463548651503974e-03
      1.0282694470093727e-03 1.1060736047304091e-02
      3.7397904132005005e-03 -1.1375893741948865e-02
      4.4711640939679017e-03 -2.9599975726298700e-03
      -2.4039262019014641e-03 7.9196668311943014e-03
      -7.9788844233321839e-03 1.0500238335279253e-02
      1.2042444802660065e-02 4.0805745657627101e-03
      1.1963012406020703e-02 1.1028029968295954e-02
      -4.7131832783724840e-03 4.8203383651364718e-03
      1.6532504239079319e-02 -8.5866241742063535e-03
      -1.1247500840472822e-02 -4.0352696000630775e-03
      1.3797651602481727e-02 -3.1307308477454776e-02
      5.9291757799327400e-03 -6.7989928211999373e-03
      -6.8887987997474391e-03 -2.8973976118931141e-02
      9.7043319101652384e-03 -4.5451321785035291e-04
      1.7757024149278676e-03 5.8713370149485310e-03
      4.4516454927293742e-04 -3.0411530881727936e-02
      -4.3062937971658007e-02 8.1853917334000353e-03
      2.6605751871807757e-03 1.5356405740399474e-02
      -2.7651957528407774e-02 1.5505723740793309e-03
      1.3641683583348815e-02 -7.2388250617812832e-03
      4.9130462435696210e-03 3.4154210758868516e-03
      6.9871936262524892e-03 2.4839395943168623e-02
      2.7406394152466643e-03 2.8485714860346763e-03
      -7.2500683769567056e-03 -1.0744363135312318e-02
      3.8018157259980803e-03 5.8976236471827556e-03
      -1.1835950144471437e-03 6.8273712725362519e-03
      2.2854673515804350e-02 6.5630216294149868e-03
      2.0995024556408566e-02 6.0850570844305221e-03
      -1.9927240373827378e-02 -1.4626092945348484e-02
      -3.6301921916525510e-03 -1.7069584756059096e-03
      1.9442436692129399e-02 -4.6802198241830840e-03
      -1.1508484088758059e-02 -7.3200979635940676e-03
      -5.9426301159603342e-03 -7.2667799740448926e-03
      -3.6869921223686803e-03 -7.8289042073209168e-03
      -2.2093618700955314e-02 -6.1458394238558317e-03
      2.1802218761300457e-03 -1.2734733960089388e-02
      4.4149214773454669e-04 1.9015640399356168e-03
      -5.1486029790232500e-03 3.5242755687024249e-03
      2.3283593953539142e-02 1.0035483104988350e-04
      -1.4207579444431533e-02 4.4902951578083454e-03
      -5.1403772150435756e-03 1.8593198578342504e-02
      1.7411637481120151e-02 7.8752326673701847e-04
      9.6713901834411687e-03 1.7238638364621948e-02
      -1.0649322759545214e-02 1.5905924027019079e-03
      -2.2747084282730401e-03 -1.0072088887575511e-02
      -1.9172758564670014e-02 6.3345008586871013e-03
      -7.6064087714997966e-03 -7.8790747135057126e-03
      -3.8657122259017657e-02 -5.5990819382016350e-03
      -8.5059537880979013e-03 1.4207887431223252e-02
      -1.2365996467839264e-02 -8.4870149631632481e-03
      -3.9101664896115332e-03 2.9282576907484637e-04
      -9.0029276873719744e-03 -7.9174621705942489e-03
      -1.1747575147495706e-02 -3.3539516484767389e-03
      4.1328089137245413e-03 5.4498154357994402e-04
      -1.1899627557590860e-02 -5.4389283553095292e-03
      2.0554342054346655e-02 -2.5554216157708507e-02
      -4.7011035415138935e-03 -6.4779647116340539e-03
      -7.8744607836702951e-03 1.7627482384753178e-03
      1.1703953688523817e-02 -1.9284547948561576e-02
      -1.3212429032676947e-02 1.2596022933721508e-02
      -2.8095435317168562e-04 3.8272999005346864e-02
      5.4994691356944226e-03 2.6090664071568927e-02
      -1.5060438954298967e-02 5.6882696704135547e-03
      5.0888236421996379e-02 -1.1903436524680820e-02
      9.7324943121584410e-03 2.3311699429624411e-02
      1.3438142851443899e-03 -2.3509836683831081e-02
      1.7165189762739244e-02 -1.9663169072578493e-02
      -1.2918488463717348e-03 -1.4939171636087140e-03
      -1.6008168343684323e-03 7.8162928522198666e-03
      2.1624457413011496e-02 2.3480937784216673e-03
      5.7376422024444356e-03 7.2181349614453376e-03
      2.4169349886410340e-03 1.3068190205840316e-02
      1.2969932584452655e-02 -2.3251408237649368e-03
      -7.9245945848409830e-03 -6.5151298644736018e-03
      3.1414037926019234e-03 -1.9140834646370661e-02
      -7.5715424513110204e-03 -3.6491110938075645e-04
      6.1801478858490985e-03 -2.7944991066623188e-02
      -4.8987655919011143e-03 2.5447477812185482e-03
      1.3514217191479931e-02 1.5154341983699376e-03
      -4.0684939886065996e-03 -2.4028358798966677e-02
      -3.8694382227603463e-02 3.2040363959890085e-03
      6.6436521113559174e-03 -2.4522535917868225e-04
      -1.6568891643751622e-04 7.1842479915294639e-03
      2.0613370965840501e-03 -1.5940636375780019e-02
      -9.2573570162872424e-05 4.8763380884533653e-03
      9.1538410987891238e-03 -1.8583597908677473e-03
      8.1943620403321707e-04 -9.9670746006392218e-03
      -1.2511967269609762e-02 -4.2856313521637346e-03
      7.2707755182897132e-04 -8.2399990257302647e-03
      -3.9493893872076129e-04 7.7598545852797214e-03
      1.0381978230373545e-02 3.7307246355440366e-03
      5.0498710459880459e-03 1.0778075896293935e-02
      2.4334137920382043e-03 -1.5096604912934209e-02
      -6.8838545040994870e-03 5.3936514274520704e-03
      1.9733720055408427e-03 3.9134773076719802e-03
      1.1162491726288205e-03 -3.0380660393341486e-03
      -8.3856456959626180e-03 -8.2329811984335982e-04
      3.6315105290024826e-03 -3.2627542215653746e-03
      -3.3042895755100205e-03 -1.2418749671419770e-02
      1.8599454378714639e-03 -3.9593965376516918e-03
      -8.9018263232613828e-03 -6.5410272215509525e-03
      -7.9791310951166025e-03 -1.1425109586473492e-02
      1.8436685585249451e-02 2.4017264439027901e-04
      -1.1201290571281443e-03 -9.2949093040288651e-03
      -7.9444191893499588e-03 2.1109248245417347e-02
      3.6521781117726834e-03 -1.8348060124555872e-02
      1.7180649953945342e-02 2.1143726086692800e-02
      -1.9516371887337555e-02 3.9283979008383676e-03
      7.2184416141859520e-03 7.4968965236614513e-03
      -2.1689188606745409e-03 9.1002406334602312e-03
      9.7296430171151718e-03 8.0810302685081650e-05
      -3.0945379253461351e-02 2.3319166981920765e-03
      -1.0545652874536416e-02 5.3399542582596576e-03
      -6.7219307563380661e-03 -3.9402203981487244e-03
      -2.6895614982194809e-03 -8.8524421232608909e-04
      3.4748995738036583e-03 -2.8230334757386060e-03
      -1.9734765253137554e-02 -1.0416408596640270e-02
      -4.1057766024485704e-03 -3.1168790892428314e-03
      -7.8445950842240264e-03 -1.0466647726226958e-02
      4.9497204000001627e-03 -2.2895513288549434e-02
      -3.1579806790535130e-03 5.6010418080578378e-03
      -4.3640145386626385e-04 9.9214731850971946e-03
      -7.6817513211654932e-03 -1.1904495469643249e-02
      8.0041135169054811e-04 -1.2713354632308087e-03
      9.6993029790704462e-03 3.4924954450484616e-02
      2.8360040674548278e-03 5.3239292641064249e-03
      2.3669786049368294e-03 1.3079305525319728e-02
      3.5132091358060620e-02 -1.4694870006868451e-02
      3.6574180190876649e-04 1.9876096253965355e-02
      3.2462816538311352e-03 -1.3342503710568243e-02
      1.4415738337678915e-02 -3.0280555786743307e-03
      -1.4238639787779317e-02 -6.5583390326153356e-03
      1.2771428254890044e-02 1.1270578610075502e-02
      3.9491464370183258e-03 -1.3104786315268544e-03
      -4.4427836479160533e-04 8.2291475604337743e-04
      -3.8390471315881869e-03 3.7372507275650435e-03
      -2.6353074307118173e-03 -1.4318676683252747e-02
      1.0978810519421064e-02 1.0612573385705762e-03
      2.3275027195706430e-03 -4.3934853660481570e-03
      2.4416453886266848e-03 -8.4734949449101968e-03
      -7.4896808900164541e-03 -1.7611001677691304e-02
      9.4426525276603297e-03 1.9782204343434241e-02
      -9.4760366273489317e-03 6.7110687772541913e-03
      1.8015730719202661e-03 -9.9820092394587046e-03
      -2.2251394663188567e-02 3.5074699282189124e-03
      5.7459145007749870e-03 3.0516910315706528e-03
      -1.2799771921364219e-02 -3.9481706650856081e-03
      -6.4853434582649784e-05 6.0009531132863688e-03
      1.5290337356069861e-03 2.7814437392668879e-03
      2.9719960056244369e-03 6.9070811954431016e-03
      -4.3499235836314525e-03 -3.3694870678304654e-05
      1.0010436600419335e-03 -2.7105285060573746e-03
      -9.2752889810454305e-04 1.0056877015324126e-02
      -1.4816086496736458e-03 -2.5402031097561165e-03
      -3.9178370173672010e-04 -3.7641361755995177e-04
      1.0446664643271653e-02 6.5487787525864941e-04
      -6.7151201677594476e-03 5.2619905795924203e-03
      9.3113963796167196e-03 1.7809201403509362e-02
      1.7596086635868567e-02 1.0896929867048612e-03
      -1.1737058368479786e-03 7.0779587772790088e-04
      2.0304569427172770e-03 -8.5106622513132118e-04
      8.4634746383312302e-03 3.8338945037413611e-03
      2.8031562700456601e-03 -7.8098936602234766e-03
      1.2738742009596194e-02 -1.0598930356469574e-02
      4.0501274300476084e-03 3.9779627957052437e-03
      -1.7027627055594848e-02 -1.3027278257775400e-02
      6.0495252663092984e-03 -1.3989583850512936e-03
      4.9194246591872666e-04 -2.8888651852689807e-03
      6.7133079254615494e-03 7.6122097712566662e-03
      1.2532116703844293e-04 2.0297099032445315e-03
      9.0198266615708247e-04 -2.0103691488484333e-03
      -3.1710596046325558e-03 2.5219218005824101e-03
      -9.2810545792914537e-03 2.0014032575727095e-04
      -6.2870872497252919e-03 -6.3258120237035182e-04
      -4.4871498969024839e-03 3.5471038154076050e-03
      -1.8482575796578759e-02 -9.4517108726447831e-03
      7.6017600153707710e-04 -7.7091615735728333e-03
      1.3293314023557535e-03 -1.4145065625466293e-03
      -2.6532406635654069e-03 3.4977916124718333e-03
      -1.4329355911935588e-02 5.0556246060513175e-03
      -7.3642033335688355e-03 2.2861184719724726e-05
      -5.1595501929894289e-03 -9.9002138434957469e-03
      -9.9408700438860659e-03 1.0550140065076529e-05
      9.6333564600832675e-03 -1.3149878705469279e-02
      1.0329159502627248e-02 -1.0039490115449348e-03
      -9.4805627805086452e-03 1.2347518468121671e-03
      3.8847745215322711e-03 -2.9007472639408457e-03
      6.6084576113140800e-03 -3.1393742472031118e-05
      1.0962048619583206e-03 2.3171206718683540e-02
      -3.6331149257069458e-03 1.3156669347155231e-02
      -5.4545413135821570e-03 1.4140159600670247e-02
      2.2347670793047735e-02 1.3244749668769226e-02
      -2.3592008141934259e-03 1.6484289752482041e-02
      1.8209766055136526e-02 -1.0824192161398521e-02
      -3.2130076329610216e-03 1.0319805527765345e-02
      -8.5424374198069877e-03 -1.6314573097102705e-03
      5.0464755864403649e-03 4.3027925115171617e-03
      -1.5300520653626370e-03 8.6274319403563410e-03
      2.0835680030831792e-03 3.4154309130060853e-03
      -4.2524427126908572e-03 1.4845649820396148e-03
      -5.5429713393663274e-03 -1.0969398541926871e-02
      1.2234764246660526e-02 2.8187356870512784e-03
      -2.0846071419234908e-03 3.6552457956462374e-03
      2.3996321356879839e-05 2.6709311256541131e-03
      -3.4091779493633416e-03 -2.1569237540759170e-03
      -3.0935221368817820e-03 1.3383483828085026e-02
      -4.8263364123988951e-03 -2.9931784760992555e-03
      -1.1555055499328638e-03 1.5025333554668820e-03
      -6.9413762488567433e-03 2.3912304252807750e-05
      1.0472614003919594e-02 -1.8015655142277344e-03
      -2.9699065277298577e-03 -4.2300375265527456e-04
      -6.0740715073505777e-03 5.5172137145072051e-03
      -7.8876067171096626e-04 2.9226081803165639e-03
      4.7176663200171410e-03 -2.6407932396876033e-03
      -7.5672989510252517e-03 4.0616044612669100e-03
      6.3225434082391030e-03 5.9019881075413677e-03
      -4.1259295880203672e-03 1.3168798411141061e-03
      -4.2298245065592512e-03 -9.5396008205118708e-03
      -5.1624266496779671e-03 -2.3342015975226183e-03
      8.9584972006587840e-03 8.7751595238839129e-04
      -1.2557256120044661e-03 1.1996429068218137e-02
      1.3357493003187552e-02 1.5706149581645078e-02
      -2.9824814741013378e-04 1.0376691109867992e-02
      2.8326944126500988e-04 3.0915052247239309e-03
      -1.1503273167375660e-04 -2.2805849971402857e-03
      5.9855822679301526e-04 1.1843401636912866e-02
      1.1583582873614880e-02 -1.0232474494946499e-02
      4.2595828267294814e-03 9.3910468025207861e-03
      6.7470132374411484e-04 1.1813438492585537e-03
      -4.4092816701056204e-03 -1.3208960097577405e-02
      -3.9204731742258943e-04 -2.3207684688505482e-04
      1.2656538995028353e-02 3.6320482864440093e-04
      9.4035390215464528e-03 6.3233708439055540e-03
      -3.7945165670466886e-03 6.2053775818757392e-03
      -4.0034708062739784e-03 -1.5872313628449153e-02
      -2.6612105383851418e-03 -6.1937887418390711e-05
      -5.4508649447176111e-03 -5.1113104040888767e-04
      3.1036316441632253e-03 -4.4876845224089187e-03
      -1.7416894119768810e-03 8.3993974722329902e-04
      -3.5788331523122149e-03 -1.1929917748959946e-02
      4.5169907380293133e-03 -1.1408920531694035e-02
      6.7582753005410931e-03 8.6042611569742394e-03
      6.0312280569092764e-03 1.1732646368829267e-02
      -4.5117201147167009e-04 2.7731135766115504e-03
      -3.6662034099149291e-03 -1.3794623586849671e-03
      -9.6957986194321326e-03 -6.3983467464249237e-03
      4.0876115519841065e-03 1.5718288569927759e-03
      -1.3448007669644335e-03 -6.4374177638370778e-03
      5.1839104295450574e-03 2.1271497106587446e-03
      -1.6011632125390177e-03 -1.0559183436867291e-03
      1.2314365315172189e-03 1.7136693425050342e-03
      1.4822372167419244e-02 -5.1435827897957226e-03
      -1.8751571795327568e-04 -1.4058014686700727e-03
      -1.1389255480122899e-02 -2.3160634604885025e-04
      8.6853628272090229e-04 1.2607351716867173e-02
      7.6544080462281573e-03 1.9173308340937899e-02
      -1.2522499344706532e-02 1.1096943120499981e-02
      9.3088702063316067e-03 3.9406296009316206e-03
      -1.2030084797571623e-02 2.0802523765428307e-02
      -1.3204237747616642e-03 5.0941607084626838e-03
      -4.6952687132898038e-03 1.3072412670252131e-04
      -7.9256355006387582e-03 2.2786806844773445e-03
      -1.4429853735759368e-03 2.8762963311092612e-04
      3.0366912405560375e-03 9.6888789886202028e-03
      3.2398347228259541e-03 -1.1344705043181738e-02
      -3.3719765249832687e-03 2.2607876124964648e-03
      3.3486173851749465e-03 -3.6869422439405313e-03
      -9.0703466627767952e-03 1.1349480623269871e-03
      2.1557543708978447e-03 -4.1974883619612007e-03
      -5.3960357061103043e-03 4.1253202253436457e-03
      2.1228065105404420e-03 -3.3752874730472609e-03
      -1.0670812378472934e-02 -7.8062089873162134e-03
      -1.2014351415452618e-02 1.2167724099083196e-02
      6.3641986957259271e-03 3.5572319119269741e-03
      -4.1825533984470213e-03 1.8675918149364294e-03
      -5.1236685650071206e-03 -4.4448330786590546e-03
      -2.8276555443212310e-03 1.6892911039289064e-03
      8.5099513080410007e-03 1.8433682004236119e-03
      9.8604590985024061e-03 -8.0619071534289398e-03
      -8.3666003657532680e-03 8.6528363984703636e-04
      -6.2630395244485217e-03 3.1633012435849006e-04
      -4.8715883432586338e-03 -5.9475080012652234e-04
      1.9014401694163333e-03 2.6672094951425071e-03
      1.8041788724874191e-03 4.6434463429219216e-03
      -9.6088271429176395e-05 -2.3183667100054079e-03
      4.7737522772238012e-03 1.1910187880469819e-03
      8.9311116357325155e-05 6.2995295620093443e-03
      1.9265874407351715e-03 -4.0884410860146936e-03
      1.5222287553451654e-03 2.7704822839668001e-03
      -1.0465311051070987e-03 1.8268664873534934e-03
      2.3795511361367296e-03 -9.5643811118611612e-03
      -1.9161233919324173e-03 3.2673420853596242e-03
      3.1958684446012462e-04 -3.6589834568224308e-03
      7.8229280516250825e-04 -7.3389964246409114e-03
      1.0573207803323440e-04 -3.7630310038091193e-03
      3.5458881478403017e-03 -4.6420436279726645e-03
      -1.2188759094053450e-03 1.2742043525011982e-02
      1.7546268628108772e-03 -7.1192783404010569e-03
      8.5440445450789427e-03 1.3336429228427557e-02
      -1.5112633781651454e-02 6.8627950265081261e-03
      9.1427887148086105e-03 6.0349655034167846e-03
      -5.2042049139463609e-03 5.6116816722250407e-03
      4.4702291854674071e-03 2.4533755095348078e-03
      -1.0913063426008621e-02 9.4431859396475245e-03
      -6.7239705523827603e-03 -6.3950102498959872e-04
      -1.6039209244038356e-03 1.0597350770287120e-03
      4.3077916026314726e-03 5.0408657559589364e-03
      4.8102011816190509e-04 4.2865128695300349e-03
      -1.2319747166296443e-02 -1.9223777163677785e-03
      -1.1326838733949510e-03 -9.8207085961551062e-06
      -4.5377888178485710e-03 -1.5247429177025111e-02
      -3.4490951748565664e-03 -1.5359775345699713e-02
      -3.4345200491910097e-03 4.8388115218122251e-04
      -1.0748400530764522e-03 2.6695749500703914e-03
      -5.2544453297777667e-03 3.7449822768855076e-03
      9.3109259488572248e-03 -2.6163535482781530e-03
      8.9462519926252343e-03 2.4024424686204587e-03
      -1.6409684753847650e-03 1.8202086792720074e-03
      -5.4994528520798591e-03 1.0096927668773877e-02
      1.4635534912885202e-02 -4.3264558666585061e-03
      -8.7412775197362740e-04 1.4715636670707629e-02
      -6.3429537501679680e-04 -8.3067159200968365e-03
      3.0572245024221198e-03 -4.7050381945623788e-05
      -8.7266057229753551e-03 -6.2440961521907706e-03
      1.7397765536116938e-03 -5.0447844922381943e-04
      -2.6647169337128576e-03 -3.0785192210099443e-03
      -4.4523285352497726e-03 -6.0598356619815275e-04
      8.7136646163067221e-03 7.8801911621206883e-03
      -4.7704850220208813e-03 -1.6837360100239809e-02
      6.7851813154617068e-04 4.9839265047137331e-03
      1.7507889326722204e-03 1.9645460923974601e-03
      -1.5704755398152068e-02 -3.7695150115034863e-03
      -9.9700960819569962e-04 -5.5477455235687439e-04
      3.2453350993980200e-03 1.4858480885284129e-02
      -5.0684145857520357e-03 5.6400289024814861e-04
      -4.1005095018957919e-03 -1.0328780601257768e-03
      -2.5112670042489843e-04 1.2148065597921542e-02
      -1.8502293155322062e-03 -3.6729860396573851e-03
      3.5623659527233391e-03 -2.1412309225266931e-03
      -2.7027662041682341e-03 5.3227654363901221e-03
      -5.1860397854158018e-03 4.7435610082978419e-03
      7.8205410234611812e-03 -7.1914998589781920e-03
      4.2171986270262123e-03 -1.4349875858962165e-02
      -6.0971173677197218e-03 5.4910558394348271e-03
      -5.9657768671031739e-03 4.2838479361881890e-03
      -6.4740414002787995e-03 -8.2023996471528998e-03
      -6.9158140258687890e-03 2.4368978981518523e-03
      -4.2091030267255598e-03 9.6773792262291516e-03
      8.7614738723387087e-03 4.9914201670604487e-03
      4.9859070549481445e-03 2.9188082437794018e-03
      3.5501578435744490e-03 3.5331854630816090e-03
      9.6650628485308240e-03 1.5538066944062164e-03
      3.5533883956989621e-03 3.4472583249934842e-04
      7.0935260541709379e-03 -1.4173034372484069e-03
      1.5668552292930894e-02 -1.3230748242339994e-02
      2.9883047750136099e-03 -6.5071111971205819e-04
      -2.3791351353023463e-03 -3.4858127753948303e-04
      -8.9935867223402601e-03 -1.1064062505687991e-02
      -6.2224179608803961e-03 -5.0705915133505645e-03
      6.6115226304280950e-03 -7.0782519788750234e-03
      5.0854422374653312e-03 4.5201542376995512e-03
      -5.2454779243298862e-03 -5.3765106567922631e-03
      1.7095433303453778e-03 1.0457675647395618e-02
      -1.7596007477678539e-02 1.0203362690506512e-02
      1.3946975458889045e-02 1.1532723415805137e-02
      4.0285127025238322e-03 5.4111386403552925e-03
      3.5765639157234463e-03 1.1150157381419300e-02
      1.1042804381140112e-03 3.5595263607275740e-03
      8.3269284264868651e-04 -5.9047417729640997e-03
      3.1126824919354389e-03 6.7331978625861325e-04
      -3.5488779223915418e-03 9.3783658585640372e-03
      -8.4290927455258589e-03 1.0529451721436309e-02
      -1.1209071891296236e-02 4.7610717075199527e-03
      -3.0846056843872437e-03 -4.3270419625753955e-03
      -8.8632182437999550e-03 -1.1749882729472836e-02
      -1.0215133614048596e-02 -7.2244412797193179e-03
      3.4244993898473988e-04 7.6782552642150051e-03
      -4.5571334369887478e-03 3.1841194863087056e-03
      -1.0097390334773136e-02 1.0027858216481802e-02
      1.3305346832600751e-02 -9.2916494945915976e-03
      4.3475529779487092e-03 -5.6209137413915089e-04
      2.9651218800274310e-03 -6.6059140060664087e-03
      -4.7115558389439795e-03 1.2478598021564272e-02
      6.0896164982589158e-03 3.3340578013260013e-03
      -5.9536524661725322e-03 1.1071733845451147e-02
      9.8041708964133785e-03 -6.9967857510539085e-03
      2.3176393789877837e-04 9.7012448335014340e-03
      -1.1865632734293335e-02 -8.7804805753042801e-03
      8.3302839835922259e-03 -3.9931887629410705e-03
      -8.5539415406060190e-03 5.7626546314879434e-03
      -1.1467514617822607e-02 -7.4644862506142399e-04
      -4.7797850437499585e-03 4.5778080595724868e-03
      -1.8322719707052262e-02 -8.6884507060609652e-03
      7.1468071782983368e-03 4.2183205323686650e-03
      -1.1414221249619922e-02 1.0250972334001119e-02
      -6.9910215552959985e-03 -4.9828060568790425e-03
      -4.0671344784728161e-03 1.2223071562259748e-02
      7.1284945340910951e-03 1.9421917047023826e-02
      -2.3436100069438512e-02 2.2023009154131441e-03
      -4.0005942428796249e-03 1.1191263173173621e-02
      1.3656721448352480e-02 6.4046321941641218e-03
      7.9230814457487905e-03 -2.9231779259267180e-03
      1.1544788978976759e-03 -8.8119782663357606e-03
      -8.9697086372956727e-03 4.9848535231977248e-03
      -3.0138195963243151e-03 4.3040097650562234e-03
      6.3860690787676836e-03 -5.5438383789337990e-03
      -1.9677559929474784e-03 -3.0194803135875519e-03
      7.2084526158045789e-03 1.0384750907509312e-02
      -9.6437666968965004e-03 9.5773600462961302e-03
      3.5737226569924757e-03 -1.5257131641742304e-02
      -1.2515841938954692e-02 -4.5050702435189697e-03
      2.0024171305092564e-03 3.8697474046815420e-03
      5.0828367983218941e-03 3.5733745896773337e-03
      1.8113258859673284e-02 9.4322167501393120e-03
      6.2216439947868837e-03 1.2047674630290465e-02
      3.0554159031503133e-03 7.9477311555879154e-03
      6.6701101996298967e-03 -3.5371661797669327e-03
      2.3304834294377240e-03 1.3833340842388193e-02
      1.3749562565316420e-02 -7.7321581714930631e-03
      8.4798256546789290e-03 1.1480895812709831e-04
      1.4849736928395358e-02 1.2080864898621492e-02
      -7.5348790161811506e-03 -1.1127826494645061e-02
      -1.0461973011523561e-02 -2.4583952721092053e-03
      1.2551935912113423e-02 -6.1927644217451014e-03
      8.5542613363592968e-03 3.6909347072319482e-03
      -5.0306235720152829e-03 1.1243866754324938e-02
      -6.1558802770706725e-04 -1.3284294319638467e-02
      -2.6517889152187588e-03 9.5556891786790846e-03
      -1.3574579725001805e-03 4.7595481102600300e-03
      -2.8661652651839416e-03 -1.5162881039337648e-03
      -2.1572970131592730e-03 9.8584139333863143e-03
      9.2736987920554043e-03 -7.6598777302601048e-03
      6.7800171576379710e-04 -1.7711865205618574e-02
      9.0912594569053946e-03 -2.4947873443045107e-03
      4.4371703409011162e-03 3.0888406434312230e-03
      -1.6635316993074661e-02 1.2564317899407011e-02
      -2.0291057697369016e-03 4.4088282397587294e-03
      -1.0103727575869968e-02 -5.0395755940969887e-03
      -5.5846767513876780e-04 -8.6679510273269655e-03
      -1.0417076788713955e-03 -4.3618133131726753e-03
      -3.2905679958792752e-03 -6.0378197832111138e-03
      4.6742259002011637e-04 -2.6166990948237080e-03
      -1.5134187228266584e-03 1.6409927389486163e-02
      1.3403664828639150e-02 -7.0825310126982266e-03
      4.6345425626445128e-03 -1.7844278091641425e-02
      -4.3549806031744145e-03 -2.1187483787473912e-03
      1.3949568712802777e-03 1.2511857778052658e-02
      8.5903517387993689e-04 2.1332395079517268e-02
      -6.9152686899205422e-03 1.0286881800865802e-02
      2.1152025897060077e-02 6.4575636448751528e-03
      -4.6981025882124978e-03 1.8364752095592012e-02
      -5.4872303977551405e-03 -2.3126277532312615e-03
      -3.8672180729043277e-04 -9.2113540150546413e-03
      -1.1603130918369982e-02 2.3967592817618079e-03
      -1.0183911405746267e-02 -3.1587821018503005e-03
      -1.6722159691095265e-02 8.9781971313140935e-03
      -2.1180298944778859e-02 -8.9221348448030677e-04
      4.9333260175277406e-03 3.7341187805829466e-03
      -1.9029783403865231e-02 8.5934961557102441e-03
      -3.8559763094921352e-03 6.7806430934837030e-04
      5.4411208518146915e-03 8.5121353572583051e-03
      -5.0236914805785599e-03 7.7767994885547991e-03
      -1.2491489130806959e-02 5.9348269449228074e-03
      -1.9265939181510018e-02 1.2665102592580206e-02
      1.1176888680687455e-02 1.4411224178374354e-02
      6.3910317724483129e-03 2.5664867178879463e-03
      -3.2306230013808106e-03 -9.3298149560040039e-03
      -1.2778618915921263e-02 2.7371568157825012e-03
      4.2976264376854883e-03 -2.5371151768660595e-03
      9.2553082347677051e-05 -9.5482623059687226e-03
      1.7605513135612524e-02 1.0981626371915182e-02
      6.7800919719860622e-03 1.4526931126334916e-02
      -1.9032151157685043e-02 -3.1567238119904685e-04
      3.4477702360538980e-03 -1.2847281256510512e-03
      -8.1052969423156540e-03 -1.3321271689545004e-02
      8.4897024575550060e-03 -5.3107391784625799e-03
      -2.2789469754804950e-03 -1.1301121208245797e-03
      1.6153854494203271e-02 2.3063904360037615e-03
      -6.4232683292512983e-03 1.3335110567670918e-02
      -5.9964875238544815e-03 -3.0180286781297575e-03
      3.5145591960094643e-03 6.9358484217509498e-03
      4.0829975024573731e-03 1.1476540056529417e-02
      6.7590003993084199e-03 -1.5864059002845597e-03
      7.5070536256653690e-03 1.2781443443793582e-02
      2.2639784949589934e-02 7.8916780987794716e-03
      -5.6250848036676800e-03 -8.3656697651324670e-03
      -9.8845219167714837e-03 -8.6649282087763336e-03
      1.2227454265237116e-02 -3.2481407208122053e-04
      4.5103516881062726e-03 1.3253724741146874e-03
      3.3818891303034472e-03 -1.6545621210452795e-03
      1.6848737934319657e-03 -1.2154051667071895e-02
      1.5347301354504005e-03 9.7302566710662976e-03
      -6.7506417236411946e-03 -3.6321968745350685e-04
      -5.1699155364992181e-03 -4.3511829993898247e-03
      -5.0027380318124291e-03 6.5819540030321103e-04
      1.3546792498695174e-02 7.2371251104138062e-03
      -4.5793963981435029e-03 -1.2530005688638133e-02
      1.1903645675648257e-02 5.3047393138257477e-03
      4.1984437383778758e-03 7.4318359584886050e-04
      -1.1212517094993411e-02 6.8855480538558668e-03
      -2.4747267192577835e-03 -6.7104238224923616e-03
      -5.2084454237396657e-03 -4.8965720275209127e-03
      7.2097973074179865e-03 -1.4779095772084026e-02
      2.6891602424678114e-03 8.6088618059560144e-03
      -6.2001459228195098e-03 -1.2246907149490676e-02
      2.0846449547688400e-03 5.2938022479568341e-03
      -1.7893298568759639e-03 1.2883163507587199e-02
      8.6478008680747689e-03 -4.3883271584759078e-03
      4.3370271169581361e-03 -1.6883657448761601e-02
      -1.7770676762464625e-02 -1.2862317747954553e-03
      -4.4722611661304366e-03 5.4949762863445526e-03
      -8.8784047807986283e-03 2.5154250507330337e-02
      -8.9581717952833904e-03 -1.2044749230853471e-05
      1.1331256116283838e-02 1.0697158017378673e-02
      -4.9485980016354039e-03 1.2119218702943843e-02
      3.9194208453744508e-03 2.5338316170264961e-03
      -4.6087399265922423e-04 -8.2802428899861700e-03
      -9.3380347084584259e-03 -4.8374492101410892e-03
      7.8694083277596437e-03 1.9073637439914043e-03
      -1.8571606047531376e-02 5.2428083746438809e-03
      -1.0030327693770097e-02 2.9799063714961043e-03
      -9.5592774071105984e-03 -1.0557577108821639e-03
      -6.2325833639524930e-03 -1.5129740655046745e-02
      3.6895671285345497e-03 -5.5627091379424464e-03
      -4.4569389715888504e-04 5.5135870974747370e-03
      6.6467219112140768e-03 -2.0645384272814089e-03
      -1.5176884642611107e-02 9.8687664072583878e-03
      -1.5191343318187911e-02 -3.8511179018117275e-03
      7.3246147538317888e-03 1.1286141544849910e-02
      -1.8995711103109417e-03 1.7986924342508006e-02
      -2.5885934050343763e-02 -9.3988816805369371e-03
      8.0714020677417706e-03 -6.3937973916514286e-04
      4.7290016580267651e-03 -9.7088086815204783e-03
      -9.2009257815593385e-03 1.2699826449035232e-02
      1.4719036765035493e-02 1.5053156474208906e-02
      2.0569662405555242e-03 1.6186408412692185e-03
      -8.6585585489779102e-03 2.0409244828541995e-02
      3.2875895633848518e-03 6.1625005854176202e-03
      1.2283953481797170e-02 1.5936307682034429e-03
      1.8334738113072121e-02 -1.0556626041299883e-02
      -2.3123366273751021e-02 -5.1211952833888933e-03
      6.2554313325546848e-03 -1.1426827282304368e-02
      9.9950067457683506e-03 5.1114995823828445e-03
      -7.0969793367254052e-03 -1.3720635594147055e-03
      -5.6807569906658904e-04 2.2670428432657310e-03
      -8.7171621151011808e-03 4.1434566527232229e-03
      -8.5470833021629930e-03 1.6854361593375045e-02
      1.7115994924104233e-03 -1.6388516078156762e-03
      2.5158952423279660e-02 8.0708543439806518e-03
      4.9919001039381763e-03 1.2545884930157434e-02
      -2.9551251095269160e-03 -1.1812325967112108e-02
      -4.3796079989113475e-03 7.3954911751744241e-03
      -3.0328556885665333e-03 -8.9107088040505083e-03
      1.8241084953109242e-02 1.0780011849699789e-02
      4.7960703234164077e-03 1.2125772667920831e-02
      -2.4547297534273579e-03 1.0838446208768268e-02
      1.0766919446151644e-03 -6.0660753806839433e-03
      -3.0628002509805425e-02 -2.8728132758719161e-03
      -2.2470983805479686e-02 -1.3700295919123045e-02
      2.9197619736454033e-03 -3.3265324816113338e-04
      -6.8275079558581088e-03 1.3702569315263449e-02
      -2.7889949535954525e-03 -7.9447822405001520e-03
      9.1649440048311107e-03 2.3515278720306300e-03
      -1.4523430503613002e-02 -4.2602240401199368e-03
      7.9593037095316670e-03 6.3865910167162912e-03
      9.2373786343541101e-03 9.5794703866205061e-03
      6.9059341807194510e-04 -2.0084205025316326e-02
      5.3364276971274030e-03 1.6492302986882933e-02
      -1.7641576873754741e-02 -2.5917026957052773e-02
      1.0377472405063745e-03 -9.7642357957528417e-04
      8.6536213413948657e-03 3.6390212792392234e-03
      -1.0205998033452110e-02 1.2202961776313925e-02
      6.0448037620681279e-03 -8.0175340533522026e-03
      -9.4857977753861240e-03 9.0606067988669037e-03
      -1.5781865973700859e-02 -1.3896434007861272e-02
      1.6421864871595165e-02 2.7697816586440996e-03
      1.0997357874369158e-02 -1.2975409565014808e-02
      -2.8620615379838497e-03 -9.9303260200234444e-03
      4.4755010784809411e-03 -1.3793642501757880e-02
      1.3467574989868709e-02 4.2158556516986344e-03
      -2.0611908861345577e-03 -8.2006444159226279e-03
      7.3993703034819251e-03 -4.4255406692152192e-03
      6.2362904854544095e-03 3.8225174702002165e-03
      -1.0137172106499007e-02 -5.7480840159182161e-03
      -6.7197885324929143e-03 -7.9851928934133575e-03
      2.9013661973787362e-04 4.1546345406533328e-03
      7.6993455427998010e-04 -7.1500733065297467e-03
      2.8443998578243429e-03 -6.8030698740867363e-03
      -3.0961499084889120e-03 7.4830719936327924e-03
      6.4464404822147017e-03 7.1892232093196985e-03
      -1.4968557502595870e-02 3.0208871286828295e-03
      -2.3029229586500233e-03 1.3474022175853887e-03
      1.0056264386306149e-02 -4.0450429664204979e-03
      -6.8061879258286273e-03 1.4519553870022055e-02
      -1.7731002960865782e-02 -7.9448608329208050e-03
      8.8932352732513723e-03 1.1954891711466796e-02
      1.9993914795911859e-03 -1.0134859014923919e-02
      -1.4902007129490380e-02 8.1624675697805661e-03
      2.0833504130771093e-03 8.4374721294237197e-03
      5.1108635432069033e-03 -3.2084736082636654e-03
      1.3008701875222687e-03 2.2553541977580291e-02
      -3.4369300974317579e-03 -2.9764720163036476e-03
      8.1399096639915049e-03 5.8350653134221723e-03
      1.1700392843816765e-02 -1.4855260388865229e-02
      -1.6024938254716736e-02 9.9341325942042414e-03
      1.9795169795006648e-03 -2.5973125271862305e-03
      1.2753384894866580e-02 -5.8857323672036410e-03
      -8.1034326987856127e-04 1.2898461339818730e-03
      -3.8883812167995362e-04 -1.0699565830938813e-03
      -1.0185957228361837e-02 -3.2625342299440560e-04
      -1.4155627890060918e-03 2.1861513044214978e-02
      1.7663563156917819e-03 -2.5529804421954489e-03
      1.4544600035530555e-02 6.8019084175224278e-03
      -3.4222891141591594e-03 1.0866244367217706e-02
      -6.6285347354187044e-03 -7.4513858474378617e-03
      -3.1099593473018811e-04 5.9702756475555965e-03
      6.4515651783734473e-03 -1.8146877298462854e-02
      7.2721471781617992e-03 1.3770155667855367e-02
      -7.2880499624470981e-03 2.4736738076803550e-04
      4.7475887973787469e-03 2.9458837903324092e-03
      6.8001003582879391e-04 -3.2000362966222943e-03
      -1.7841469515262116e-02 -1.1634828563286119e-03
      -1.9489276771209325e-02 -9.8450218353804148e-03
      1.0357073295550127e-03 -9.7556700398789276e-03
      7.4845580039343733e-03 6.9717424452092006e-03
      -2.1632325673895448e-03 1.0463950703915278e-03
      6.9468692184485696e-03 1.7523247902552882e-02
      -8.3952556436041915e-03 -3.1074804908564940e-03
      1.5137308270266749e-02 1.2495150497777158e-02
      5.0090218169892816e-03 5.7643968808488832e-03
      1.7131932204086518e-03 -3.7002396246103727e-03
      1.1542806699593878e-03 2.3410225507238688e-02
      -6.5155160573524672e-03 -1.3793197756567071e-02
      2.2472527448718083e-03 -8.3227685514798769e-03
      6.0523646001633341e-03 5.0824726978383923e-03
      4.4728404049671740e-03 4.3451946803165992e-03
      -2.6749841052251676e-03 -8.4295476380502818e-03
      -4.1838215259179393e-03 5.0890062111363533e-03
      -1.2613371064326358e-02 -1.0860037543596900e-02
      4.9143061302753775e-03 8.2531548860977199e-03
      9.1156353797978672e-03 -1.8959678306170590e-02
      4.8290587825289182e-03 -1.1707035945110775e-02
      -8.8814883380661930e-03 -8.5232479147761674e-03
      1.0131915289384721e-02 7.5343129060370740e-03
      -3.2795674099285288e-03 -8.5402585648140759e-03
      3.6337518388742185e-03 3.8169511995461477e-03
      2.1909844478294341e-03 -2.0722719051921453e-03
      -2.2969822253137880e-03 -9.1670989837621900e-03
      7.1220913586988609e-04 -1.2746980560766100e-02
      -3.2083147058969965e-03 8.1317526421792260e-05
      8.0634672495311019e-03 -1.6351753098886056e-02
      -1.0887417884773445e-03 -4.9399792958021074e-03
      -2.3221824840027046e-03 -8.9682023824616923e-03
      1.4798271594144076e-02 1.4360630819277709e-02
      -1.0371169169533498e-02 6.8143052236139456e-03
      4.8264078322643083e-03 -1.1601515194317527e-02
      -5.3061628119726451e-03 -8.2553395319122560e-03
      -1.9579517069616918e-02 1.1203883821903458e-02
      -1.7131391540366941e-02 1.8479211719517606e-04
      1.4025611806531496e-02 1.3545240121573843e-02
      -2.7212162950178958e-03 -6.3584104055314609e-03
      -2.3355690642997303e-02 1.0991135450577632e-02
      -2.3945332230455919e-03 9.5029224353352943e-04
      -2.0915267847305082e-03 -1.2250662860787952e-02
      7.6854022044089820e-03 2.3748311068320201e-02
      -9.4945019139192066e-03 -3.3016180470399627e-03
      1.4290121792074346e-02 8.9875508903507224e-03
      8.3950254358888081e-03 -1.2892487173657400e-02
      -1.6378289638961988e-02 9.3089797806231913e-03
      -5.4813384541533379e-03 -1.0854652428278421e-03
      2.1627024777456986e-02 -1.3582430978929142e-02
      1.7343930969747927e-03 -9.9531227761171895e-05
      -1.4718763567330162e-03 -3.5433442570058640e-03
      -4.0488308691420437e-03 -1.2180611241926889e-02
      -4.2257700219646664e-03 2.1183159114337085e-02
      5.8577391405011505e-03 -1.2789455580468083e-02
      4.9309187899385298e-03 1.5590104106888607e-03
      -6.7471865615201373e-03 6.8415951793432701e-03
      1.9438005027793624e-04 -1.9179363870926529e-03
      -1.1875635799687510e-02 2.3375731376098245e-03
      6.2483643227628036e-03 -2.0750454304884737e-02
      2.3417363747202458e-03 1.0591600423128629e-02
      -1.3552694006553468e-02 1.7840031648251979e-02
      -7.6931295367549356e-03 -2.1468805178439239e-03
      1.3843649336572379e-02 -2.2675195472485433e-03
      -1.7007476689234066e-02 1.3908833037173077e-03
      -1.4761891764729194e-02 -5.0595869841296506e-03
      -4.8169335923170051e-03 -1.9352430878456686e-03
      1.3428899423351685e-02 1.3235640700830265e-02
      -7.2416382800671326e-03 -3.4077667585186854e-03
      -2.1088870726941465e-03 1.7718265395094537e-02
      -8.4616288781761747e-03 -5.3882800526314214e-03
      1.4518282397601091e-02 1.7159802051489665e-02
      8.2292206364120522e-03 -1.2753842920807253e-03
      -4.6092657548001429e-03 -2.9090452247562768e-03
      -2.7376740868174272e-03 2.1870366490743566e-02
      2.8227901737882637e-03 -1.0909264691958607e-02
